digraph Tree {
0 [label="X[2] <= 5.2946\nentropy = 1.0\nsamples = 966", shape="box"] ;
1 [label="X[1] <= 0.3088\nentropy = 0.976976473709\nsamples = 629", shape="box"] ;
0 -> 1 ;
2 [label="X[3] <= 4.0392\nentropy = 0.946714459278\nsamples = 523", shape="box"] ;
1 -> 2 ;
3 [label="X[2] <= -5.2339\nentropy = 0.871980771666\nsamples = 374", shape="box"] ;
2 -> 3 ;
4 [label="X[8] <= 82.8585\nentropy = 0.325309760172\nsamples = 21", shape="box"] ;
3 -> 4 ;
5 [label="entropy = 0.0000\nsamples = 7\nvalue = [ 1.55914674  0.        ]", shape="box"] ;
4 -> 5 ;
6 [label="X[4] <= -14.6826\nentropy = 0.152969841964\nsamples = 14", shape="box"] ;
4 -> 6 ;
7 [label="entropy = 0.0000\nsamples = 1\nvalue = [ 0.34647705  0.        ]", shape="box"] ;
6 -> 7 ;
8 [label="X[0] <= 0.8761\nentropy = 0.102364441452\nsamples = 13", shape="box"] ;
6 -> 8 ;
9 [label="entropy = 0.0000\nsamples = 8\nvalue = [  0.          29.22818358]", shape="box"] ;
8 -> 9 ;
10 [label="X[4] <= 36.7091\nentropy = 0.302477406175\nsamples = 5", shape="box"] ;
8 -> 10 ;
11 [label="X[7] <= 56.2413\nentropy = 0.133584460719\nsamples = 3", shape="box"] ;
10 -> 11 ;
12 [label="entropy = 0.0000\nsamples = 2\nvalue = [ 0.          9.13380737]", shape="box"] ;
11 -> 12 ;
13 [label="entropy = 0.0000\nsamples = 1\nvalue = [ 0.17323853  0.        ]", shape="box"] ;
11 -> 13 ;
14 [label="entropy = 0.0000\nsamples = 2\nvalue = [ 0.34647705  0.        ]", shape="box"] ;
10 -> 14 ;
15 [label="X[7] <= 1.7350\nentropy = 0.916160081352\nsamples = 353", shape="box"] ;
3 -> 15 ;
16 [label="X[8] <= 134.0025\nentropy = 0.906574570061\nsamples = 70", shape="box"] ;
15 -> 16 ;
17 [label="X[7] <= -16.5257\nentropy = 0.468704151851\nsamples = 57", shape="box"] ;
16 -> 17 ;
18 [label="X[4] <= 45.5302\nentropy = 0.940086890713\nsamples = 11", shape="box"] ;
17 -> 18 ;
19 [label="entropy = 0.0000\nsamples = 1\nvalue = [ 0.          1.82676147]", shape="box"] ;
18 -> 19 ;
20 [label="entropy = 0.0000\nsamples = 10\nvalue = [ 3.291532  0.      ]", shape="box"] ;
18 -> 20 ;
21 [label="entropy = -0.0000\nsamples = 46\nvalue = [ 13.16612799   0.        ]", shape="box"] ;
17 -> 21 ;
22 [label="X[1] <= -0.4198\nentropy = 0.848566117019\nsamples = 13", shape="box"] ;
16 -> 22 ;
23 [label="entropy = 0.0000\nsamples = 3\nvalue = [ 0.          5.48028442]", shape="box"] ;
22 -> 23 ;
24 [label="X[9] <= 40.2476\nentropy = 0.969316113837\nsamples = 10", shape="box"] ;
22 -> 24 ;
25 [label="entropy = 0.0000\nsamples = 8\nvalue = [ 2.07886231  0.        ]", shape="box"] ;
24 -> 25 ;
26 [label="X[3] <= 3.5462\nentropy = 0.848566117019\nsamples = 2", shape="box"] ;
24 -> 26 ;
27 [label="entropy = 0.0000\nsamples = 1\nvalue = [ 0.6929541  0.       ]", shape="box"] ;
26 -> 27 ;
28 [label="entropy = 0.0000\nsamples = 1\nvalue = [ 0.          1.82676147]", shape="box"] ;
26 -> 28 ;
29 [label="X[5] <= 10.5732\nentropy = 0.863479564674\nsamples = 283", shape="box"] ;
15 -> 29 ;
30 [label="X[4] <= 18.3681\nentropy = 0.948758509117\nsamples = 214", shape="box"] ;
29 -> 30 ;
31 [label="X[4] <= -0.6075\nentropy = 0.991948207724\nsamples = 193", shape="box"] ;
30 -> 31 ;
32 [label="X[1] <= 0.0020\nentropy = 0.583815037801\nsamples = 13", shape="box"] ;
31 -> 32 ;
33 [label="X[5] <= -3.3352\nentropy = 0.23794558674\nsamples = 6", shape="box"] ;
32 -> 33 ;
34 [label="X[2] <= 2.9003\nentropy = 0.762874535321\nsamples = 2", shape="box"] ;
33 -> 34 ;
35 [label="entropy = 0.0000\nsamples = 1\nvalue = [ 0.51971558  0.        ]", shape="box"] ;
34 -> 35 ;
36 [label="entropy = -0.0000\nsamples = 1\nvalue = [ 0.          1.82676147]", shape="box"] ;
34 -> 36 ;
37 [label="entropy = 0.0000\nsamples = 4\nvalue = [  0.          10.96056884]", shape="box"] ;
33 -> 37 ;
38 [label="entropy = 0.0000\nsamples = 7\nvalue = [ 1.55914674  0.        ]", shape="box"] ;
32 -> 38 ;
39 [label="X[4] <= 4.3519\nentropy = 0.999982016994\nsamples = 180", shape="box"] ;
31 -> 39 ;
40 [label="X[3] <= 2.9194\nentropy = 0.494164049797\nsamples = 59", shape="box"] ;
39 -> 40 ;
41 [label="X[3] <= 2.8941\nentropy = 0.856618180482\nsamples = 15", shape="box"] ;
40 -> 41 ;
42 [label="entropy = 0.0000\nsamples = 14\nvalue = [ 4.67744021  0.        ]", shape="box"] ;
41 -> 42 ;
43 [label="entropy = 0.0000\nsamples = 1\nvalue = [ 0.          1.82676147]", shape="box"] ;
41 -> 43 ;
44 [label="entropy = -0.0000\nsamples = 44\nvalue = [ 10.39431157   0.        ]", shape="box"] ;
40 -> 44 ;
45 [label="X[0] <= 0.5828\nentropy = 0.975127460551\nsamples = 121", shape="box"] ;
39 -> 45 ;
46 [label="X[8] <= 119.2925\nentropy = 0.515858472316\nsamples = 12", shape="box"] ;
45 -> 46 ;
47 [label="X[0] <= 0.4701\nentropy = 0.311172194709\nsamples = 9", shape="box"] ;
46 -> 47 ;
48 [label="entropy = 0.0000\nsamples = 1\nvalue = [ 0.34647705  0.        ]", shape="box"] ;
47 -> 48 ;
49 [label="X[9] <= 18.7601\nentropy = 0.215716761722\nsamples = 8", shape="box"] ;
47 -> 49 ;
50 [label="X[8] <= 79.2338\nentropy = 0.762874535321\nsamples = 4", shape="box"] ;
49 -> 50 ;
51 [label="entropy = 0.0000\nsamples = 3\nvalue = [ 0.51971558  0.        ]", shape="box"] ;
50 -> 51 ;
52 [label="entropy = -0.0000\nsamples = 1\nvalue = [ 0.          1.82676147]", shape="box"] ;
50 -> 52 ;
53 [label="entropy = 0.0000\nsamples = 4\nvalue = [  0.          12.78733032]", shape="box"] ;
49 -> 53 ;
54 [label="entropy = -0.0000\nsamples = 3\nvalue = [ 1.03943116  0.        ]", shape="box"] ;
46 -> 54 ;
55 [label="X[0] <= 0.7341\nentropy = 0.999785770118\nsamples = 109", shape="box"] ;
45 -> 55 ;
56 [label="entropy = 0.0000\nsamples = 22\nvalue = [ 6.23658694  0.        ]", shape="box"] ;
55 -> 56 ;
57 [label="X[9] <= 13.8870\nentropy = 0.985596856087\nsamples = 87", shape="box"] ;
55 -> 57 ;
58 [label="X[8] <= 51.3521\nentropy = 0.704905410111\nsamples = 10", shape="box"] ;
57 -> 58 ;
59 [label="entropy = 0.0000\nsamples = 4\nvalue = [ 1.55914674  0.        ]", shape="box"] ;
58 -> 59 ;
60 [label="X[6] <= 2.2663\nentropy = 0.425083533974\nsamples = 6", shape="box"] ;
58 -> 60 ;
61 [label="entropy = 0.0000\nsamples = 1\nvalue = [ 0.51971558  0.        ]", shape="box"] ;
60 -> 61 ;
62 [label="X[2] <= 2.9607\nentropy = 0.26595502742\nsamples = 5", shape="box"] ;
60 -> 62 ;
63 [label="X[9] <= 11.1245\nentropy = 0.542258484623\nsamples = 3", shape="box"] ;
62 -> 63 ;
64 [label="entropy = 0.0000\nsamples = 2\nvalue = [ 0.51971558  0.        ]", shape="box"] ;
63 -> 64 ;
65 [label="entropy = -0.0000\nsamples = 1\nvalue = [ 0.          3.65352295]", shape="box"] ;
63 -> 65 ;
66 [label="entropy = 0.0000\nsamples = 2\nvalue = [ 0.         7.3070459]", shape="box"] ;
62 -> 66 ;
67 [label="X[6] <= 7.7902\nentropy = 0.999344941876\nsamples = 77", shape="box"] ;
57 -> 67 ;
68 [label="X[3] <= 3.3654\nentropy = 0.977731402823\nsamples = 53", shape="box"] ;
67 -> 68 ;
69 [label="X[5] <= 0.6776\nentropy = 0.926243859793\nsamples = 40", shape="box"] ;
68 -> 69 ;
70 [label="X[1] <= 0.1286\nentropy = 0.970350306953\nsamples = 17", shape="box"] ;
69 -> 70 ;
71 [label="entropy = 0.0000\nsamples = 11\nvalue = [ 2.77181642  0.        ]", shape="box"] ;
70 -> 71 ;
72 [label="X[3] <= 3.0823\nentropy = 0.57495615713\nsamples = 6", shape="box"] ;
70 -> 72 ;
73 [label="entropy = 0.0000\nsamples = 2\nvalue = [ 0.          5.48028442]", shape="box"] ;
72 -> 73 ;
74 [label="entropy = 0.0000\nsamples = 4\nvalue = [ 0.86619263  0.        ]", shape="box"] ;
72 -> 74 ;
75 [label="entropy = 0.0000\nsamples = 23\nvalue = [ 6.92954105  0.        ]", shape="box"] ;
69 -> 75 ;
76 [label="X[5] <= -2.0226\nentropy = 0.609205334342\nsamples = 13", shape="box"] ;
68 -> 76 ;
77 [label="entropy = 0.0000\nsamples = 3\nvalue = [ 1.03943116  0.        ]", shape="box"] ;
76 -> 77 ;
78 [label="X[1] <= 0.2056\nentropy = 0.425083533974\nsamples = 10", shape="box"] ;
76 -> 78 ;
79 [label="X[8] <= 77.8247\nentropy = 0.292335605756\nsamples = 8", shape="box"] ;
78 -> 79 ;
80 [label="entropy = 0.0000\nsamples = 1\nvalue = [ 0.34647705  0.        ]", shape="box"] ;
79 -> 80 ;
81 [label="X[7] <= 6.3539\nentropy = 0.175902271008\nsamples = 7", shape="box"] ;
79 -> 81 ;
82 [label="X[4] <= 9.4175\nentropy = 0.425083533974\nsamples = 4", shape="box"] ;
81 -> 82 ;
83 [label="entropy = 0.0000\nsamples = 2\nvalue = [ 0.34647705  0.        ]", shape="box"] ;
82 -> 83 ;
84 [label="entropy = 0.0000\nsamples = 2\nvalue = [ 0.          3.65352295]", shape="box"] ;
82 -> 84 ;
85 [label="entropy = 0.0000\nsamples = 3\nvalue = [ 0.          9.13380737]", shape="box"] ;
81 -> 85 ;
86 [label="entropy = 0.0000\nsamples = 2\nvalue = [ 0.51971558  0.        ]", shape="box"] ;
78 -> 86 ;
87 [label="entropy = 0.0000\nsamples = 24\nvalue = [ 6.58306399  0.        ]", shape="box"] ;
67 -> 87 ;
88 [label="X[2] <= -0.6700\nentropy = 0.425083533974\nsamples = 21", shape="box"] ;
30 -> 88 ;
89 [label="X[1] <= 0.0007\nentropy = 0.102364441452\nsamples = 5", shape="box"] ;
88 -> 89 ;
90 [label="entropy = 0.0000\nsamples = 4\nvalue = [  0.          12.78733032]", shape="box"] ;
89 -> 90 ;
91 [label="entropy = -0.0000\nsamples = 1\nvalue = [ 0.17323853  0.        ]", shape="box"] ;
89 -> 91 ;
92 [label="X[4] <= 42.3112\nentropy = 0.590326307039\nsamples = 16", shape="box"] ;
88 -> 92 ;
93 [label="X[7] <= 10.0699\nentropy = 0.425083533974\nsamples = 10", shape="box"] ;
92 -> 93 ;
94 [label="entropy = 0.0000\nsamples = 4\nvalue = [ 1.21266968  0.        ]", shape="box"] ;
93 -> 94 ;
95 [label="X[2] <= 4.1413\nentropy = 0.0919615009835\nsamples = 6", shape="box"] ;
93 -> 95 ;
96 [label="entropy = 0.0000\nsamples = 5\nvalue = [  0.          14.61409179]", shape="box"] ;
95 -> 96 ;
97 [label="entropy = -0.0000\nsamples = 1\nvalue = [ 0.17323853  0.        ]", shape="box"] ;
95 -> 97 ;
98 [label="entropy = -0.0000\nsamples = 6\nvalue = [ 1.03943116  0.        ]", shape="box"] ;
92 -> 98 ;
99 [label="X[3] <= 3.6227\nentropy = 0.611137384296\nsamples = 69", shape="box"] ;
29 -> 99 ;
100 [label="X[8] <= 48.1297\nentropy = 0.762874535321\nsamples = 55", shape="box"] ;
99 -> 100 ;
101 [label="entropy = 0.0000\nsamples = 5\nvalue = [ 1.55914674  0.        ]", shape="box"] ;
100 -> 101 ;
102 [label="X[6] <= 1.8469\nentropy = 0.713956879899\nsamples = 50", shape="box"] ;
100 -> 102 ;
103 [label="entropy = 0.0000\nsamples = 6\nvalue = [ 1.55914674  0.        ]", shape="box"] ;
102 -> 103 ;
104 [label="X[3] <= 3.5825\nentropy = 0.655167007031\nsamples = 44", shape="box"] ;
102 -> 104 ;
105 [label="X[4] <= -1.3762\nentropy = 0.617293710658\nsamples = 41", shape="box"] ;
104 -> 105 ;
106 [label="entropy = 0.0000\nsamples = 4\nvalue = [ 1.21266968  0.        ]", shape="box"] ;
105 -> 106 ;
107 [label="X[0] <= 1.4319\nentropy = 0.55660507266\nsamples = 37", shape="box"] ;
105 -> 107 ;
108 [label="X[4] <= 3.3351\nentropy = 0.689680843182\nsamples = 31", shape="box"] ;
107 -> 108 ;
109 [label="X[7] <= 14.6015\nentropy = 0.158829603365\nsamples = 7", shape="box"] ;
108 -> 109 ;
110 [label="X[5] <= 17.0518\nentropy = 0.0919615009835\nsamples = 6", shape="box"] ;
109 -> 110 ;
111 [label="entropy = 0.0000\nsamples = 4\nvalue = [  0.          12.78733032]", shape="box"] ;
110 -> 111 ;
112 [label="X[0] <= 0.4837\nentropy = 0.425083533974\nsamples = 2", shape="box"] ;
110 -> 112 ;
113 [label="entropy = 0.0000\nsamples = 1\nvalue = [ 0.17323853  0.        ]", shape="box"] ;
112 -> 113 ;
114 [label="entropy = 0.0000\nsamples = 1\nvalue = [ 0.          1.82676147]", shape="box"] ;
112 -> 114 ;
115 [label="entropy = 0.0000\nsamples = 1\nvalue = [ 0.17323853  0.        ]", shape="box"] ;
109 -> 115 ;
116 [label="X[8] <= 104.4518\nentropy = 0.938328054713\nsamples = 24", shape="box"] ;
108 -> 116 ;
117 [label="X[6] <= 3.1340\nentropy = 0.801333510763\nsamples = 16", shape="box"] ;
116 -> 117 ;
118 [label="entropy = 0.0000\nsamples = 2\nvalue = [ 0.          5.48028442]", shape="box"] ;
117 -> 118 ;
119 [label="X[8] <= 67.5143\nentropy = 0.991668527034\nsamples = 14", shape="box"] ;
117 -> 119 ;
120 [label="entropy = 0.0000\nsamples = 8\nvalue = [ 1.90562379  0.        ]", shape="box"] ;
119 -> 120 ;
121 [label="X[1] <= -0.0295\nentropy = 0.762874535321\nsamples = 6", shape="box"] ;
119 -> 121 ;
122 [label="X[7] <= 5.6956\nentropy = 0.26595502742\nsamples = 3", shape="box"] ;
121 -> 122 ;
123 [label="entropy = 0.0000\nsamples = 1\nvalue = [ 0.17323853  0.        ]", shape="box"] ;
122 -> 123 ;
124 [label="entropy = 0.0000\nsamples = 2\nvalue = [ 0.          3.65352295]", shape="box"] ;
122 -> 124 ;
125 [label="entropy = 0.0000\nsamples = 3\nvalue = [ 0.86619263  0.        ]", shape="box"] ;
121 -> 125 ;
126 [label="entropy = 0.0000\nsamples = 8\nvalue = [ 2.07886231  0.        ]", shape="box"] ;
116 -> 126 ;
127 [label="X[3] <= 2.4171\nentropy = 0.158829603365\nsamples = 6", shape="box"] ;
107 -> 127 ;
128 [label="entropy = 0.0000\nsamples = 1\nvalue = [ 0.17323853  0.        ]", shape="box"] ;
127 -> 128 ;
129 [label="X[1] <= -0.0514\nentropy = 0.0919615009835\nsamples = 5", shape="box"] ;
127 -> 129 ;
130 [label="entropy = 0.0000\nsamples = 1\nvalue = [ 0.17323853  0.        ]", shape="box"] ;
129 -> 130 ;
131 [label="entropy = 0.0000\nsamples = 4\nvalue = [  0.          14.61409179]", shape="box"] ;
129 -> 131 ;
132 [label="entropy = -0.0000\nsamples = 3\nvalue = [ 0.86619263  0.        ]", shape="box"] ;
104 -> 132 ;
133 [label="X[0] <= 0.5741\nentropy = 0.2546320616\nsamples = 14", shape="box"] ;
99 -> 133 ;
134 [label="entropy = 0.0000\nsamples = 3\nvalue = [  0.          12.78733032]", shape="box"] ;
133 -> 134 ;
135 [label="X[1] <= -0.0658\nentropy = 0.367850177021\nsamples = 11", shape="box"] ;
133 -> 135 ;
136 [label="entropy = 0.0000\nsamples = 3\nvalue = [  0.          14.61409179]", shape="box"] ;
135 -> 136 ;
137 [label="X[8] <= 79.2441\nentropy = 0.848566117019\nsamples = 8", shape="box"] ;
135 -> 137 ;
138 [label="entropy = 0.0000\nsamples = 4\nvalue = [ 0.86619263  0.        ]", shape="box"] ;
137 -> 138 ;
139 [label="X[1] <= -0.0100\nentropy = 0.542258484623\nsamples = 4", shape="box"] ;
137 -> 139 ;
140 [label="entropy = 0.0000\nsamples = 1\nvalue = [ 0.34647705  0.        ]", shape="box"] ;
139 -> 140 ;
141 [label="X[0] <= 2.0164\nentropy = 0.26595502742\nsamples = 3", shape="box"] ;
139 -> 141 ;
142 [label="entropy = 0.0000\nsamples = 2\nvalue = [ 0.          3.65352295]", shape="box"] ;
141 -> 142 ;
143 [label="entropy = -0.0000\nsamples = 1\nvalue = [ 0.17323853  0.        ]", shape="box"] ;
141 -> 143 ;
144 [label="X[7] <= 9.8233\nentropy = 0.759213381047\nsamples = 149", shape="box"] ;
2 -> 144 ;
145 [label="X[1] <= 0.0538\nentropy = 0.557008764336\nsamples = 139", shape="box"] ;
144 -> 145 ;
146 [label="entropy = 0.0000\nsamples = 96\nvalue = [ 25.8125404   0.       ]", shape="box"] ;
145 -> 146 ;
147 [label="X[9] <= 210.4276\nentropy = 0.919239226255\nsamples = 43", shape="box"] ;
145 -> 147 ;
148 [label="X[7] <= 6.7067\nentropy = 0.598094130333\nsamples = 40", shape="box"] ;
147 -> 148 ;
149 [label="entropy = 0.0000\nsamples = 34\nvalue = [ 9.00840336  0.        ]", shape="box"] ;
148 -> 149 ;
150 [label="X[1] <= 0.0797\nentropy = 0.999492742186\nsamples = 6", shape="box"] ;
148 -> 150 ;
151 [label="X[0] <= 0.7521\nentropy = 0.762874535321\nsamples = 2", shape="box"] ;
150 -> 151 ;
152 [label="entropy = 0.0000\nsamples = 1\nvalue = [ 0.51971558  0.        ]", shape="box"] ;
151 -> 152 ;
153 [label="entropy = -0.0000\nsamples = 1\nvalue = [ 0.          1.82676147]", shape="box"] ;
151 -> 153 ;
154 [label="entropy = -0.0000\nsamples = 4\nvalue = [ 1.21266968  0.        ]", shape="box"] ;
150 -> 154 ;
155 [label="X[8] <= 91.2893\nentropy = 0.26595502742\nsamples = 3", shape="box"] ;
147 -> 155 ;
156 [label="entropy = 0.0000\nsamples = 2\nvalue = [ 0.          3.65352295]", shape="box"] ;
155 -> 156 ;
157 [label="entropy = -0.0000\nsamples = 1\nvalue = [ 0.17323853  0.        ]", shape="box"] ;
155 -> 157 ;
158 [label="X[0] <= 0.9341\nentropy = 0.870337724387\nsamples = 10", shape="box"] ;
144 -> 158 ;
159 [label="X[4] <= 2.1389\nentropy = 0.57495615713\nsamples = 5", shape="box"] ;
158 -> 159 ;
160 [label="entropy = 0.0000\nsamples = 3\nvalue = [ 0.86619263  0.        ]", shape="box"] ;
159 -> 160 ;
161 [label="entropy = 0.0000\nsamples = 2\nvalue = [ 0.          5.48028442]", shape="box"] ;
159 -> 161 ;
162 [label="entropy = 0.0000\nsamples = 5\nvalue = [ 1.38590821  0.        ]", shape="box"] ;
158 -> 162 ;
163 [label="X[9] <= 7.9120\nentropy = 0.699358401896\nsamples = 106", shape="box"] ;
1 -> 163 ;
164 [label="X[6] <= 2.9812\nentropy = 0.425083533974\nsamples = 4", shape="box"] ;
163 -> 164 ;
165 [label="entropy = 0.0000\nsamples = 2\nvalue = [ 0.          5.48028442]", shape="box"] ;
164 -> 165 ;
166 [label="entropy = 0.0000\nsamples = 2\nvalue = [ 0.51971558  0.        ]", shape="box"] ;
164 -> 166 ;
167 [label="X[9] <= 156.9270\nentropy = 0.311060502849\nsamples = 102", shape="box"] ;
163 -> 167 ;
168 [label="entropy = 0.0000\nsamples = 99\nvalue = [ 30.48998061   0.        ]", shape="box"] ;
167 -> 168 ;
169 [label="X[2] <= -1.4213\nentropy = 0.632941577193\nsamples = 3", shape="box"] ;
167 -> 169 ;
170 [label="entropy = 0.0000\nsamples = 1\nvalue = [ 0.          1.82676147]", shape="box"] ;
169 -> 170 ;
171 [label="entropy = -0.0000\nsamples = 2\nvalue = [ 0.34647705  0.        ]", shape="box"] ;
169 -> 171 ;
172 [label="X[9] <= 148.4215\nentropy = 0.737013677982\nsamples = 337", shape="box"] ;
0 -> 172 ;
173 [label="X[4] <= 19.1409\nentropy = 0.624310179857\nsamples = 330", shape="box"] ;
172 -> 173 ;
174 [label="X[5] <= 20.0847\nentropy = 0.419583307776\nsamples = 291", shape="box"] ;
173 -> 174 ;
175 [label="X[9] <= 12.7241\nentropy = 0.182028509353\nsamples = 240", shape="box"] ;
174 -> 175 ;
176 [label="X[4] <= -3.5687\nentropy = 0.68032795201\nsamples = 33", shape="box"] ;
175 -> 176 ;
177 [label="X[9] <= 9.8124\nentropy = 0.425083533974\nsamples = 2", shape="box"] ;
176 -> 177 ;
178 [label="entropy = 0.0000\nsamples = 1\nvalue = [ 0.17323853  0.        ]", shape="box"] ;
177 -> 178 ;
179 [label="entropy = 0.0000\nsamples = 1\nvalue = [ 0.          1.82676147]", shape="box"] ;
177 -> 179 ;
180 [label="entropy = -0.0000\nsamples = 31\nvalue = [ 8.14221073  0.        ]", shape="box"] ;
176 -> 180 ;
181 [label="entropy = -0.0000\nsamples = 207\nvalue = [ 56.12928248   0.        ]", shape="box"] ;
175 -> 181 ;
182 [label="X[5] <= 21.6624\nentropy = 0.853243768506\nsamples = 51", shape="box"] ;
174 -> 182 ;
183 [label="X[2] <= 7.3433\nentropy = 0.848566117019\nsamples = 6", shape="box"] ;
182 -> 183 ;
184 [label="X[1] <= 0.8640\nentropy = 0.26595502742\nsamples = 3", shape="box"] ;
183 -> 184 ;
185 [label="entropy = 0.0000\nsamples = 2\nvalue = [ 0.          3.65352295]", shape="box"] ;
184 -> 185 ;
186 [label="entropy = -0.0000\nsamples = 1\nvalue = [ 0.17323853  0.        ]", shape="box"] ;
184 -> 186 ;
187 [label="entropy = 0.0000\nsamples = 3\nvalue = [ 1.21266968  0.        ]", shape="box"] ;
183 -> 187 ;
188 [label="X[1] <= 0.0053\nentropy = 0.542789558145\nsamples = 45", shape="box"] ;
182 -> 188 ;
189 [label="X[4] <= 2.0651\nentropy = 0.992141721248\nsamples = 7", shape="box"] ;
188 -> 189 ;
190 [label="entropy = 0.0000\nsamples = 3\nvalue = [ 1.38590821  0.        ]", shape="box"] ;
189 -> 190 ;
191 [label="X[7] <= 11.7191\nentropy = 0.90616833076\nsamples = 4", shape="box"] ;
189 -> 191 ;
192 [label="entropy = 0.0000\nsamples = 3\nvalue = [ 0.86619263  0.        ]", shape="box"] ;
191 -> 192 ;
193 [label="entropy = 0.0000\nsamples = 1\nvalue = [ 0.          1.82676147]", shape="box"] ;
191 -> 193 ;
194 [label="entropy = 0.0000\nsamples = 38\nvalue = [ 10.5675501   0.       ]", shape="box"] ;
188 -> 194 ;
195 [label="X[6] <= 2.6340\nentropy = 0.996992440049\nsamples = 39", shape="box"] ;
173 -> 195 ;
196 [label="X[7] <= 16.3513\nentropy = 0.961467826568\nsamples = 22", shape="box"] ;
195 -> 196 ;
197 [label="entropy = 0.0000\nsamples = 18\nvalue = [ 5.37039431  0.        ]", shape="box"] ;
196 -> 197 ;
198 [label="X[9] <= 11.5262\nentropy = 0.226230423313\nsamples = 4", shape="box"] ;
196 -> 198 ;
199 [label="entropy = 0.0000\nsamples = 3\nvalue = [ 0.          9.13380737]", shape="box"] ;
198 -> 199 ;
200 [label="entropy = 0.0000\nsamples = 1\nvalue = [ 0.34647705  0.        ]", shape="box"] ;
198 -> 200 ;
201 [label="entropy = 0.0000\nsamples = 17\nvalue = [ 4.67744021  0.        ]", shape="box"] ;
195 -> 201 ;
202 [label="X[3] <= 3.7210\nentropy = 0.670920439691\nsamples = 7", shape="box"] ;
172 -> 202 ;
203 [label="entropy = 0.0000\nsamples = 2\nvalue = [ 0.         7.3070459]", shape="box"] ;
202 -> 203 ;
204 [label="entropy = 0.0000\nsamples = 5\nvalue = [ 1.55914674  0.        ]", shape="box"] ;
202 -> 204 ;
}