digraph Tree {
0 [label="X[2] <= 5.3373\nentropy = 1.0\nsamples = 969", shape="box"] ;
1 [label="X[6] <= 5.1827\nentropy = 0.98069143115\nsamples = 633", shape="box"] ;
0 -> 1 ;
2 [label="X[1] <= 0.4811\nentropy = 0.92932127228\nsamples = 358", shape="box"] ;
1 -> 2 ;
3 [label="X[9] <= 31.8449\nentropy = 0.870201703344\nsamples = 290", shape="box"] ;
2 -> 3 ;
4 [label="X[4] <= 16.6324\nentropy = 0.969264692021\nsamples = 198", shape="box"] ;
3 -> 4 ;
5 [label="X[1] <= 0.1157\nentropy = 0.996232290186\nsamples = 146", shape="box"] ;
4 -> 5 ;
6 [label="X[8] <= 105.8210\nentropy = 0.96551767968\nsamples = 79", shape="box"] ;
5 -> 6 ;
7 [label="X[5] <= 16.2485\nentropy = 0.870703615573\nsamples = 52", shape="box"] ;
6 -> 7 ;
8 [label="X[3] <= 2.8645\nentropy = 0.979577314014\nsamples = 44", shape="box"] ;
7 -> 8 ;
9 [label="X[4] <= 9.6341\nentropy = 0.598016515188\nsamples = 12", shape="box"] ;
8 -> 9 ;
10 [label="X[9] <= 23.7552\nentropy = 0.219620088263\nsamples = 7", shape="box"] ;
9 -> 10 ;
11 [label="X[4] <= 4.8138\nentropy = 0.0937756803913\nsamples = 5", shape="box"] ;
10 -> 11 ;
12 [label="entropy = 0.0000\nsamples = 1\nvalue = [ 0.177117  0.      ]", shape="box"] ;
11 -> 12 ;
13 [label="entropy = 0.0000\nsamples = 4\nvalue = [  0.          14.58306399]", shape="box"] ;
11 -> 13 ;
14 [label="entropy = -0.0000\nsamples = 2\nvalue = [ 0.354234  0.      ]", shape="box"] ;
10 -> 14 ;
15 [label="entropy = 0.0000\nsamples = 5\nvalue = [ 1.94828701  0.        ]", shape="box"] ;
9 -> 15 ;
16 [label="X[6] <= 3.7089\nentropy = 0.646655899335\nsamples = 32", shape="box"] ;
8 -> 16 ;
17 [label="entropy = 0.0000\nsamples = 22\nvalue = [ 6.90756303  0.        ]", shape="box"] ;
16 -> 17 ;
18 [label="X[8] <= 62.3587\nentropy = 0.990227146355\nsamples = 10", shape="box"] ;
16 -> 18 ;
19 [label="X[7] <= 6.2067\nentropy = 0.431639888664\nsamples = 2", shape="box"] ;
18 -> 19 ;
20 [label="entropy = 0.0000\nsamples = 1\nvalue = [ 0.177117  0.      ]", shape="box"] ;
19 -> 20 ;
21 [label="entropy = -0.0000\nsamples = 1\nvalue = [ 0.        1.822883]", shape="box"] ;
19 -> 21 ;
22 [label="entropy = 0.0000\nsamples = 8\nvalue = [ 2.12540401  0.        ]", shape="box"] ;
18 -> 22 ;
23 [label="X[7] <= 7.3192\nentropy = 0.358123154975\nsamples = 8", shape="box"] ;
7 -> 23 ;
24 [label="entropy = 0.0000\nsamples = 3\nvalue = [ 0.885585  0.      ]", shape="box"] ;
23 -> 24 ;
25 [label="X[8] <= 51.5977\nentropy = 0.0937756803913\nsamples = 5", shape="box"] ;
23 -> 25 ;
26 [label="entropy = 0.0000\nsamples = 1\nvalue = [ 0.177117  0.      ]", shape="box"] ;
25 -> 26 ;
27 [label="entropy = 0.0000\nsamples = 4\nvalue = [  0.          14.58306399]", shape="box"] ;
25 -> 27 ;
28 [label="X[2] <= 0.0970\nentropy = 0.679290440774\nsamples = 27", shape="box"] ;
6 -> 28 ;
29 [label="X[3] <= 2.5112\nentropy = 0.949341935279\nsamples = 5", shape="box"] ;
28 -> 29 ;
30 [label="entropy = 0.0000\nsamples = 1\nvalue = [ 0.        1.822883]", shape="box"] ;
29 -> 30 ;
31 [label="entropy = 0.0000\nsamples = 4\nvalue = [ 1.062702  0.      ]", shape="box"] ;
29 -> 31 ;
32 [label="entropy = -0.0000\nsamples = 22\nvalue = [ 7.26179703  0.        ]", shape="box"] ;
28 -> 32 ;
33 [label="X[4] <= 13.8744\nentropy = 0.428903173047\nsamples = 67", shape="box"] ;
5 -> 33 ;
34 [label="entropy = 0.0000\nsamples = 60\nvalue = [ 17.53458306   0.        ]", shape="box"] ;
33 -> 34 ;
35 [label="X[4] <= 14.2107\nentropy = 0.988645087351\nsamples = 7", shape="box"] ;
33 -> 35 ;
36 [label="entropy = 0.0000\nsamples = 1\nvalue = [ 0.        1.822883]", shape="box"] ;
35 -> 36 ;
37 [label="entropy = 0.0000\nsamples = 6\nvalue = [ 1.41693601  0.        ]", shape="box"] ;
35 -> 37 ;
38 [label="X[2] <= -5.8646\nentropy = 0.694656818071\nsamples = 52", shape="box"] ;
4 -> 38 ;
39 [label="entropy = 0.0000\nsamples = 7\nvalue = [ 1.59405301  0.        ]", shape="box"] ;
38 -> 39 ;
40 [label="X[4] <= 38.2597\nentropy = 0.633352054034\nsamples = 45", shape="box"] ;
38 -> 40 ;
41 [label="X[3] <= 2.4789\nentropy = 0.402116264167\nsamples = 27", shape="box"] ;
40 -> 41 ;
42 [label="entropy = 0.0000\nsamples = 4\nvalue = [ 1.062702  0.      ]", shape="box"] ;
41 -> 42 ;
43 [label="X[7] <= -2.1236\nentropy = 0.300072614323\nsamples = 23", shape="box"] ;
41 -> 43 ;
44 [label="entropy = 0.0000\nsamples = 4\nvalue = [ 0.885585  0.      ]", shape="box"] ;
43 -> 44 ;
45 [label="X[8] <= 117.5557\nentropy = 0.193235422656\nsamples = 19", shape="box"] ;
43 -> 45 ;
46 [label="X[8] <= 36.7278\nentropy = 0.141695139504\nsamples = 17", shape="box"] ;
45 -> 46 ;
47 [label="entropy = 0.0000\nsamples = 1\nvalue = [ 0.177117  0.      ]", shape="box"] ;
46 -> 47 ;
48 [label="X[6] <= 2.8793\nentropy = 0.113022625368\nsamples = 16", shape="box"] ;
46 -> 48 ;
49 [label="entropy = 0.0000\nsamples = 5\nvalue = [  0.          14.58306399]", shape="box"] ;
48 -> 49 ;
50 [label="X[6] <= 2.9133\nentropy = 0.172948879867\nsamples = 11", shape="box"] ;
48 -> 50 ;
51 [label="entropy = 0.0000\nsamples = 1\nvalue = [ 0.177117  0.      ]", shape="box"] ;
50 -> 51 ;
52 [label="X[2] <= 2.6499\nentropy = 0.126345576304\nsamples = 10", shape="box"] ;
50 -> 52 ;
53 [label="entropy = 0.0000\nsamples = 5\nvalue = [  0.          14.58306399]", shape="box"] ;
52 -> 53 ;
54 [label="X[6] <= 3.8143\nentropy = 0.330749941831\nsamples = 5", shape="box"] ;
52 -> 54 ;
55 [label="entropy = 0.0000\nsamples = 3\nvalue = [ 0.        5.468649]", shape="box"] ;
54 -> 55 ;
56 [label="entropy = 0.0000\nsamples = 2\nvalue = [ 0.354234  0.      ]", shape="box"] ;
54 -> 56 ;
57 [label="entropy = -0.0000\nsamples = 2\nvalue = [ 0.354234  0.      ]", shape="box"] ;
45 -> 57 ;
58 [label="X[6] <= 1.7840\nentropy = 0.994691977021\nsamples = 18", shape="box"] ;
40 -> 58 ;
59 [label="X[9] <= 17.2656\nentropy = 0.330749941831\nsamples = 4", shape="box"] ;
58 -> 59 ;
60 [label="entropy = 0.0000\nsamples = 2\nvalue = [ 0.        5.468649]", shape="box"] ;
59 -> 60 ;
61 [label="entropy = 0.0000\nsamples = 2\nvalue = [ 0.354234  0.      ]", shape="box"] ;
59 -> 61 ;
62 [label="entropy = 0.0000\nsamples = 14\nvalue = [ 4.25080802  0.        ]", shape="box"] ;
58 -> 62 ;
63 [label="X[8] <= 94.1388\nentropy = 0.64074838779\nsamples = 92", shape="box"] ;
3 -> 63 ;
64 [label="X[2] <= 1.3456\nentropy = 0.893230640497\nsamples = 30", shape="box"] ;
63 -> 64 ;
65 [label="entropy = 0.0000\nsamples = 2\nvalue = [ 0.        5.468649]", shape="box"] ;
64 -> 65 ;
66 [label="X[3] <= 3.9705\nentropy = 0.980638876219\nsamples = 28", shape="box"] ;
64 -> 66 ;
67 [label="entropy = 0.0000\nsamples = 21\nvalue = [ 5.66774402  0.        ]", shape="box"] ;
66 -> 67 ;
68 [label="X[8] <= 81.5762\nentropy = 0.431639888664\nsamples = 7", shape="box"] ;
66 -> 68 ;
69 [label="entropy = 0.0000\nsamples = 3\nvalue = [ 0.        9.114415]", shape="box"] ;
68 -> 69 ;
70 [label="entropy = -0.0000\nsamples = 4\nvalue = [ 0.885585  0.      ]", shape="box"] ;
68 -> 70 ;
71 [label="X[6] <= 4.1440\nentropy = 0.5417343765\nsamples = 62", shape="box"] ;
63 -> 71 ;
72 [label="X[1] <= -0.0428\nentropy = 0.460826193162\nsamples = 47", shape="box"] ;
71 -> 72 ;
73 [label="entropy = 0.0000\nsamples = 4\nvalue = [  0.        12.760181]", shape="box"] ;
72 -> 73 ;
74 [label="X[0] <= 1.2934\nentropy = 0.524106192419\nsamples = 43", shape="box"] ;
72 -> 74 ;
75 [label="X[5] <= -1.0475\nentropy = 0.458874058294\nsamples = 38", shape="box"] ;
74 -> 75 ;
76 [label="entropy = 0.0000\nsamples = 7\nvalue = [ 1.94828701  0.        ]", shape="box"] ;
75 -> 76 ;
77 [label="X[3] <= 4.1246\nentropy = 0.349799965274\nsamples = 31", shape="box"] ;
75 -> 77 ;
78 [label="X[2] <= 2.0144\nentropy = 0.161818042615\nsamples = 20", shape="box"] ;
77 -> 78 ;
79 [label="entropy = 0.0000\nsamples = 10\nvalue = [  0.          36.45765999]", shape="box"] ;
78 -> 79 ;
80 [label="X[0] <= 0.9685\nentropy = 0.396360063791\nsamples = 10", shape="box"] ;
78 -> 80 ;
81 [label="entropy = 0.0000\nsamples = 5\nvalue = [ 0.885585  0.      ]", shape="box"] ;
80 -> 81 ;
82 [label="X[3] <= 3.2605\nentropy = 0.161818042615\nsamples = 5", shape="box"] ;
80 -> 82 ;
83 [label="entropy = 0.0000\nsamples = 2\nvalue = [ 0.354234  0.      ]", shape="box"] ;
82 -> 83 ;
84 [label="entropy = 0.0000\nsamples = 3\nvalue = [  0.          14.58306399]", shape="box"] ;
82 -> 84 ;
85 [label="X[1] <= 0.0587\nentropy = 0.983126528148\nsamples = 11", shape="box"] ;
77 -> 85 ;
86 [label="entropy = 0.0000\nsamples = 9\nvalue = [ 2.30252101  0.        ]", shape="box"] ;
85 -> 86 ;
87 [label="X[6] <= 3.0810\nentropy = 0.431639888664\nsamples = 2", shape="box"] ;
85 -> 87 ;
88 [label="entropy = 0.0000\nsamples = 1\nvalue = [ 0.177117  0.      ]", shape="box"] ;
87 -> 88 ;
89 [label="entropy = -0.0000\nsamples = 1\nvalue = [ 0.        1.822883]", shape="box"] ;
87 -> 89 ;
90 [label="entropy = 0.0000\nsamples = 5\nvalue = [ 1.41693601  0.        ]", shape="box"] ;
74 -> 90 ;
91 [label="X[9] <= 54.7509\nentropy = 0.93852725553\nsamples = 15", shape="box"] ;
71 -> 91 ;
92 [label="entropy = 0.0000\nsamples = 6\nvalue = [ 1.59405301  0.        ]", shape="box"] ;
91 -> 92 ;
93 [label="X[7] <= 5.7105\nentropy = 0.733344298078\nsamples = 9", shape="box"] ;
91 -> 93 ;
94 [label="entropy = 0.0000\nsamples = 5\nvalue = [ 1.062702  0.      ]", shape="box"] ;
93 -> 94 ;
95 [label="X[6] <= 4.2015\nentropy = 0.330749941831\nsamples = 4", shape="box"] ;
93 -> 95 ;
96 [label="entropy = 0.0000\nsamples = 1\nvalue = [ 0.177117  0.      ]", shape="box"] ;
95 -> 96 ;
97 [label="X[0] <= 0.7960\nentropy = 0.201224655158\nsamples = 3", shape="box"] ;
95 -> 97 ;
98 [label="entropy = 0.0000\nsamples = 1\nvalue = [ 0.177117  0.      ]", shape="box"] ;
97 -> 98 ;
99 [label="entropy = 0.0000\nsamples = 2\nvalue = [ 0.        5.468649]", shape="box"] ;
97 -> 99 ;
100 [label="X[4] <= 29.2823\nentropy = 0.421467433132\nsamples = 68", shape="box"] ;
2 -> 100 ;
101 [label="entropy = 0.0000\nsamples = 65\nvalue = [ 19.12863607   0.        ]", shape="box"] ;
100 -> 101 ;
102 [label="X[1] <= 35.4860\nentropy = 0.64074838779\nsamples = 3", shape="box"] ;
100 -> 102 ;
103 [label="entropy = 0.0000\nsamples = 2\nvalue = [ 0.354234  0.      ]", shape="box"] ;
102 -> 103 ;
104 [label="entropy = -0.0000\nsamples = 1\nvalue = [ 0.        1.822883]", shape="box"] ;
102 -> 104 ;
105 [label="X[3] <= 3.8997\nentropy = 0.988241199861\nsamples = 275", shape="box"] ;
1 -> 105 ;
106 [label="X[9] <= 70.8489\nentropy = 0.968969910091\nsamples = 150", shape="box"] ;
105 -> 106 ;
107 [label="X[5] <= 4.6716\nentropy = 0.92999894818\nsamples = 128", shape="box"] ;
106 -> 107 ;
108 [label="X[1] <= -0.2552\nentropy = 0.995264687116\nsamples = 77", shape="box"] ;
107 -> 108 ;
109 [label="entropy = 0.0000\nsamples = 13\nvalue = [ 3.89657401  0.        ]", shape="box"] ;
108 -> 109 ;
110 [label="X[4] <= -0.1654\nentropy = 0.9720683494\nsamples = 64", shape="box"] ;
108 -> 110 ;
111 [label="X[1] <= -0.1205\nentropy = 0.346589413256\nsamples = 9", shape="box"] ;
110 -> 111 ;
112 [label="entropy = 0.0000\nsamples = 4\nvalue = [  0.        10.937298]", shape="box"] ;
111 -> 112 ;
113 [label="X[2] <= 2.5037\nentropy = 0.911799567967\nsamples = 5", shape="box"] ;
111 -> 113 ;
114 [label="entropy = 0.0000\nsamples = 4\nvalue = [ 0.885585  0.      ]", shape="box"] ;
113 -> 114 ;
115 [label="entropy = 0.0000\nsamples = 1\nvalue = [ 0.        1.822883]", shape="box"] ;
113 -> 115 ;
116 [label="X[1] <= 0.0631\nentropy = 0.969467360145\nsamples = 55", shape="box"] ;
110 -> 116 ;
117 [label="X[0] <= 0.7375\nentropy = 0.991474011007\nsamples = 45", shape="box"] ;
116 -> 117 ;
118 [label="X[3] <= 3.4936\nentropy = 0.949341935279\nsamples = 18", shape="box"] ;
117 -> 118 ;
119 [label="X[3] <= 2.8411\nentropy = 0.995760995046\nsamples = 16", shape="box"] ;
118 -> 119 ;
120 [label="X[9] <= 12.9789\nentropy = 0.932520982576\nsamples = 9", shape="box"] ;
119 -> 120 ;
121 [label="entropy = 0.0000\nsamples = 6\nvalue = [ 1.59405301  0.        ]", shape="box"] ;
120 -> 121 ;
122 [label="X[8] <= 70.1154\nentropy = 0.431639888664\nsamples = 3", shape="box"] ;
120 -> 122 ;
123 [label="entropy = 0.0000\nsamples = 1\nvalue = [ 0.354234  0.      ]", shape="box"] ;
122 -> 123 ;
124 [label="entropy = -0.0000\nsamples = 2\nvalue = [ 0.        3.645766]", shape="box"] ;
122 -> 124 ;
125 [label="entropy = -0.0000\nsamples = 7\nvalue = [ 2.30252101  0.        ]", shape="box"] ;
119 -> 125 ;
126 [label="entropy = 0.0000\nsamples = 2\nvalue = [ 0.        3.645766]", shape="box"] ;
118 -> 126 ;
127 [label="X[6] <= 33.7047\nentropy = 0.731120227638\nsamples = 27", shape="box"] ;
117 -> 127 ;
128 [label="entropy = 0.0000\nsamples = 25\nvalue = [ 6.90756303  0.        ]", shape="box"] ;
127 -> 128 ;
129 [label="X[9] <= 16.2114\nentropy = 0.431639888664\nsamples = 2", shape="box"] ;
127 -> 129 ;
130 [label="entropy = 0.0000\nsamples = 1\nvalue = [ 0.177117  0.      ]", shape="box"] ;
129 -> 130 ;
131 [label="entropy = -0.0000\nsamples = 1\nvalue = [ 0.        1.822883]", shape="box"] ;
129 -> 131 ;
132 [label="entropy = -0.0000\nsamples = 10\nvalue = [ 2.47963801  0.        ]", shape="box"] ;
116 -> 132 ;
133 [label="X[5] <= 5.6113\nentropy = 0.792423774982\nsamples = 51", shape="box"] ;
107 -> 133 ;
134 [label="X[8] <= 89.7178\nentropy = 0.0937756803913\nsamples = 5", shape="box"] ;
133 -> 134 ;
135 [label="entropy = 0.0000\nsamples = 3\nvalue = [  0.        10.937298]", shape="box"] ;
134 -> 135 ;
136 [label="X[5] <= 5.3137\nentropy = 0.27060082886\nsamples = 2", shape="box"] ;
134 -> 136 ;
137 [label="entropy = 0.0000\nsamples = 1\nvalue = [ 0.177117  0.      ]", shape="box"] ;
136 -> 137 ;
138 [label="entropy = 0.0000\nsamples = 1\nvalue = [ 0.        3.645766]", shape="box"] ;
136 -> 138 ;
139 [label="X[5] <= 10.7491\nentropy = 0.939678893262\nsamples = 46", shape="box"] ;
133 -> 139 ;
140 [label="entropy = 0.0000\nsamples = 19\nvalue = [ 5.31351002  0.        ]", shape="box"] ;
139 -> 140 ;
141 [label="X[3] <= 3.4191\nentropy = 0.737296315244\nsamples = 27", shape="box"] ;
139 -> 141 ;
142 [label="X[1] <= -0.0592\nentropy = 0.999202197816\nsamples = 19", shape="box"] ;
141 -> 142 ;
143 [label="X[6] <= 64.9352\nentropy = 0.549723309719\nsamples = 4", shape="box"] ;
142 -> 143 ;
144 [label="entropy = 0.0000\nsamples = 3\nvalue = [ 0.531351  0.      ]", shape="box"] ;
143 -> 144 ;
145 [label="entropy = 0.0000\nsamples = 1\nvalue = [ 0.        3.645766]", shape="box"] ;
143 -> 145 ;
146 [label="entropy = 0.0000\nsamples = 15\nvalue = [ 3.36522301  0.        ]", shape="box"] ;
142 -> 146 ;
147 [label="X[7] <= 8.7070\nentropy = 0.316431573984\nsamples = 8", shape="box"] ;
141 -> 147 ;
148 [label="entropy = 0.0000\nsamples = 2\nvalue = [ 0.        7.291532]", shape="box"] ;
147 -> 148 ;
149 [label="X[6] <= 7.5923\nentropy = 0.494768056245\nsamples = 6", shape="box"] ;
147 -> 149 ;
150 [label="entropy = 0.0000\nsamples = 3\nvalue = [ 0.885585  0.      ]", shape="box"] ;
149 -> 150 ;
151 [label="entropy = 0.0000\nsamples = 3\nvalue = [ 0.        7.291532]", shape="box"] ;
149 -> 151 ;
152 [label="entropy = 0.0000\nsamples = 22\nvalue = [ 7.08468003  0.        ]", shape="box"] ;
106 -> 152 ;
153 [label="entropy = 0.0000\nsamples = 125\nvalue = [ 34.71493213   0.        ]", shape="box"] ;
105 -> 153 ;
154 [label="X[7] <= 20.4789\nentropy = 0.82579215363\nsamples = 336", shape="box"] ;
0 -> 154 ;
155 [label="X[9] <= 157.6806\nentropy = 0.625384129395\nsamples = 314", shape="box"] ;
154 -> 155 ;
156 [label="X[5] <= -19.1786\nentropy = 0.551800644873\nsamples = 308", shape="box"] ;
155 -> 156 ;
157 [label="X[4] <= 27.6331\nentropy = 0.330749941831\nsamples = 2", shape="box"] ;
156 -> 157 ;
158 [label="entropy = 0.0000\nsamples = 1\nvalue = [ 0.354234  0.      ]", shape="box"] ;
157 -> 158 ;
159 [label="entropy = 0.0000\nsamples = 1\nvalue = [ 0.        5.468649]", shape="box"] ;
157 -> 159 ;
160 [label="X[7] <= 11.4804\nentropy = 0.393846540154\nsamples = 306", shape="box"] ;
156 -> 160 ;
161 [label="X[4] <= 21.3311\nentropy = 0.170409619359\nsamples = 238", shape="box"] ;
160 -> 161 ;
162 [label="entropy = 0.0000\nsamples = 215\nvalue = [ 63.40788623   0.        ]", shape="box"] ;
161 -> 162 ;
163 [label="X[3] <= 3.1489\nentropy = 0.747403785261\nsamples = 23", shape="box"] ;
161 -> 163 ;
164 [label="X[3] <= 3.0630\nentropy = 0.855283741056\nsamples = 4", shape="box"] ;
163 -> 164 ;
165 [label="entropy = 0.0000\nsamples = 3\nvalue = [ 0.708468  0.      ]", shape="box"] ;
164 -> 165 ;
166 [label="entropy = 0.0000\nsamples = 1\nvalue = [ 0.        1.822883]", shape="box"] ;
164 -> 166 ;
167 [label="entropy = 0.0000\nsamples = 19\nvalue = [ 6.02197802  0.        ]", shape="box"] ;
163 -> 167 ;
168 [label="X[9] <= 22.5795\nentropy = 0.810085198401\nsamples = 68", shape="box"] ;
160 -> 168 ;
169 [label="X[5] <= 15.3033\nentropy = 0.952614404545\nsamples = 35", shape="box"] ;
168 -> 169 ;
170 [label="entropy = 0.0000\nsamples = 21\nvalue = [ 6.55332902  0.        ]", shape="box"] ;
169 -> 170 ;
171 [label="X[3] <= 2.5703\nentropy = 0.911799567967\nsamples = 14", shape="box"] ;
169 -> 171 ;
172 [label="entropy = 0.0000\nsamples = 8\nvalue = [ 2.12540401  0.        ]", shape="box"] ;
171 -> 172 ;
173 [label="X[7] <= 15.1375\nentropy = 0.431639888664\nsamples = 6", shape="box"] ;
171 -> 173 ;
174 [label="entropy = 0.0000\nsamples = 3\nvalue = [ 0.        5.468649]", shape="box"] ;
173 -> 174 ;
175 [label="entropy = 0.0000\nsamples = 3\nvalue = [ 0.531351  0.      ]", shape="box"] ;
173 -> 175 ;
176 [label="entropy = 0.0000\nsamples = 33\nvalue = [ 7.26179703  0.        ]", shape="box"] ;
168 -> 176 ;
177 [label="X[3] <= 3.7293\nentropy = 0.886387308205\nsamples = 6", shape="box"] ;
155 -> 177 ;
178 [label="entropy = 0.0000\nsamples = 1\nvalue = [ 0.        3.645766]", shape="box"] ;
177 -> 178 ;
179 [label="entropy = 0.0000\nsamples = 5\nvalue = [ 1.59405301  0.        ]", shape="box"] ;
177 -> 179 ;
180 [label="X[7] <= 26.1874\nentropy = 0.792423774982\nsamples = 22", shape="box"] ;
154 -> 180 ;
181 [label="X[0] <= 0.6657\nentropy = 0.64074838779\nsamples = 15", shape="box"] ;
180 -> 181 ;
182 [label="entropy = 0.0000\nsamples = 2\nvalue = [ 0.885585  0.      ]", shape="box"] ;
181 -> 182 ;
183 [label="X[5] <= 10.4528\nentropy = 0.538132149927\nsamples = 13", shape="box"] ;
181 -> 183 ;
184 [label="entropy = 0.0000\nsamples = 5\nvalue = [ 1.41693601  0.        ]", shape="box"] ;
183 -> 184 ;
185 [label="X[3] <= 2.4872\nentropy = 0.291535743871\nsamples = 8", shape="box"] ;
183 -> 185 ;
186 [label="entropy = 0.0000\nsamples = 3\nvalue = [ 0.531351  0.      ]", shape="box"] ;
185 -> 186 ;
187 [label="X[6] <= 1.6260\nentropy = 0.14776918274\nsamples = 5", shape="box"] ;
185 -> 187 ;
188 [label="X[7] <= 24.0766\nentropy = 0.64074838779\nsamples = 2", shape="box"] ;
187 -> 188 ;
189 [label="entropy = 0.0000\nsamples = 1\nvalue = [ 0.354234  0.      ]", shape="box"] ;
188 -> 189 ;
190 [label="entropy = 0.0000\nsamples = 1\nvalue = [ 0.        1.822883]", shape="box"] ;
188 -> 190 ;
191 [label="entropy = 0.0000\nsamples = 3\nvalue = [  0.          14.58306399]", shape="box"] ;
187 -> 191 ;
192 [label="entropy = 0.0000\nsamples = 7\nvalue = [ 1.94828701  0.        ]", shape="box"] ;
180 -> 192 ;
}