digraph Tree {
0 [label="X[2] <= 0.3878\nentropy = 1.0\nsamples = 985", shape="box"] ;
1 [label="X[4] <= 1.9380\nentropy = 0.831337928114\nsamples = 142", shape="box"] ;
0 -> 1 ;
2 [label="X[8] <= 85.3911\nentropy = 0.464121237915\nsamples = 21", shape="box"] ;
1 -> 2 ;
3 [label="entropy = 0.0000\nsamples = 5\nvalue = [ 1.22171946  0.        ]", shape="box"] ;
2 -> 3 ;
4 [label="X[0] <= 1.6384\nentropy = 0.322449709552\nsamples = 16", shape="box"] ;
2 -> 4 ;
5 [label="X[8] <= 128.7324\nentropy = 0.195705443727\nsamples = 12", shape="box"] ;
4 -> 5 ;
6 [label="X[4] <= 0.1915\nentropy = 0.357936642949\nsamples = 8", shape="box"] ;
5 -> 6 ;
7 [label="X[2] <= 0.0542\nentropy = 0.16172123101\nsamples = 4", shape="box"] ;
6 -> 7 ;
8 [label="entropy = 0.0000\nsamples = 3\nvalue = [  0.          11.18552036]", shape="box"] ;
7 -> 8 ;
9 [label="entropy = -0.0000\nsamples = 1\nvalue = [ 0.27149321  0.        ]", shape="box"] ;
7 -> 9 ;
10 [label="entropy = -0.0000\nsamples = 4\nvalue = [ 0.54298643  0.        ]", shape="box"] ;
6 -> 10 ;
11 [label="entropy = 0.0000\nsamples = 4\nvalue = [  0.          14.91402715]", shape="box"] ;
5 -> 11 ;
12 [label="entropy = -0.0000\nsamples = 4\nvalue = [ 0.81447964  0.        ]", shape="box"] ;
4 -> 12 ;
13 [label="X[3] <= 2.7024\nentropy = 0.911620759107\nsamples = 121", shape="box"] ;
1 -> 13 ;
14 [label="entropy = 0.0000\nsamples = 22\nvalue = [ 4.61538462  0.        ]", shape="box"] ;
13 -> 14 ;
15 [label="X[4] <= 16.8537\nentropy = 0.858845320901\nsamples = 99", shape="box"] ;
13 -> 15 ;
16 [label="X[5] <= 0.4399\nentropy = 0.998724214999\nsamples = 61", shape="box"] ;
15 -> 16 ;
17 [label="entropy = 0.0000\nsamples = 33\nvalue = [ 7.60180995  0.        ]", shape="box"] ;
16 -> 17 ;
18 [label="X[6] <= 7.7482\nentropy = 0.869459680369\nsamples = 28", shape="box"] ;
16 -> 18 ;
19 [label="X[9] <= 29.1900\nentropy = 0.716439003976\nsamples = 18", shape="box"] ;
18 -> 19 ;
20 [label="entropy = 0.0000\nsamples = 6\nvalue = [ 2.0361991  0.       ]", shape="box"] ;
19 -> 20 ;
21 [label="X[6] <= 3.5483\nentropy = 0.464121237915\nsamples = 12", shape="box"] ;
19 -> 21 ;
22 [label="entropy = 0.0000\nsamples = 2\nvalue = [ 0.          7.45701357]", shape="box"] ;
21 -> 22 ;
23 [label="X[0] <= 0.7766\nentropy = 0.678505713574\nsamples = 10", shape="box"] ;
21 -> 23 ;
24 [label="entropy = 0.0000\nsamples = 3\nvalue = [ 0.81447964  0.        ]", shape="box"] ;
23 -> 24 ;
25 [label="X[3] <= 4.0727\nentropy = 0.464121237915\nsamples = 7", shape="box"] ;
23 -> 25 ;
26 [label="X[5] <= 19.8669\nentropy = 0.219493720666\nsamples = 4", shape="box"] ;
25 -> 26 ;
27 [label="entropy = 0.0000\nsamples = 3\nvalue = [ 0.          7.45701357]", shape="box"] ;
26 -> 27 ;
28 [label="entropy = -0.0000\nsamples = 1\nvalue = [ 0.27149321  0.        ]", shape="box"] ;
26 -> 28 ;
29 [label="entropy = -0.0000\nsamples = 3\nvalue = [ 0.54298643  0.        ]", shape="box"] ;
25 -> 29 ;
30 [label="entropy = -0.0000\nsamples = 10\nvalue = [ 2.44343891  0.        ]", shape="box"] ;
18 -> 30 ;
31 [label="X[7] <= 25.3214\nentropy = 0.602512066337\nsamples = 38", shape="box"] ;
15 -> 31 ;
32 [label="X[3] <= 3.9150\nentropy = 0.532912835733\nsamples = 34", shape="box"] ;
31 -> 32 ;
33 [label="X[5] <= 3.2963\nentropy = 0.488311570876\nsamples = 31", shape="box"] ;
32 -> 33 ;
34 [label="X[2] <= -5.7318\nentropy = 0.7828169134\nsamples = 18", shape="box"] ;
33 -> 34 ;
35 [label="entropy = 0.0000\nsamples = 6\nvalue = [ 1.49321267  0.        ]", shape="box"] ;
34 -> 35 ;
36 [label="X[2] <= -0.3884\nentropy = 0.597768945388\nsamples = 12", shape="box"] ;
34 -> 36 ;
37 [label="X[7] <= 15.4997\nentropy = 0.464121237915\nsamples = 10", shape="box"] ;
36 -> 37 ;
38 [label="X[0] <= 1.5525\nentropy = 0.357936642949\nsamples = 9", shape="box"] ;
37 -> 38 ;
39 [label="X[4] <= 18.8385\nentropy = 0.219493720666\nsamples = 7", shape="box"] ;
38 -> 39 ;
40 [label="entropy = 0.0000\nsamples = 1\nvalue = [ 0.40723982  0.        ]", shape="box"] ;
39 -> 40 ;
41 [label="entropy = 0.0000\nsamples = 6\nvalue = [  0.          11.18552036]", shape="box"] ;
39 -> 41 ;
42 [label="entropy = -0.0000\nsamples = 2\nvalue = [ 0.40723982  0.        ]", shape="box"] ;
38 -> 42 ;
43 [label="entropy = -0.0000\nsamples = 1\nvalue = [ 0.40723982  0.        ]", shape="box"] ;
37 -> 43 ;
44 [label="entropy = 0.0000\nsamples = 2\nvalue = [ 0.67873303  0.        ]", shape="box"] ;
36 -> 44 ;
45 [label="X[4] <= 1765.4862\nentropy = 0.206849052908\nsamples = 13", shape="box"] ;
33 -> 45 ;
46 [label="X[1] <= -0.2292\nentropy = 0.152055229171\nsamples = 12", shape="box"] ;
45 -> 46 ;
47 [label="X[2] <= -3.4435\nentropy = 0.770197682357\nsamples = 3", shape="box"] ;
46 -> 47 ;
48 [label="entropy = 0.0000\nsamples = 2\nvalue = [ 0.54298643  0.        ]", shape="box"] ;
47 -> 48 ;
49 [label="entropy = 0.0000\nsamples = 1\nvalue = [ 0.          1.86425339]", shape="box"] ;
47 -> 49 ;
50 [label="entropy = 0.0000\nsamples = 9\nvalue = [  0.          22.37104072]", shape="box"] ;
46 -> 50 ;
51 [label="entropy = -0.0000\nsamples = 1\nvalue = [ 0.27149321  0.        ]", shape="box"] ;
45 -> 51 ;
52 [label="entropy = -0.0000\nsamples = 3\nvalue = [ 0.67873303  0.        ]", shape="box"] ;
32 -> 52 ;
53 [label="entropy = -0.0000\nsamples = 4\nvalue = [ 1.22171946  0.        ]", shape="box"] ;
31 -> 53 ;
54 [label="X[9] <= 62.0204\nentropy = 0.978854965889\nsamples = 843", shape="box"] ;
0 -> 54 ;
55 [label="X[0] <= 0.4606\nentropy = 0.997009178652\nsamples = 650", shape="box"] ;
54 -> 55 ;
56 [label="entropy = 0.0000\nsamples = 79\nvalue = [ 16.56108597   0.        ]", shape="box"] ;
55 -> 56 ;
57 [label="X[2] <= 1.3440\nentropy = 0.999988255567\nsamples = 571", shape="box"] ;
55 -> 57 ;
58 [label="entropy = 0.0000\nsamples = 29\nvalue = [ 6.3800905  0.       ]", shape="box"] ;
57 -> 58 ;
59 [label="X[4] <= 16.5695\nentropy = 0.999207949792\nsamples = 542", shape="box"] ;
57 -> 59 ;
60 [label="X[8] <= 100.7338\nentropy = 0.990123623654\nsamples = 453", shape="box"] ;
59 -> 60 ;
61 [label="X[9] <= 24.2330\nentropy = 0.92538714623\nsamples = 308", shape="box"] ;
60 -> 61 ;
62 [label="X[1] <= 0.1873\nentropy = 0.995803820221\nsamples = 176", shape="box"] ;
61 -> 62 ;
63 [label="X[9] <= 24.1865\nentropy = 0.984896885589\nsamples = 117", shape="box"] ;
62 -> 63 ;
64 [label="X[2] <= 3.7730\nentropy = 0.996070095892\nsamples = 116", shape="box"] ;
63 -> 64 ;
65 [label="X[8] <= 74.2115\nentropy = 0.836986781477\nsamples = 36", shape="box"] ;
64 -> 65 ;
66 [label="X[4] <= 11.1185\nentropy = 0.549482767718\nsamples = 19", shape="box"] ;
65 -> 66 ;
67 [label="X[0] <= 0.5849\nentropy = 0.92252354198\nsamples = 15", shape="box"] ;
66 -> 67 ;
68 [label="entropy = 0.0000\nsamples = 1\nvalue = [ 0.          1.86425339]", shape="box"] ;
67 -> 68 ;
69 [label="X[0] <= 1.0775\nentropy = 0.999933306339\nsamples = 14", shape="box"] ;
67 -> 69 ;
70 [label="entropy = 0.0000\nsamples = 11\nvalue = [ 1.62895928  0.        ]", shape="box"] ;
69 -> 70 ;
71 [label="X[4] <= 6.8936\nentropy = 0.549482767718\nsamples = 3", shape="box"] ;
69 -> 71 ;
72 [label="entropy = 0.0000\nsamples = 1\nvalue = [ 0.          1.86425339]", shape="box"] ;
71 -> 72 ;
73 [label="entropy = -0.0000\nsamples = 2\nvalue = [ 0.27149321  0.        ]", shape="box"] ;
71 -> 73 ;
74 [label="entropy = 0.0000\nsamples = 4\nvalue = [ 0.          9.32126697]", shape="box"] ;
66 -> 74 ;
75 [label="X[7] <= 41.5143\nentropy = 0.930111589318\nsamples = 17", shape="box"] ;
65 -> 75 ;
76 [label="entropy = 0.0000\nsamples = 16\nvalue = [ 3.52941176  0.        ]", shape="box"] ;
75 -> 76 ;
77 [label="entropy = 0.0000\nsamples = 1\nvalue = [ 0.          1.86425339]", shape="box"] ;
75 -> 77 ;
78 [label="X[0] <= 1.5509\nentropy = 0.955103855423\nsamples = 80", shape="box"] ;
64 -> 78 ;
79 [label="X[6] <= 53.4115\nentropy = 0.837396912463\nsamples = 77", shape="box"] ;
78 -> 79 ;
80 [label="X[9] <= 22.2989\nentropy = 0.494961538663\nsamples = 76", shape="box"] ;
79 -> 80 ;
81 [label="entropy = 0.0000\nsamples = 66\nvalue = [ 13.98190045   0.        ]", shape="box"] ;
80 -> 81 ;
82 [label="X[4] <= 1.9695\nentropy = 0.982076374298\nsamples = 10", shape="box"] ;
80 -> 82 ;
83 [label="entropy = 0.0000\nsamples = 1\nvalue = [ 0.          1.86425339]", shape="box"] ;
82 -> 83 ;
84 [label="entropy = 0.0000\nsamples = 9\nvalue = [ 1.35746606  0.        ]", shape="box"] ;
82 -> 84 ;
85 [label="entropy = 0.0000\nsamples = 1\nvalue = [ 0.          3.72850679]", shape="box"] ;
79 -> 85 ;
86 [label="X[8] <= 73.2888\nentropy = 0.219493720666\nsamples = 3", shape="box"] ;
78 -> 86 ;
87 [label="entropy = 0.0000\nsamples = 1\nvalue = [ 0.13574661  0.        ]", shape="box"] ;
86 -> 87 ;
88 [label="entropy = 0.0000\nsamples = 2\nvalue = [ 0.          3.72850679]", shape="box"] ;
86 -> 88 ;
89 [label="entropy = 0.0000\nsamples = 1\nvalue = [ 0.          3.72850679]", shape="box"] ;
63 -> 89 ;
90 [label="entropy = 0.0000\nsamples = 59\nvalue = [ 11.67420814   0.        ]", shape="box"] ;
62 -> 90 ;
91 [label="X[1] <= 0.2314\nentropy = 0.513929831638\nsamples = 132", shape="box"] ;
61 -> 91 ;
92 [label="entropy = 0.0000\nsamples = 80\nvalue = [ 17.91855204   0.        ]", shape="box"] ;
91 -> 92 ;
93 [label="X[4] <= 5.1101\nentropy = 0.820007836348\nsamples = 52", shape="box"] ;
91 -> 93 ;
94 [label="X[2] <= 4.4633\nentropy = 0.999468030442\nsamples = 21", shape="box"] ;
93 -> 94 ;
95 [label="X[5] <= 10.0434\nentropy = 0.836986781477\nsamples = 8", shape="box"] ;
94 -> 95 ;
96 [label="entropy = 0.0000\nsamples = 6\nvalue = [ 1.35746606  0.        ]", shape="box"] ;
95 -> 96 ;
97 [label="entropy = -0.0000\nsamples = 2\nvalue = [ 0.          3.72850679]", shape="box"] ;
95 -> 97 ;
98 [label="entropy = -0.0000\nsamples = 13\nvalue = [ 2.57918552  0.        ]", shape="box"] ;
94 -> 98 ;
99 [label="entropy = -0.0000\nsamples = 31\nvalue = [ 6.92307692  0.        ]", shape="box"] ;
93 -> 99 ;
100 [label="X[7] <= 5.3967\nentropy = 0.9809932489\nsamples = 145", shape="box"] ;
60 -> 100 ;
101 [label="entropy = 0.0000\nsamples = 41\nvalue = [ 9.77375566  0.        ]", shape="box"] ;
100 -> 101 ;
102 [label="X[9] <= 50.1007\nentropy = 0.904872751292\nsamples = 104", shape="box"] ;
100 -> 102 ;
103 [label="X[9] <= 38.8431\nentropy = 0.992540353934\nsamples = 80", shape="box"] ;
102 -> 103 ;
104 [label="X[7] <= 10.1300\nentropy = 0.959656379073\nsamples = 64", shape="box"] ;
103 -> 104 ;
105 [label="X[2] <= 2.0061\nentropy = 0.857899613476\nsamples = 21", shape="box"] ;
104 -> 105 ;
106 [label="entropy = 0.0000\nsamples = 1\nvalue = [ 0.          1.86425339]", shape="box"] ;
105 -> 106 ;
107 [label="entropy = 0.0000\nsamples = 20\nvalue = [ 4.75113122  0.        ]", shape="box"] ;
105 -> 107 ;
108 [label="X[0] <= 0.6915\nentropy = 0.866147750405\nsamples = 43", shape="box"] ;
104 -> 108 ;
109 [label="entropy = 0.0000\nsamples = 5\nvalue = [ 1.35746606  0.        ]", shape="box"] ;
108 -> 109 ;
110 [label="X[7] <= 13.5931\nentropy = 0.802441887221\nsamples = 38", shape="box"] ;
108 -> 110 ;
111 [label="X[9] <= 20.6366\nentropy = 0.517400431529\nsamples = 11", shape="box"] ;
110 -> 111 ;
112 [label="X[5] <= 8.0121\nentropy = 0.219493720666\nsamples = 5", shape="box"] ;
111 -> 112 ;
113 [label="entropy = 0.0000\nsamples = 2\nvalue = [ 0.27149321  0.        ]", shape="box"] ;
112 -> 113 ;
114 [label="entropy = -0.0000\nsamples = 3\nvalue = [ 0.          7.45701357]", shape="box"] ;
112 -> 114 ;
115 [label="X[0] <= 0.7649\nentropy = 0.92252354198\nsamples = 6", shape="box"] ;
111 -> 115 ;
116 [label="entropy = 0.0000\nsamples = 1\nvalue = [ 0.          1.86425339]", shape="box"] ;
115 -> 116 ;
117 [label="entropy = -0.0000\nsamples = 5\nvalue = [ 0.95022624  0.        ]", shape="box"] ;
115 -> 117 ;
118 [label="X[0] <= 1.1532\nentropy = 0.943299662646\nsamples = 27", shape="box"] ;
110 -> 118 ;
119 [label="X[6] <= 1.4778\nentropy = 0.770197682357\nsamples = 15", shape="box"] ;
118 -> 119 ;
120 [label="entropy = 0.0000\nsamples = 3\nvalue = [ 0.54298643  0.        ]", shape="box"] ;
119 -> 120 ;
121 [label="X[6] <= 2.3043\nentropy = 0.678505713574\nsamples = 12", shape="box"] ;
119 -> 121 ;
122 [label="X[0] <= 0.7921\nentropy = 0.16172123101\nsamples = 3", shape="box"] ;
121 -> 122 ;
123 [label="entropy = 0.0000\nsamples = 1\nvalue = [ 0.13574661  0.        ]", shape="box"] ;
122 -> 123 ;
124 [label="entropy = 0.0000\nsamples = 2\nvalue = [ 0.          5.59276018]", shape="box"] ;
122 -> 124 ;
125 [label="X[8] <= 101.7001\nentropy = 0.991172212334\nsamples = 9", shape="box"] ;
121 -> 125 ;
126 [label="entropy = 0.0000\nsamples = 1\nvalue = [ 0.          1.86425339]", shape="box"] ;
125 -> 126 ;
127 [label="entropy = -0.0000\nsamples = 8\nvalue = [ 1.49321267  0.        ]", shape="box"] ;
125 -> 127 ;
128 [label="entropy = -0.0000\nsamples = 12\nvalue = [ 2.0361991  0.       ]", shape="box"] ;
118 -> 128 ;
129 [label="entropy = -0.0000\nsamples = 16\nvalue = [ 3.66515837  0.        ]", shape="box"] ;
103 -> 129 ;
130 [label="X[1] <= 0.2623\nentropy = 0.576568429717\nsamples = 24", shape="box"] ;
102 -> 130 ;
131 [label="X[0] <= 1.0096\nentropy = 0.489166138328\nsamples = 20", shape="box"] ;
130 -> 131 ;
132 [label="X[2] <= 6.5901\nentropy = 0.261605539306\nsamples = 13", shape="box"] ;
131 -> 132 ;
133 [label="X[9] <= 57.9766\nentropy = 0.172846181918\nsamples = 11", shape="box"] ;
132 -> 133 ;
134 [label="X[5] <= 7.2381\nentropy = 0.0618034185195\nsamples = 8", shape="box"] ;
133 -> 134 ;
135 [label="entropy = 0.0000\nsamples = 4\nvalue = [  0.          11.18552036]", shape="box"] ;
134 -> 135 ;
136 [label="X[3] <= 4.4187\nentropy = 0.129356805764\nsamples = 4", shape="box"] ;
134 -> 136 ;
137 [label="entropy = 0.0000\nsamples = 3\nvalue = [ 0.          7.45701357]", shape="box"] ;
136 -> 137 ;
138 [label="entropy = -0.0000\nsamples = 1\nvalue = [ 0.13574661  0.        ]", shape="box"] ;
136 -> 138 ;
139 [label="X[8] <= 116.6884\nentropy = 0.678505713574\nsamples = 3", shape="box"] ;
133 -> 139 ;
140 [label="entropy = 0.0000\nsamples = 2\nvalue = [ 0.40723982  0.        ]", shape="box"] ;
139 -> 140 ;
141 [label="entropy = 0.0000\nsamples = 1\nvalue = [ 0.          1.86425339]", shape="box"] ;
139 -> 141 ;
142 [label="entropy = -0.0000\nsamples = 2\nvalue = [ 0.40723982  0.        ]", shape="box"] ;
132 -> 142 ;
143 [label="entropy = -0.0000\nsamples = 7\nvalue = [ 1.49321267  0.        ]", shape="box"] ;
131 -> 143 ;
144 [label="entropy = -0.0000\nsamples = 4\nvalue = [ 0.81447964  0.        ]", shape="box"] ;
130 -> 144 ;
145 [label="X[9] <= 15.2991\nentropy = 0.858031660512\nsamples = 89", shape="box"] ;
59 -> 145 ;
146 [label="X[8] <= 44.3474\nentropy = 0.610503504696\nsamples = 31", shape="box"] ;
145 -> 146 ;
147 [label="entropy = 0.0000\nsamples = 9\nvalue = [ 1.90045249  0.        ]", shape="box"] ;
146 -> 147 ;
148 [label="X[2] <= 10.5576\nentropy = 0.4504045443\nsamples = 22", shape="box"] ;
146 -> 148 ;
149 [label="X[4] <= 37.9371\nentropy = 0.374708402906\nsamples = 19", shape="box"] ;
148 -> 149 ;
150 [label="X[5] <= 34.9715\nentropy = 0.219493720666\nsamples = 14", shape="box"] ;
149 -> 150 ;
151 [label="X[4] <= 31.3849\nentropy = 0.170488263925\nsamples = 13", shape="box"] ;
150 -> 151 ;
152 [label="X[0] <= 1.9693\nentropy = 0.0878596251825\nsamples = 10", shape="box"] ;
151 -> 152 ;
153 [label="X[0] <= 1.0381\nentropy = 0.0497221179504\nsamples = 9", shape="box"] ;
152 -> 153 ;
154 [label="entropy = 0.0000\nsamples = 5\nvalue = [  0.          18.64253394]", shape="box"] ;
153 -> 154 ;
155 [label="X[0] <= 1.1449\nentropy = 0.16172123101\nsamples = 4", shape="box"] ;
153 -> 155 ;
156 [label="entropy = 0.0000\nsamples = 1\nvalue = [ 0.13574661  0.        ]", shape="box"] ;
155 -> 156 ;
157 [label="entropy = 0.0000\nsamples = 3\nvalue = [ 0.          5.59276018]", shape="box"] ;
155 -> 157 ;
158 [label="entropy = -0.0000\nsamples = 1\nvalue = [ 0.13574661  0.        ]", shape="box"] ;
152 -> 158 ;
159 [label="X[9] <= 8.9243\nentropy = 0.678505713574\nsamples = 3", shape="box"] ;
151 -> 159 ;
160 [label="entropy = 0.0000\nsamples = 1\nvalue = [ 0.          1.86425339]", shape="box"] ;
159 -> 160 ;
161 [label="entropy = -0.0000\nsamples = 2\nvalue = [ 0.40723982  0.        ]", shape="box"] ;
159 -> 161 ;
162 [label="entropy = 0.0000\nsamples = 1\nvalue = [ 0.27149321  0.        ]", shape="box"] ;
150 -> 162 ;
163 [label="entropy = -0.0000\nsamples = 5\nvalue = [ 1.08597285  0.        ]", shape="box"] ;
149 -> 163 ;
164 [label="entropy = -0.0000\nsamples = 3\nvalue = [ 0.67873303  0.        ]", shape="box"] ;
148 -> 164 ;
165 [label="X[2] <= 1.7090\nentropy = 0.982076374298\nsamples = 58", shape="box"] ;
145 -> 165 ;
166 [label="X[9] <= 39.3698\nentropy = 0.219493720666\nsamples = 5", shape="box"] ;
165 -> 166 ;
167 [label="entropy = 0.0000\nsamples = 2\nvalue = [ 0.27149321  0.        ]", shape="box"] ;
166 -> 167 ;
168 [label="entropy = -0.0000\nsamples = 3\nvalue = [ 0.          7.45701357]", shape="box"] ;
166 -> 168 ;
169 [label="X[7] <= -4.8823\nentropy = 0.988986827181\nsamples = 53", shape="box"] ;
165 -> 169 ;
170 [label="entropy = 0.0000\nsamples = 25\nvalue = [ 6.10859729  0.        ]", shape="box"] ;
169 -> 170 ;
171 [label="X[2] <= 4.8903\nentropy = 0.961547361317\nsamples = 28", shape="box"] ;
169 -> 171 ;
172 [label="entropy = 0.0000\nsamples = 13\nvalue = [ 2.71493213  0.        ]", shape="box"] ;
171 -> 172 ;
173 [label="X[8] <= 131.6102\nentropy = 0.81271582253\nsamples = 15", shape="box"] ;
171 -> 173 ;
174 [label="X[8] <= 63.7694\nentropy = 0.994341897484\nsamples = 13", shape="box"] ;
173 -> 174 ;
175 [label="entropy = 0.0000\nsamples = 2\nvalue = [ 0.          3.72850679]", shape="box"] ;
174 -> 175 ;
176 [label="entropy = 0.0000\nsamples = 11\nvalue = [ 3.12217195  0.        ]", shape="box"] ;
174 -> 176 ;
177 [label="entropy = 0.0000\nsamples = 2\nvalue = [ 0.          5.59276018]", shape="box"] ;
173 -> 177 ;
178 [label="X[4] <= -1.1452\nentropy = 0.543990681591\nsamples = 193", shape="box"] ;
54 -> 178 ;
179 [label="X[0] <= 1.2473\nentropy = 0.886190232962\nsamples = 11", shape="box"] ;
178 -> 179 ;
180 [label="X[6] <= 22.3309\nentropy = 0.986920032628\nsamples = 10", shape="box"] ;
179 -> 180 ;
181 [label="entropy = 0.0000\nsamples = 9\nvalue = [ 2.44343891  0.        ]", shape="box"] ;
180 -> 181 ;
182 [label="entropy = 0.0000\nsamples = 1\nvalue = [ 0.          1.86425339]", shape="box"] ;
180 -> 182 ;
183 [label="entropy = 0.0000\nsamples = 1\nvalue = [ 0.          3.72850679]", shape="box"] ;
179 -> 183 ;
184 [label="entropy = -0.0000\nsamples = 182\nvalue = [ 36.65158371   0.        ]", shape="box"] ;
178 -> 184 ;
}