digraph Tree {
0 [label="X[3] <= 4.0392\nentropy = 1.0\nsamples = 975", shape="box"] ;
1 [label="X[8] <= 38.6030\nentropy = 0.990772144262\nsamples = 756", shape="box"] ;
0 -> 1 ;
2 [label="entropy = 0.0000\nsamples = 51\nvalue = [ 16.82352941   0.        ]", shape="box"] ;
1 -> 2 ;
3 [label="X[2] <= 5.2930\nentropy = 0.982254095346\nsamples = 705", shape="box"] ;
1 -> 3 ;
4 [label="X[1] <= 0.3088\nentropy = 0.879832091828\nsamples = 414", shape="box"] ;
3 -> 4 ;
5 [label="X[4] <= 17.6122\nentropy = 0.824766878378\nsamples = 344", shape="box"] ;
4 -> 5 ;
6 [label="X[0] <= 0.9600\nentropy = 0.94085655551\nsamples = 279", shape="box"] ;
5 -> 6 ;
7 [label="X[1] <= -0.0254\nentropy = 0.99756740225\nsamples = 169", shape="box"] ;
6 -> 7 ;
8 [label="X[8] <= 66.8991\nentropy = 0.688805466502\nsamples = 32", shape="box"] ;
7 -> 8 ;
9 [label="X[3] <= 3.0307\nentropy = 0.998635964159\nsamples = 6", shape="box"] ;
8 -> 9 ;
10 [label="entropy = 0.0000\nsamples = 5\nvalue = [ 1.66386555  0.        ]", shape="box"] ;
9 -> 10 ;
11 [label="entropy = 0.0000\nsamples = 1\nvalue = [ 0.          1.81512605]", shape="box"] ;
9 -> 11 ;
12 [label="X[4] <= 3.3787\nentropy = 0.602340163114\nsamples = 26", shape="box"] ;
8 -> 12 ;
13 [label="X[2] <= 2.1610\nentropy = 0.227372415936\nsamples = 7", shape="box"] ;
12 -> 13 ;
14 [label="X[4] <= -0.4736\nentropy = 0.444552233571\nsamples = 3", shape="box"] ;
13 -> 14 ;
15 [label="entropy = 0.0000\nsamples = 2\nvalue = [ 0.55462185  0.        ]", shape="box"] ;
14 -> 15 ;
16 [label="entropy = -0.0000\nsamples = 1\nvalue = [ 0.          5.44537815]", shape="box"] ;
14 -> 16 ;
17 [label="entropy = 0.0000\nsamples = 4\nvalue = [ 0.          9.07563025]", shape="box"] ;
13 -> 17 ;
18 [label="X[5] <= 3.5350\nentropy = 0.854137688149\nsamples = 19", shape="box"] ;
12 -> 18 ;
19 [label="X[5] <= -9.7114\nentropy = 0.508709820032\nsamples = 7", shape="box"] ;
18 -> 19 ;
20 [label="entropy = 0.0000\nsamples = 3\nvalue = [ 0.55462185  0.        ]", shape="box"] ;
19 -> 20 ;
21 [label="X[4] <= 7.0277\nentropy = 0.279810829704\nsamples = 4", shape="box"] ;
19 -> 21 ;
22 [label="entropy = 0.0000\nsamples = 1\nvalue = [ 0.18487395  0.        ]", shape="box"] ;
21 -> 22 ;
23 [label="X[0] <= 0.6203\nentropy = 0.167765261603\nsamples = 3", shape="box"] ;
21 -> 23 ;
24 [label="entropy = 0.0000\nsamples = 2\nvalue = [ 0.         7.2605042]", shape="box"] ;
23 -> 24 ;
25 [label="entropy = 0.0000\nsamples = 1\nvalue = [ 0.18487395  0.        ]", shape="box"] ;
23 -> 25 ;
26 [label="X[3] <= 3.0366\nentropy = 0.977648278252\nsamples = 12", shape="box"] ;
18 -> 26 ;
27 [label="X[1] <= -0.5237\nentropy = 0.655942075769\nsamples = 3", shape="box"] ;
26 -> 27 ;
28 [label="entropy = 0.0000\nsamples = 1\nvalue = [ 0.          1.81512605]", shape="box"] ;
27 -> 28 ;
29 [label="entropy = 0.0000\nsamples = 2\nvalue = [ 0.3697479  0.       ]", shape="box"] ;
27 -> 29 ;
30 [label="entropy = 0.0000\nsamples = 9\nvalue = [ 2.21848739  0.        ]", shape="box"] ;
26 -> 30 ;
31 [label="X[2] <= 0.7190\nentropy = 0.960621144526\nsamples = 137", shape="box"] ;
7 -> 31 ;
32 [label="entropy = 0.0000\nsamples = 34\nvalue = [ 10.90756303   0.        ]", shape="box"] ;
31 -> 32 ;
33 [label="X[1] <= 0.2763\nentropy = 0.996748822012\nsamples = 103", shape="box"] ;
31 -> 33 ;
34 [label="X[0] <= 0.6265\nentropy = 0.919030559493\nsamples = 95", shape="box"] ;
33 -> 34 ;
35 [label="X[1] <= 0.1098\nentropy = 0.962876136043\nsamples = 23", shape="box"] ;
34 -> 35 ;
36 [label="entropy = 0.0000\nsamples = 9\nvalue = [ 2.58823529  0.        ]", shape="box"] ;
35 -> 36 ;
37 [label="X[1] <= 0.1445\nentropy = 0.822524502466\nsamples = 14", shape="box"] ;
35 -> 37 ;
38 [label="X[9] <= 51.7372\nentropy = 0.317809429374\nsamples = 6", shape="box"] ;
37 -> 38 ;
39 [label="X[8] <= 59.7709\nentropy = 0.564336444493\nsamples = 4", shape="box"] ;
38 -> 39 ;
40 [label="entropy = 0.0000\nsamples = 2\nvalue = [ 0.         3.6302521]", shape="box"] ;
39 -> 40 ;
41 [label="entropy = 0.0000\nsamples = 2\nvalue = [ 0.55462185  0.        ]", shape="box"] ;
39 -> 41 ;
42 [label="entropy = 0.0000\nsamples = 2\nvalue = [ 0.          5.44537815]", shape="box"] ;
38 -> 42 ;
43 [label="entropy = 0.0000\nsamples = 8\nvalue = [ 2.58823529  0.        ]", shape="box"] ;
37 -> 43 ;
44 [label="X[5] <= 16.7640\nentropy = 0.62537242295\nsamples = 72", shape="box"] ;
34 -> 44 ;
45 [label="X[1] <= 0.0080\nentropy = 0.426466311131\nsamples = 69", shape="box"] ;
44 -> 45 ;
46 [label="X[1] <= 0.0048\nentropy = 0.992774453988\nsamples = 7", shape="box"] ;
45 -> 46 ;
47 [label="entropy = 0.0000\nsamples = 6\nvalue = [ 2.21848739  0.        ]", shape="box"] ;
46 -> 47 ;
48 [label="entropy = -0.0000\nsamples = 1\nvalue = [ 0.          1.81512605]", shape="box"] ;
46 -> 48 ;
49 [label="entropy = -0.0000\nsamples = 62\nvalue = [ 16.82352941   0.        ]", shape="box"] ;
45 -> 49 ;
50 [label="X[4] <= 2.6455\nentropy = 0.784992088764\nsamples = 3", shape="box"] ;
44 -> 50 ;
51 [label="entropy = 0.0000\nsamples = 1\nvalue = [ 0.          1.81512605]", shape="box"] ;
50 -> 51 ;
52 [label="entropy = 0.0000\nsamples = 2\nvalue = [ 0.55462185  0.        ]", shape="box"] ;
50 -> 52 ;
53 [label="X[0] <= 0.4703\nentropy = 0.564336444493\nsamples = 8", shape="box"] ;
33 -> 53 ;
54 [label="entropy = 0.0000\nsamples = 2\nvalue = [ 0.92436975  0.        ]", shape="box"] ;
53 -> 54 ;
55 [label="X[7] <= 3.7971\nentropy = 0.341510029531\nsamples = 6", shape="box"] ;
53 -> 55 ;
56 [label="entropy = 0.0000\nsamples = 2\nvalue = [ 0.3697479  0.       ]", shape="box"] ;
55 -> 56 ;
57 [label="X[0] <= 0.7593\nentropy = 0.208419826421\nsamples = 4", shape="box"] ;
55 -> 57 ;
58 [label="entropy = 0.0000\nsamples = 3\nvalue = [  0.         10.8907563]", shape="box"] ;
57 -> 58 ;
59 [label="entropy = 0.0000\nsamples = 1\nvalue = [ 0.3697479  0.       ]", shape="box"] ;
57 -> 59 ;
60 [label="X[5] <= -3.7452\nentropy = 0.815266754455\nsamples = 110", shape="box"] ;
6 -> 60 ;
61 [label="entropy = 0.0000\nsamples = 22\nvalue = [ 6.84033613  0.        ]", shape="box"] ;
60 -> 61 ;
62 [label="X[4] <= 10.2989\nentropy = 0.716677051069\nsamples = 88", shape="box"] ;
60 -> 62 ;
63 [label="X[6] <= 4.3333\nentropy = 0.592160926817\nsamples = 59", shape="box"] ;
62 -> 63 ;
64 [label="X[9] <= 10.8127\nentropy = 0.403207132844\nsamples = 33", shape="box"] ;
63 -> 64 ;
65 [label="entropy = 0.0000\nsamples = 4\nvalue = [ 0.7394958  0.       ]", shape="box"] ;
64 -> 65 ;
66 [label="X[5] <= 6.5004\nentropy = 0.357725728194\nsamples = 29", shape="box"] ;
64 -> 66 ;
67 [label="X[0] <= 1.1451\nentropy = 0.627925283957\nsamples = 12", shape="box"] ;
66 -> 67 ;
68 [label="X[1] <= 0.1847\nentropy = 0.238362409158\nsamples = 5", shape="box"] ;
67 -> 68 ;
69 [label="entropy = 0.0000\nsamples = 4\nvalue = [ 0.          9.07563025]", shape="box"] ;
68 -> 69 ;
70 [label="entropy = 0.0000\nsamples = 1\nvalue = [ 0.3697479  0.       ]", shape="box"] ;
68 -> 70 ;
71 [label="X[2] <= -0.5612\nentropy = 0.998635964159\nsamples = 7", shape="box"] ;
67 -> 71 ;
72 [label="entropy = 0.0000\nsamples = 1\nvalue = [ 0.          1.81512605]", shape="box"] ;
71 -> 72 ;
73 [label="entropy = 0.0000\nsamples = 6\nvalue = [ 1.66386555  0.        ]", shape="box"] ;
71 -> 73 ;
74 [label="X[1] <= -0.3540\nentropy = 0.242292189082\nsamples = 17", shape="box"] ;
66 -> 74 ;
75 [label="entropy = 0.0000\nsamples = 2\nvalue = [ 0.3697479  0.       ]", shape="box"] ;
74 -> 75 ;
76 [label="X[7] <= 16.5899\nentropy = 0.201316111034\nsamples = 15", shape="box"] ;
74 -> 76 ;
77 [label="X[0] <= 2.3445\nentropy = 0.155932690877\nsamples = 13", shape="box"] ;
76 -> 77 ;
78 [label="X[9] <= 40.5626\nentropy = 0.131106529582\nsamples = 12", shape="box"] ;
77 -> 78 ;
79 [label="X[0] <= 1.5167\nentropy = 0.238362409158\nsamples = 6", shape="box"] ;
78 -> 79 ;
80 [label="entropy = 0.0000\nsamples = 3\nvalue = [ 0.7394958  0.       ]", shape="box"] ;
79 -> 80 ;
81 [label="entropy = 0.0000\nsamples = 3\nvalue = [  0.         18.1512605]", shape="box"] ;
79 -> 81 ;
82 [label="entropy = 0.0000\nsamples = 6\nvalue = [  0.          21.78151261]", shape="box"] ;
78 -> 82 ;
83 [label="entropy = -0.0000\nsamples = 1\nvalue = [ 0.18487395  0.        ]", shape="box"] ;
77 -> 83 ;
84 [label="entropy = 0.0000\nsamples = 2\nvalue = [ 0.3697479  0.       ]", shape="box"] ;
76 -> 84 ;
85 [label="X[6] <= 6.0708\nentropy = 0.891139077406\nsamples = 26", shape="box"] ;
63 -> 85 ;
86 [label="entropy = 0.0000\nsamples = 5\nvalue = [ 2.03361345  0.        ]", shape="box"] ;
85 -> 86 ;
87 [label="X[6] <= 20.4617\nentropy = 0.784992088764\nsamples = 21", shape="box"] ;
85 -> 87 ;
88 [label="X[7] <= 13.1286\nentropy = 0.693965967334\nsamples = 18", shape="box"] ;
87 -> 88 ;
89 [label="X[4] <= 9.8154\nentropy = 0.992476003943\nsamples = 13", shape="box"] ;
88 -> 89 ;
90 [label="entropy = 0.0000\nsamples = 12\nvalue = [ 2.95798319  0.        ]", shape="box"] ;
89 -> 90 ;
91 [label="entropy = 0.0000\nsamples = 1\nvalue = [ 0.         3.6302521]", shape="box"] ;
89 -> 91 ;
92 [label="X[4] <= -9.9059\nentropy = 0.208419826421\nsamples = 5", shape="box"] ;
88 -> 92 ;
93 [label="entropy = 0.0000\nsamples = 1\nvalue = [ 0.3697479  0.       ]", shape="box"] ;
92 -> 93 ;
94 [label="entropy = -0.0000\nsamples = 4\nvalue = [  0.         10.8907563]", shape="box"] ;
92 -> 94 ;
95 [label="entropy = 0.0000\nsamples = 3\nvalue = [ 1.1092437  0.       ]", shape="box"] ;
87 -> 95 ;
96 [label="X[9] <= 15.2256\nentropy = 0.992476003943\nsamples = 29", shape="box"] ;
62 -> 96 ;
97 [label="X[2] <= 2.3957\nentropy = 0.238362409158\nsamples = 5", shape="box"] ;
96 -> 97 ;
98 [label="entropy = 0.0000\nsamples = 1\nvalue = [ 0.18487395  0.        ]", shape="box"] ;
97 -> 98 ;
99 [label="X[3] <= 2.8622\nentropy = 0.141236693304\nsamples = 4", shape="box"] ;
97 -> 99 ;
100 [label="entropy = 0.0000\nsamples = 1\nvalue = [ 0.18487395  0.        ]", shape="box"] ;
99 -> 100 ;
101 [label="entropy = 0.0000\nsamples = 3\nvalue = [ 0.          9.07563025]", shape="box"] ;
99 -> 101 ;
102 [label="entropy = 0.0000\nsamples = 24\nvalue = [ 7.02521008  0.        ]", shape="box"] ;
96 -> 102 ;
103 [label="X[3] <= 2.4726\nentropy = 0.401600746208\nsamples = 65", shape="box"] ;
5 -> 103 ;
104 [label="entropy = 0.0000\nsamples = 6\nvalue = [ 1.29411765  0.        ]", shape="box"] ;
103 -> 104 ;
105 [label="X[4] <= 39.5784\nentropy = 0.360373913349\nsamples = 59", shape="box"] ;
103 -> 105 ;
106 [label="X[7] <= 1.7418\nentropy = 0.127233100157\nsamples = 30", shape="box"] ;
105 -> 106 ;
107 [label="X[4] <= 20.2030\nentropy = 0.403207132844\nsamples = 11", shape="box"] ;
106 -> 107 ;
108 [label="X[2] <= 5.1102\nentropy = 0.868040398617\nsamples = 4", shape="box"] ;
107 -> 108 ;
109 [label="entropy = 0.0000\nsamples = 3\nvalue = [ 0.7394958  0.       ]", shape="box"] ;
108 -> 109 ;
110 [label="entropy = 0.0000\nsamples = 1\nvalue = [ 0.          1.81512605]", shape="box"] ;
108 -> 110 ;
111 [label="X[0] <= 0.9329\nentropy = 0.208419826421\nsamples = 7", shape="box"] ;
107 -> 111 ;
112 [label="entropy = 0.0000\nsamples = 4\nvalue = [ 0.          9.07563025]", shape="box"] ;
111 -> 112 ;
113 [label="X[1] <= 0.0122\nentropy = 0.655942075769\nsamples = 3", shape="box"] ;
111 -> 113 ;
114 [label="entropy = 0.0000\nsamples = 2\nvalue = [ 0.3697479  0.       ]", shape="box"] ;
113 -> 114 ;
115 [label="entropy = 0.0000\nsamples = 1\nvalue = [ 0.          1.81512605]", shape="box"] ;
113 -> 115 ;
116 [label="X[8] <= 91.0417\nentropy = 0.0301069819631\nsamples = 19", shape="box"] ;
106 -> 116 ;
117 [label="entropy = 0.0000\nsamples = 14\nvalue = [  0.          49.00840336]", shape="box"] ;
116 -> 117 ;
118 [label="X[8] <= 98.5576\nentropy = 0.122440345942\nsamples = 5", shape="box"] ;
116 -> 118 ;
119 [label="entropy = 0.0000\nsamples = 1\nvalue = [ 0.18487395  0.        ]", shape="box"] ;
118 -> 119 ;
120 [label="entropy = 0.0000\nsamples = 4\nvalue = [  0.         10.8907563]", shape="box"] ;
118 -> 120 ;
121 [label="X[6] <= 3.0557\nentropy = 0.699041039943\nsamples = 29", shape="box"] ;
105 -> 121 ;
122 [label="X[9] <= 40.8389\nentropy = 0.317809429374\nsamples = 10", shape="box"] ;
121 -> 122 ;
123 [label="X[1] <= -0.0172\nentropy = 0.784992088764\nsamples = 6", shape="box"] ;
122 -> 123 ;
124 [label="X[1] <= -176.3475\nentropy = 0.279810829704\nsamples = 3", shape="box"] ;
123 -> 124 ;
125 [label="entropy = 0.0000\nsamples = 1\nvalue = [ 0.18487395  0.        ]", shape="box"] ;
124 -> 125 ;
126 [label="entropy = -0.0000\nsamples = 2\nvalue = [ 0.         3.6302521]", shape="box"] ;
124 -> 126 ;
127 [label="entropy = 0.0000\nsamples = 3\nvalue = [ 0.92436975  0.        ]", shape="box"] ;
123 -> 127 ;
128 [label="entropy = 0.0000\nsamples = 4\nvalue = [  0.         14.5210084]", shape="box"] ;
122 -> 128 ;
129 [label="X[0] <= 0.8163\nentropy = 0.969964541827\nsamples = 19", shape="box"] ;
121 -> 129 ;
130 [label="entropy = 0.0000\nsamples = 9\nvalue = [ 2.40336134  0.        ]", shape="box"] ;
129 -> 130 ;
131 [label="X[0] <= 0.9429\nentropy = 0.809204229147\nsamples = 10", shape="box"] ;
129 -> 131 ;
132 [label="X[6] <= 6.5304\nentropy = 0.369524740676\nsamples = 4", shape="box"] ;
131 -> 132 ;
133 [label="entropy = 0.0000\nsamples = 2\nvalue = [ 0.55462185  0.        ]", shape="box"] ;
132 -> 133 ;
134 [label="entropy = -0.0000\nsamples = 2\nvalue = [ 0.         7.2605042]", shape="box"] ;
132 -> 134 ;
135 [label="entropy = 0.0000\nsamples = 6\nvalue = [ 1.8487395  0.       ]", shape="box"] ;
131 -> 135 ;
136 [label="X[7] <= 16.8214\nentropy = 0.758460094121\nsamples = 70", shape="box"] ;
4 -> 136 ;
137 [label="X[9] <= 132.1323\nentropy = 0.460651102526\nsamples = 60", shape="box"] ;
136 -> 137 ;
138 [label="entropy = 0.0000\nsamples = 59\nvalue = [ 16.82352941   0.        ]", shape="box"] ;
137 -> 138 ;
139 [label="entropy = 0.0000\nsamples = 1\nvalue = [ 0.          1.81512605]", shape="box"] ;
137 -> 139 ;
140 [label="X[5] <= 14.8264\nentropy = 0.979649493667\nsamples = 10", shape="box"] ;
136 -> 140 ;
141 [label="entropy = 0.0000\nsamples = 9\nvalue = [ 2.58823529  0.        ]", shape="box"] ;
140 -> 141 ;
142 [label="entropy = 0.0000\nsamples = 1\nvalue = [ 0.         3.6302521]", shape="box"] ;
140 -> 142 ;
143 [label="X[2] <= 7.0792\nentropy = 0.73105290718\nsamples = 291", shape="box"] ;
3 -> 143 ;
144 [label="entropy = 0.0000\nsamples = 132\nvalue = [ 38.63865546   0.        ]", shape="box"] ;
143 -> 144 ;
145 [label="X[4] <= 0.1427\nentropy = 0.905670405719\nsamples = 159", shape="box"] ;
143 -> 145 ;
146 [label="X[9] <= 13.1842\nentropy = 0.804569426304\nsamples = 11", shape="box"] ;
145 -> 146 ;
147 [label="X[3] <= 2.4445\nentropy = 0.317809429374\nsamples = 4", shape="box"] ;
146 -> 147 ;
148 [label="entropy = 0.0000\nsamples = 1\nvalue = [ 0.55462185  0.        ]", shape="box"] ;
147 -> 148 ;
149 [label="entropy = 0.0000\nsamples = 3\nvalue = [ 0.          9.07563025]", shape="box"] ;
147 -> 149 ;
150 [label="entropy = 0.0000\nsamples = 7\nvalue = [ 2.40336134  0.        ]", shape="box"] ;
146 -> 150 ;
151 [label="X[7] <= 12.6073\nentropy = 0.774120259656\nsamples = 148", shape="box"] ;
145 -> 151 ;
152 [label="X[8] <= 140.0002\nentropy = 0.570541142852\nsamples = 117", shape="box"] ;
151 -> 152 ;
153 [label="entropy = 0.0000\nsamples = 89\nvalue = [ 26.99159664   0.        ]", shape="box"] ;
152 -> 153 ;
154 [label="X[9] <= 38.8767\nentropy = 0.974639445328\nsamples = 28", shape="box"] ;
152 -> 154 ;
155 [label="entropy = 0.0000\nsamples = 17\nvalue = [ 5.36134454  0.        ]", shape="box"] ;
154 -> 155 ;
156 [label="X[1] <= 0.1596\nentropy = 0.906731811743\nsamples = 11", shape="box"] ;
154 -> 156 ;
157 [label="entropy = 0.0000\nsamples = 8\nvalue = [ 2.21848739  0.        ]", shape="box"] ;
156 -> 157 ;
158 [label="X[0] <= 0.5502\nentropy = 0.341510029531\nsamples = 3", shape="box"] ;
156 -> 158 ;
159 [label="entropy = 0.0000\nsamples = 1\nvalue = [ 0.3697479  0.       ]", shape="box"] ;
158 -> 159 ;
160 [label="entropy = 0.0000\nsamples = 2\nvalue = [ 0.          5.44537815]", shape="box"] ;
158 -> 160 ;
161 [label="X[8] <= 202.9995\nentropy = 0.997674085285\nsamples = 31", shape="box"] ;
151 -> 161 ;
162 [label="X[2] <= 9.0241\nentropy = 0.891517529963\nsamples = 30", shape="box"] ;
161 -> 162 ;
163 [label="X[2] <= 8.9520\nentropy = 0.989559157735\nsamples = 17", shape="box"] ;
162 -> 163 ;
164 [label="X[3] <= 3.6965\nentropy = 0.85814053611\nsamples = 16", shape="box"] ;
163 -> 164 ;
165 [label="entropy = 0.0000\nsamples = 13\nvalue = [ 4.06722689  0.        ]", shape="box"] ;
164 -> 165 ;
166 [label="X[0] <= 0.7094\nentropy = 0.784992088764\nsamples = 3", shape="box"] ;
164 -> 166 ;
167 [label="entropy = 0.0000\nsamples = 1\nvalue = [ 0.          1.81512605]", shape="box"] ;
166 -> 167 ;
168 [label="entropy = 0.0000\nsamples = 2\nvalue = [ 0.55462185  0.        ]", shape="box"] ;
166 -> 168 ;
169 [label="entropy = 0.0000\nsamples = 1\nvalue = [ 0.          1.81512605]", shape="box"] ;
163 -> 169 ;
170 [label="entropy = 0.0000\nsamples = 13\nvalue = [ 3.51260504  0.        ]", shape="box"] ;
162 -> 170 ;
171 [label="entropy = 0.0000\nsamples = 1\nvalue = [ 0.         3.6302521]", shape="box"] ;
161 -> 171 ;
172 [label="X[9] <= 210.8583\nentropy = 0.611583484846\nsamples = 219", shape="box"] ;
0 -> 172 ;
173 [label="X[7] <= 7.7069\nentropy = 0.315326178814\nsamples = 212", shape="box"] ;
172 -> 173 ;
174 [label="entropy = 0.0000\nsamples = 176\nvalue = [ 50.65546218   0.        ]", shape="box"] ;
173 -> 174 ;
175 [label="X[7] <= 7.7489\nentropy = 0.852700704278\nsamples = 36", shape="box"] ;
173 -> 175 ;
176 [label="entropy = 0.0000\nsamples = 1\nvalue = [ 0.          1.81512605]", shape="box"] ;
175 -> 176 ;
177 [label="X[9] <= 57.8051\nentropy = 0.637731451262\nsamples = 35", shape="box"] ;
175 -> 177 ;
178 [label="X[6] <= 5.1174\nentropy = 0.902835035995\nsamples = 17", shape="box"] ;
177 -> 178 ;
179 [label="X[9] <= 54.5548\nentropy = 0.868040398617\nsamples = 5", shape="box"] ;
178 -> 179 ;
180 [label="entropy = 0.0000\nsamples = 4\nvalue = [ 0.7394958  0.       ]", shape="box"] ;
179 -> 180 ;
181 [label="entropy = -0.0000\nsamples = 1\nvalue = [ 0.          1.81512605]", shape="box"] ;
179 -> 181 ;
182 [label="entropy = 0.0000\nsamples = 12\nvalue = [ 3.14285714  0.        ]", shape="box"] ;
178 -> 182 ;
183 [label="entropy = 0.0000\nsamples = 18\nvalue = [ 5.54621849  0.        ]", shape="box"] ;
177 -> 183 ;
184 [label="X[2] <= 3.3872\nentropy = 0.613026827278\nsamples = 7", shape="box"] ;
172 -> 184 ;
185 [label="entropy = 0.0000\nsamples = 3\nvalue = [ 0.         7.2605042]", shape="box"] ;
184 -> 185 ;
186 [label="entropy = 0.0000\nsamples = 4\nvalue = [ 1.29411765  0.        ]", shape="box"] ;
184 -> 186 ;
}