digraph Tree {
0 [label="X[4] <= 15.5207\nentropy = 1.0\nsamples = 996", shape="box"] ;
1 [label="X[2] <= 5.1927\nentropy = 0.967765777195\nsamples = 816", shape="box"] ;
0 -> 1 ;
2 [label="X[3] <= 4.1082\nentropy = 0.999996221302\nsamples = 517", shape="box"] ;
1 -> 2 ;
3 [label="X[8] <= 100.7338\nentropy = 0.979738781183\nsamples = 367", shape="box"] ;
2 -> 3 ;
4 [label="X[6] <= 1.5971\nentropy = 0.958675884319\nsamples = 231", shape="box"] ;
3 -> 4 ;
5 [label="X[9] <= 14.4423\nentropy = 0.946384472112\nsamples = 37", shape="box"] ;
4 -> 5 ;
6 [label="X[5] <= -11.8209\nentropy = 0.685293281918\nsamples = 18", shape="box"] ;
5 -> 6 ;
7 [label="entropy = 0.0000\nsamples = 4\nvalue = [ 1.39625081  0.        ]", shape="box"] ;
6 -> 7 ;
8 [label="X[6] <= 0.9285\nentropy = 0.533212193613\nsamples = 14", shape="box"] ;
6 -> 8 ;
9 [label="entropy = 0.0000\nsamples = 6\nvalue = [ 1.57078216  0.        ]", shape="box"] ;
8 -> 9 ;
10 [label="X[3] <= 2.4977\nentropy = 0.245769937854\nsamples = 8", shape="box"] ;
8 -> 10 ;
11 [label="entropy = 0.0000\nsamples = 1\nvalue = [ 0.3490627  0.       ]", shape="box"] ;
10 -> 11 ;
12 [label="X[6] <= 1.2674\nentropy = 0.145933720443\nsamples = 7", shape="box"] ;
10 -> 12 ;
13 [label="X[9] <= 11.5820\nentropy = 0.327127690238\nsamples = 4", shape="box"] ;
12 -> 13 ;
14 [label="entropy = 0.0000\nsamples = 2\nvalue = [ 0.3490627  0.       ]", shape="box"] ;
13 -> 14 ;
15 [label="entropy = 0.0000\nsamples = 2\nvalue = [ 0.          5.47640595]", shape="box"] ;
13 -> 15 ;
16 [label="entropy = 0.0000\nsamples = 3\nvalue = [  0.          10.95281189]", shape="box"] ;
12 -> 16 ;
17 [label="entropy = -0.0000\nsamples = 19\nvalue = [ 5.75953458  0.        ]", shape="box"] ;
5 -> 17 ;
18 [label="X[9] <= 50.6891\nentropy = 0.864650524867\nsamples = 194", shape="box"] ;
4 -> 18 ;
19 [label="X[1] <= 0.3109\nentropy = 0.921290776896\nsamples = 159", shape="box"] ;
18 -> 19 ;
20 [label="X[5] <= 6.6939\nentropy = 0.967297167238\nsamples = 128", shape="box"] ;
19 -> 20 ;
21 [label="X[9] <= 20.6207\nentropy = 0.76654990317\nsamples = 75", shape="box"] ;
20 -> 21 ;
22 [label="X[3] <= 3.1371\nentropy = 0.95541063679\nsamples = 38", shape="box"] ;
21 -> 22 ;
23 [label="X[4] <= 10.6552\nentropy = 0.993653994839\nsamples = 20", shape="box"] ;
22 -> 23 ;
24 [label="entropy = 0.0000\nsamples = 12\nvalue = [ 3.66515837  0.        ]", shape="box"] ;
23 -> 24 ;
25 [label="X[5] <= 3.0116\nentropy = 0.577512288158\nsamples = 8", shape="box"] ;
23 -> 25 ;
26 [label="X[6] <= 11.5856\nentropy = 0.327127690238\nsamples = 5", shape="box"] ;
25 -> 26 ;
27 [label="X[2] <= -3.6588\nentropy = 0.198812749989\nsamples = 4", shape="box"] ;
26 -> 27 ;
28 [label="entropy = 0.0000\nsamples = 1\nvalue = [ 0.17453135  0.        ]", shape="box"] ;
27 -> 28 ;
29 [label="entropy = -0.0000\nsamples = 3\nvalue = [ 0.          5.47640595]", shape="box"] ;
27 -> 29 ;
30 [label="entropy = 0.0000\nsamples = 1\nvalue = [ 0.17453135  0.        ]", shape="box"] ;
26 -> 30 ;
31 [label="entropy = 0.0000\nsamples = 3\nvalue = [ 0.52359405  0.        ]", shape="box"] ;
25 -> 31 ;
32 [label="entropy = 0.0000\nsamples = 18\nvalue = [ 4.53781513  0.        ]", shape="box"] ;
22 -> 32 ;
33 [label="entropy = 0.0000\nsamples = 37\nvalue = [ 9.94828701  0.        ]", shape="box"] ;
21 -> 33 ;
34 [label="X[7] <= 4.9256\nentropy = 0.992282773504\nsamples = 53", shape="box"] ;
20 -> 34 ;
35 [label="entropy = 0.0000\nsamples = 15\nvalue = [ 3.83968972  0.        ]", shape="box"] ;
34 -> 35 ;
36 [label="X[5] <= 8.3416\nentropy = 0.9382263173\nsamples = 38", shape="box"] ;
34 -> 36 ;
37 [label="X[5] <= 7.3238\nentropy = 0.369839644323\nsamples = 8", shape="box"] ;
36 -> 37 ;
38 [label="X[5] <= 6.7716\nentropy = 0.850831170828\nsamples = 5", shape="box"] ;
37 -> 38 ;
39 [label="entropy = 0.0000\nsamples = 1\nvalue = [ 0.          1.82546865]", shape="box"] ;
38 -> 39 ;
40 [label="entropy = -0.0000\nsamples = 4\nvalue = [ 0.6981254  0.       ]", shape="box"] ;
38 -> 40 ;
41 [label="entropy = -0.0000\nsamples = 3\nvalue = [ 0.         7.3018746]", shape="box"] ;
37 -> 41 ;
42 [label="X[6] <= 2.9926\nentropy = 0.984830432723\nsamples = 30", shape="box"] ;
36 -> 42 ;
43 [label="X[1] <= 0.2357\nentropy = 0.935313056769\nsamples = 12", shape="box"] ;
42 -> 43 ;
44 [label="X[5] <= 13.3408\nentropy = 0.728203785994\nsamples = 7", shape="box"] ;
43 -> 44 ;
45 [label="entropy = 0.0000\nsamples = 2\nvalue = [ 0.6981254  0.       ]", shape="box"] ;
44 -> 45 ;
46 [label="X[7] <= 12.0512\nentropy = 0.509093230846\nsamples = 5", shape="box"] ;
44 -> 46 ;
47 [label="X[2] <= 4.2770\nentropy = 0.850831170828\nsamples = 3", shape="box"] ;
46 -> 47 ;
48 [label="entropy = 0.0000\nsamples = 2\nvalue = [ 0.6981254  0.       ]", shape="box"] ;
47 -> 48 ;
49 [label="entropy = -0.0000\nsamples = 1\nvalue = [ 0.          1.82546865]", shape="box"] ;
47 -> 49 ;
50 [label="entropy = -0.0000\nsamples = 2\nvalue = [ 0.         3.6509373]", shape="box"] ;
46 -> 50 ;
51 [label="entropy = 0.0000\nsamples = 5\nvalue = [ 1.57078216  0.        ]", shape="box"] ;
43 -> 51 ;
52 [label="entropy = 0.0000\nsamples = 18\nvalue = [ 4.36328378  0.        ]", shape="box"] ;
42 -> 52 ;
53 [label="entropy = -0.0000\nsamples = 31\nvalue = [ 8.72656755  0.        ]", shape="box"] ;
19 -> 53 ;
54 [label="entropy = -0.0000\nsamples = 35\nvalue = [ 10.29734971   0.        ]", shape="box"] ;
18 -> 54 ;
55 [label="X[7] <= 36.0030\nentropy = 0.804156649481\nsamples = 136", shape="box"] ;
3 -> 55 ;
56 [label="X[0] <= 0.2568\nentropy = 0.865203613805\nsamples = 126", shape="box"] ;
55 -> 56 ;
57 [label="X[0] <= 0.1964\nentropy = 0.0841657133839\nsamples = 6", shape="box"] ;
56 -> 57 ;
58 [label="X[9] <= 21.0873\nentropy = 0.267506709913\nsamples = 2", shape="box"] ;
57 -> 58 ;
59 [label="entropy = 0.0000\nsamples = 1\nvalue = [ 0.         3.6509373]", shape="box"] ;
58 -> 59 ;
60 [label="entropy = -0.0000\nsamples = 1\nvalue = [ 0.17453135  0.        ]", shape="box"] ;
58 -> 60 ;
61 [label="entropy = 0.0000\nsamples = 4\nvalue = [  0.          12.77828054]", shape="box"] ;
57 -> 61 ;
62 [label="X[7] <= 15.7155\nentropy = 0.930528332105\nsamples = 120", shape="box"] ;
56 -> 62 ;
63 [label="X[3] <= 3.8396\nentropy = 0.848242724165\nsamples = 92", shape="box"] ;
62 -> 63 ;
64 [label="X[8] <= 202.3893\nentropy = 0.982067862166\nsamples = 77", shape="box"] ;
63 -> 64 ;
65 [label="X[7] <= 13.7974\nentropy = 0.948727296221\nsamples = 67", shape="box"] ;
64 -> 65 ;
66 [label="X[9] <= 47.8733\nentropy = 0.999111324986\nsamples = 63", shape="box"] ;
65 -> 66 ;
67 [label="X[9] <= 12.6095\nentropy = 0.677698493559\nsamples = 35", shape="box"] ;
66 -> 67 ;
68 [label="X[0] <= 1.3926\nentropy = 0.765418353845\nsamples = 3", shape="box"] ;
67 -> 68 ;
69 [label="entropy = 0.0000\nsamples = 2\nvalue = [ 0.52359405  0.        ]", shape="box"] ;
68 -> 69 ;
70 [label="entropy = -0.0000\nsamples = 1\nvalue = [ 0.          1.82546865]", shape="box"] ;
68 -> 70 ;
71 [label="entropy = 0.0000\nsamples = 32\nvalue = [ 7.8539108  0.       ]", shape="box"] ;
67 -> 71 ;
72 [label="X[1] <= -0.0560\nentropy = 0.869567072922\nsamples = 28", shape="box"] ;
66 -> 72 ;
73 [label="X[6] <= 26.5714\nentropy = 0.227587300702\nsamples = 4", shape="box"] ;
72 -> 73 ;
74 [label="entropy = 0.0000\nsamples = 3\nvalue = [ 0.          9.12734324]", shape="box"] ;
73 -> 74 ;
75 [label="entropy = 0.0000\nsamples = 1\nvalue = [ 0.3490627  0.       ]", shape="box"] ;
73 -> 75 ;
76 [label="X[1] <= 0.2574\nentropy = 0.984830432723\nsamples = 24", shape="box"] ;
72 -> 76 ;
77 [label="entropy = 0.0000\nsamples = 21\nvalue = [ 4.71234648  0.        ]", shape="box"] ;
76 -> 77 ;
78 [label="X[6] <= 3.1878\nentropy = 0.267506709913\nsamples = 3", shape="box"] ;
76 -> 78 ;
79 [label="entropy = 0.0000\nsamples = 1\nvalue = [ 0.17453135  0.        ]", shape="box"] ;
78 -> 79 ;
80 [label="entropy = 0.0000\nsamples = 2\nvalue = [ 0.         3.6509373]", shape="box"] ;
78 -> 80 ;
81 [label="X[6] <= 8.1821\nentropy = 0.134437827666\nsamples = 4", shape="box"] ;
65 -> 81 ;
82 [label="X[1] <= 0.1216\nentropy = 0.267506709913\nsamples = 2", shape="box"] ;
81 -> 82 ;
83 [label="entropy = 0.0000\nsamples = 1\nvalue = [ 0.         3.6509373]", shape="box"] ;
82 -> 83 ;
84 [label="entropy = -0.0000\nsamples = 1\nvalue = [ 0.17453135  0.        ]", shape="box"] ;
82 -> 84 ;
85 [label="entropy = 0.0000\nsamples = 2\nvalue = [ 0.          5.47640595]", shape="box"] ;
81 -> 85 ;
86 [label="entropy = 0.0000\nsamples = 10\nvalue = [ 3.49062702  0.        ]", shape="box"] ;
64 -> 86 ;
87 [label="X[9] <= 18.4276\nentropy = 0.294009379175\nsamples = 15", shape="box"] ;
63 -> 87 ;
88 [label="entropy = 0.0000\nsamples = 2\nvalue = [ 0.3490627  0.       ]", shape="box"] ;
87 -> 88 ;
89 [label="X[0] <= 1.6582\nentropy = 0.239361260356\nsamples = 13", shape="box"] ;
87 -> 89 ;
90 [label="X[4] <= 12.0891\nentropy = 0.141868953379\nsamples = 10", shape="box"] ;
89 -> 90 ;
91 [label="X[2] <= 4.9441\nentropy = 0.0586155837537\nsamples = 8", shape="box"] ;
90 -> 91 ;
92 [label="entropy = 0.0000\nsamples = 7\nvalue = [  0.          25.55656109]", shape="box"] ;
91 -> 92 ;
93 [label="entropy = 0.0000\nsamples = 1\nvalue = [ 0.17453135  0.        ]", shape="box"] ;
91 -> 93 ;
94 [label="entropy = -0.0000\nsamples = 2\nvalue = [ 0.3490627  0.       ]", shape="box"] ;
90 -> 94 ;
95 [label="entropy = -0.0000\nsamples = 3\nvalue = [ 0.52359405  0.        ]", shape="box"] ;
89 -> 95 ;
96 [label="X[1] <= -0.1198\nentropy = 0.677698493559\nsamples = 28", shape="box"] ;
62 -> 96 ;
97 [label="X[7] <= 26.0384\nentropy = 0.635559715426\nsamples = 3", shape="box"] ;
96 -> 97 ;
98 [label="entropy = 0.0000\nsamples = 2\nvalue = [ 0.3490627  0.       ]", shape="box"] ;
97 -> 98 ;
99 [label="entropy = -0.0000\nsamples = 1\nvalue = [ 0.          1.82546865]", shape="box"] ;
97 -> 99 ;
100 [label="entropy = -0.0000\nsamples = 25\nvalue = [ 8.02844215  0.        ]", shape="box"] ;
96 -> 100 ;
101 [label="X[3] <= 3.6880\nentropy = 0.227587300702\nsamples = 10", shape="box"] ;
55 -> 101 ;
102 [label="X[4] <= -28.1107\nentropy = 0.134437827666\nsamples = 8", shape="box"] ;
101 -> 102 ;
103 [label="entropy = 0.0000\nsamples = 1\nvalue = [ 0.17453135  0.        ]", shape="box"] ;
102 -> 103 ;
104 [label="X[9] <= 51.3366\nentropy = 0.0772611655107\nsamples = 7", shape="box"] ;
102 -> 104 ;
105 [label="entropy = 0.0000\nsamples = 5\nvalue = [  0.          16.42921784]", shape="box"] ;
104 -> 105 ;
106 [label="X[6] <= 6.6990\nentropy = 0.42727653726\nsamples = 2", shape="box"] ;
104 -> 106 ;
107 [label="entropy = 0.0000\nsamples = 1\nvalue = [ 0.17453135  0.        ]", shape="box"] ;
106 -> 107 ;
108 [label="entropy = 0.0000\nsamples = 1\nvalue = [ 0.          1.82546865]", shape="box"] ;
106 -> 108 ;
109 [label="entropy = 0.0000\nsamples = 2\nvalue = [ 0.3490627  0.       ]", shape="box"] ;
101 -> 109 ;
110 [label="X[5] <= 3.1605\nentropy = 0.419771763564\nsamples = 150", shape="box"] ;
2 -> 110 ;
111 [label="X[5] <= 3.1290\nentropy = 0.720683766418\nsamples = 57", shape="box"] ;
110 -> 111 ;
112 [label="X[9] <= 200.1146\nentropy = 0.502107113808\nsamples = 56", shape="box"] ;
111 -> 112 ;
113 [label="entropy = 0.0000\nsamples = 54\nvalue = [ 14.48610213   0.        ]", shape="box"] ;
112 -> 113 ;
114 [label="X[9] <= 252.9622\nentropy = 0.42727653726\nsamples = 2", shape="box"] ;
112 -> 114 ;
115 [label="entropy = 0.0000\nsamples = 1\nvalue = [ 0.          1.82546865]", shape="box"] ;
114 -> 115 ;
116 [label="entropy = 0.0000\nsamples = 1\nvalue = [ 0.17453135  0.        ]", shape="box"] ;
114 -> 116 ;
117 [label="entropy = 0.0000\nsamples = 1\nvalue = [ 0.          1.82546865]", shape="box"] ;
111 -> 117 ;
118 [label="entropy = -0.0000\nsamples = 93\nvalue = [ 24.60892049   0.        ]", shape="box"] ;
110 -> 118 ;
119 [label="X[2] <= 6.7978\nentropy = 0.51790383596\nsamples = 299", shape="box"] ;
1 -> 119 ;
120 [label="entropy = 0.0000\nsamples = 138\nvalue = [ 38.92049127   0.        ]", shape="box"] ;
119 -> 120 ;
121 [label="X[4] <= 3.6110\nentropy = 0.716892402205\nsamples = 161", shape="box"] ;
119 -> 121 ;
122 [label="X[9] <= 154.3682\nentropy = 0.991522088807\nsamples = 45", shape="box"] ;
121 -> 122 ;
123 [label="X[7] <= 12.5753\nentropy = 0.800762102014\nsamples = 44", shape="box"] ;
122 -> 123 ;
124 [label="entropy = 0.0000\nsamples = 23\nvalue = [ 6.28312864  0.        ]", shape="box"] ;
123 -> 124 ;
125 [label="X[6] <= 2.3933\nentropy = 0.981010383636\nsamples = 21", shape="box"] ;
123 -> 125 ;
126 [label="entropy = 0.0000\nsamples = 8\nvalue = [ 2.26890756  0.        ]", shape="box"] ;
125 -> 126 ;
127 [label="X[9] <= 18.2801\nentropy = 0.98715847346\nsamples = 13", shape="box"] ;
125 -> 127 ;
128 [label="entropy = 0.0000\nsamples = 6\nvalue = [ 1.57078216  0.        ]", shape="box"] ;
127 -> 128 ;
129 [label="X[1] <= 0.2335\nentropy = 0.812432524165\nsamples = 7", shape="box"] ;
127 -> 129 ;
130 [label="X[9] <= 24.9490\nentropy = 0.635559715426\nsamples = 5", shape="box"] ;
129 -> 130 ;
131 [label="entropy = 0.0000\nsamples = 2\nvalue = [ 0.         3.6509373]", shape="box"] ;
130 -> 131 ;
132 [label="entropy = 0.0000\nsamples = 3\nvalue = [ 0.6981254  0.       ]", shape="box"] ;
130 -> 132 ;
133 [label="entropy = 0.0000\nsamples = 2\nvalue = [ 0.52359405  0.        ]", shape="box"] ;
129 -> 133 ;
134 [label="entropy = -0.0000\nsamples = 1\nvalue = [ 0.          5.47640595]", shape="box"] ;
122 -> 134 ;
135 [label="X[8] <= 116.1492\nentropy = 0.295571531095\nsamples = 116", shape="box"] ;
121 -> 135 ;
136 [label="entropy = 0.0000\nsamples = 80\nvalue = [ 22.86360698   0.        ]", shape="box"] ;
135 -> 136 ;
137 [label="X[6] <= 2.2321\nentropy = 0.611292872151\nsamples = 36", shape="box"] ;
135 -> 137 ;
138 [label="X[4] <= 11.4134\nentropy = 0.850831170828\nsamples = 4", shape="box"] ;
137 -> 138 ;
139 [label="entropy = 0.0000\nsamples = 1\nvalue = [ 0.          1.82546865]", shape="box"] ;
138 -> 139 ;
140 [label="entropy = -0.0000\nsamples = 3\nvalue = [ 0.6981254  0.       ]", shape="box"] ;
138 -> 140 ;
141 [label="entropy = 0.0000\nsamples = 32\nvalue = [ 9.59922431  0.        ]", shape="box"] ;
137 -> 141 ;
142 [label="X[1] <= -60.9621\nentropy = 0.811014875468\nsamples = 180", shape="box"] ;
0 -> 142 ;
143 [label="entropy = 0.0000\nsamples = 11\nvalue = [ 2.44343891  0.        ]", shape="box"] ;
142 -> 143 ;
144 [label="X[7] <= 2.1360\nentropy = 0.790127092067\nsamples = 169", shape="box"] ;
142 -> 144 ;
145 [label="X[8] <= 74.7902\nentropy = 0.992815615089\nsamples = 98", shape="box"] ;
144 -> 145 ;
146 [label="X[5] <= 24.7006\nentropy = 0.600672899076\nsamples = 39", shape="box"] ;
145 -> 146 ;
147 [label="entropy = 0.0000\nsamples = 34\nvalue = [ 9.59922431  0.        ]", shape="box"] ;
146 -> 147 ;
148 [label="X[9] <= 16.7866\nentropy = 0.946384472112\nsamples = 5", shape="box"] ;
146 -> 148 ;
149 [label="entropy = 0.0000\nsamples = 4\nvalue = [ 1.04718811  0.        ]", shape="box"] ;
148 -> 149 ;
150 [label="entropy = -0.0000\nsamples = 1\nvalue = [ 0.          1.82546865]", shape="box"] ;
148 -> 150 ;
151 [label="X[2] <= 0.6648\nentropy = 0.911138872129\nsamples = 59", shape="box"] ;
145 -> 151 ;
152 [label="X[3] <= 3.0458\nentropy = 0.635559715426\nsamples = 19", shape="box"] ;
151 -> 152 ;
153 [label="X[1] <= -0.0540\nentropy = 0.456285512384\nsamples = 13", shape="box"] ;
152 -> 153 ;
154 [label="entropy = 0.0000\nsamples = 4\nvalue = [ 0.          9.12734324]", shape="box"] ;
153 -> 154 ;
155 [label="X[6] <= 3.8291\nentropy = 0.707524084943\nsamples = 9", shape="box"] ;
153 -> 155 ;
156 [label="X[5] <= -19.8879\nentropy = 0.544758699998\nsamples = 7", shape="box"] ;
155 -> 156 ;
157 [label="entropy = 0.0000\nsamples = 1\nvalue = [ 0.         3.6509373]", shape="box"] ;
156 -> 157 ;
158 [label="X[5] <= 6.5437\nentropy = 0.765418353845\nsamples = 6", shape="box"] ;
156 -> 158 ;
159 [label="entropy = 0.0000\nsamples = 4\nvalue = [ 1.04718811  0.        ]", shape="box"] ;
158 -> 159 ;
160 [label="entropy = -0.0000\nsamples = 2\nvalue = [ 0.         3.6509373]", shape="box"] ;
158 -> 160 ;
161 [label="entropy = 0.0000\nsamples = 2\nvalue = [ 0.6981254  0.       ]", shape="box"] ;
155 -> 161 ;
162 [label="entropy = -0.0000\nsamples = 6\nvalue = [ 1.39625081  0.        ]", shape="box"] ;
152 -> 162 ;
163 [label="X[6] <= 3.1266\nentropy = 0.998880961223\nsamples = 40", shape="box"] ;
151 -> 163 ;
164 [label="X[7] <= -11.4141\nentropy = 0.826096811078\nsamples = 18", shape="box"] ;
163 -> 164 ;
165 [label="entropy = 0.0000\nsamples = 5\nvalue = [ 1.04718811  0.        ]", shape="box"] ;
164 -> 165 ;
166 [label="X[3] <= 3.3607\nentropy = 0.728203785994\nsamples = 13", shape="box"] ;
164 -> 166 ;
167 [label="entropy = 0.0000\nsamples = 2\nvalue = [ 0.          5.47640595]", shape="box"] ;
166 -> 167 ;
168 [label="X[3] <= 3.7428\nentropy = 0.922611495547\nsamples = 11", shape="box"] ;
166 -> 168 ;
169 [label="entropy = 0.0000\nsamples = 6\nvalue = [ 1.91984486  0.        ]", shape="box"] ;
168 -> 169 ;
170 [label="X[0] <= 0.6213\nentropy = 0.577512288158\nsamples = 5", shape="box"] ;
168 -> 170 ;
171 [label="entropy = 0.0000\nsamples = 1\nvalue = [ 0.         3.6509373]", shape="box"] ;
170 -> 171 ;
172 [label="X[4] <= 20.8767\nentropy = 0.908073338865\nsamples = 4", shape="box"] ;
170 -> 172 ;
173 [label="entropy = 0.0000\nsamples = 1\nvalue = [ 0.          1.82546865]", shape="box"] ;
172 -> 173 ;
174 [label="entropy = -0.0000\nsamples = 3\nvalue = [ 0.87265676  0.        ]", shape="box"] ;
172 -> 174 ;
175 [label="entropy = 0.0000\nsamples = 22\nvalue = [ 6.28312864  0.        ]", shape="box"] ;
163 -> 175 ;
176 [label="X[0] <= 1.1434\nentropy = 0.505693074325\nsamples = 71", shape="box"] ;
144 -> 176 ;
177 [label="X[8] <= 41.5233\nentropy = 0.617893121137\nsamples = 58", shape="box"] ;
176 -> 177 ;
178 [label="entropy = 0.0000\nsamples = 6\nvalue = [ 1.39625081  0.        ]", shape="box"] ;
177 -> 178 ;
179 [label="X[9] <= 20.9740\nentropy = 0.566126516298\nsamples = 52", shape="box"] ;
177 -> 179 ;
180 [label="X[0] <= 0.6894\nentropy = 0.369839644323\nsamples = 25", shape="box"] ;
179 -> 180 ;
181 [label="X[1] <= 0.0375\nentropy = 0.720109289447\nsamples = 12", shape="box"] ;
180 -> 181 ;
182 [label="entropy = 0.0000\nsamples = 4\nvalue = [ 1.39625081  0.        ]", shape="box"] ;
181 -> 182 ;
183 [label="X[0] <= 0.5604\nentropy = 0.42727653726\nsamples = 8", shape="box"] ;
181 -> 183 ;
184 [label="X[8] <= 70.7185\nentropy = 0.134437827666\nsamples = 5", shape="box"] ;
183 -> 184 ;
185 [label="X[5] <= 4.5476\nentropy = 0.42727653726\nsamples = 2", shape="box"] ;
184 -> 185 ;
186 [label="entropy = 0.0000\nsamples = 1\nvalue = [ 0.17453135  0.        ]", shape="box"] ;
185 -> 186 ;
187 [label="entropy = 0.0000\nsamples = 1\nvalue = [ 0.          1.82546865]", shape="box"] ;
185 -> 187 ;
188 [label="entropy = 0.0000\nsamples = 3\nvalue = [ 0.         7.3018746]", shape="box"] ;
184 -> 188 ;
189 [label="entropy = 0.0000\nsamples = 3\nvalue = [ 0.6981254  0.       ]", shape="box"] ;
183 -> 189 ;
190 [label="X[0] <= 1.0287\nentropy = 0.134437827666\nsamples = 13", shape="box"] ;
180 -> 190 ;
191 [label="X[5] <= 22.3733\nentropy = 0.0974951903477\nsamples = 12", shape="box"] ;
190 -> 191 ;
192 [label="X[4] <= 30.9064\nentropy = 0.0553609729008\nsamples = 11", shape="box"] ;
191 -> 192 ;
193 [label="entropy = 0.0000\nsamples = 10\nvalue = [  0.          27.38202973]", shape="box"] ;
192 -> 193 ;
194 [label="entropy = -0.0000\nsamples = 1\nvalue = [ 0.17453135  0.        ]", shape="box"] ;
192 -> 194 ;
195 [label="entropy = -0.0000\nsamples = 1\nvalue = [ 0.17453135  0.        ]", shape="box"] ;
191 -> 195 ;
196 [label="entropy = 0.0000\nsamples = 1\nvalue = [ 0.17453135  0.        ]", shape="box"] ;
190 -> 196 ;
197 [label="X[8] <= 93.0176\nentropy = 0.822766242665\nsamples = 27", shape="box"] ;
179 -> 197 ;
198 [label="entropy = 0.0000\nsamples = 8\nvalue = [ 1.91984486  0.        ]", shape="box"] ;
197 -> 198 ;
199 [label="X[9] <= 35.6024\nentropy = 0.67355042247\nsamples = 19", shape="box"] ;
197 -> 199 ;
200 [label="entropy = 0.0000\nsamples = 9\nvalue = [ 1.74531351  0.        ]", shape="box"] ;
199 -> 200 ;
201 [label="X[3] <= 3.6355\nentropy = 0.42727653726\nsamples = 10", shape="box"] ;
199 -> 201 ;
202 [label="X[0] <= 0.9448\nentropy = 0.312929487455\nsamples = 8", shape="box"] ;
201 -> 202 ;
203 [label="entropy = 0.0000\nsamples = 6\nvalue = [  0.          14.60374919]", shape="box"] ;
202 -> 203 ;
204 [label="entropy = 0.0000\nsamples = 2\nvalue = [ 0.87265676  0.        ]", shape="box"] ;
202 -> 204 ;
205 [label="entropy = -0.0000\nsamples = 2\nvalue = [ 0.52359405  0.        ]", shape="box"] ;
201 -> 205 ;
206 [label="X[8] <= 101.9041\nentropy = 0.189407794568\nsamples = 13", shape="box"] ;
176 -> 206 ;
207 [label="X[7] <= 4.4425\nentropy = 0.0925665935363\nsamples = 10", shape="box"] ;
206 -> 207 ;
208 [label="X[8] <= 61.1645\nentropy = 0.635559715426\nsamples = 3", shape="box"] ;
207 -> 208 ;
209 [label="entropy = 0.0000\nsamples = 2\nvalue = [ 0.3490627  0.       ]", shape="box"] ;
208 -> 209 ;
210 [label="entropy = -0.0000\nsamples = 1\nvalue = [ 0.          1.82546865]", shape="box"] ;
208 -> 210 ;
211 [label="entropy = 0.0000\nsamples = 7\nvalue = [  0.          27.38202973]", shape="box"] ;
207 -> 211 ;
212 [label="entropy = -0.0000\nsamples = 3\nvalue = [ 0.52359405  0.        ]", shape="box"] ;
206 -> 212 ;
}