digraph Tree {
0 [label="X[1] <= -0.0561\nentropy = 1.0\nsamples = 973", shape="box"] ;
1 [label="X[7] <= 6.5791\nentropy = 0.798178212673\nsamples = 143", shape="box"] ;
0 -> 1 ;
2 [label="X[2] <= 2.0045\nentropy = 0.999746418948\nsamples = 74", shape="box"] ;
1 -> 2 ;
3 [label="X[9] <= 21.6268\nentropy = 0.876963643707\nsamples = 32", shape="box"] ;
2 -> 3 ;
4 [label="entropy = 0.0000\nsamples = 19\nvalue = [ 5.41952165  0.        ]", shape="box"] ;
3 -> 4 ;
5 [label="X[9] <= 59.8575\nentropy = 0.418458598373\nsamples = 13", shape="box"] ;
3 -> 5 ;
6 [label="X[1] <= -0.1750\nentropy = 0.239965150764\nsamples = 9", shape="box"] ;
5 -> 6 ;
7 [label="X[7] <= -1.7022\nentropy = 0.499334167464\nsamples = 5", shape="box"] ;
6 -> 7 ;
8 [label="entropy = 0.0000\nsamples = 2\nvalue = [ 0.50808016  0.        ]", shape="box"] ;
7 -> 8 ;
9 [label="X[7] <= 4.1006\nentropy = 0.193967946598\nsamples = 3", shape="box"] ;
7 -> 9 ;
10 [label="entropy = 0.0000\nsamples = 2\nvalue = [ 0.          5.49191984]", shape="box"] ;
9 -> 10 ;
11 [label="entropy = -0.0000\nsamples = 1\nvalue = [ 0.16936005  0.        ]", shape="box"] ;
9 -> 11 ;
12 [label="entropy = -0.0000\nsamples = 4\nvalue = [  0.          10.98383969]", shape="box"] ;
6 -> 12 ;
13 [label="entropy = -0.0000\nsamples = 4\nvalue = [ 0.84680026  0.        ]", shape="box"] ;
5 -> 13 ;
14 [label="entropy = -0.0000\nsamples = 42\nvalue = [ 10.1616031   0.       ]", shape="box"] ;
2 -> 14 ;
15 [label="X[3] <= 2.4831\nentropy = 0.573400823621\nsamples = 69", shape="box"] ;
1 -> 15 ;
16 [label="entropy = 0.0000\nsamples = 4\nvalue = [ 1.35488041  0.        ]", shape="box"] ;
15 -> 16 ;
17 [label="X[9] <= 15.8315\nentropy = 0.534685175361\nsamples = 65", shape="box"] ;
15 -> 17 ;
18 [label="X[1] <= -357.0182\nentropy = 0.243916925325\nsamples = 17", shape="box"] ;
17 -> 18 ;
19 [label="entropy = 0.0000\nsamples = 3\nvalue = [ 0.84680026  0.        ]", shape="box"] ;
18 -> 19 ;
20 [label="X[6] <= 1.6593\nentropy = 0.144756975366\nsamples = 14", shape="box"] ;
18 -> 20 ;
21 [label="entropy = 0.0000\nsamples = 1\nvalue = [ 0.3387201  0.       ]", shape="box"] ;
20 -> 21 ;
22 [label="X[9] <= 14.0958\nentropy = 0.096682221944\nsamples = 13", shape="box"] ;
20 -> 22 ;
23 [label="entropy = 0.0000\nsamples = 8\nvalue = [  0.          31.12087912]", shape="box"] ;
22 -> 23 ;
24 [label="X[6] <= 3.1467\nentropy = 0.297296012933\nsamples = 5", shape="box"] ;
22 -> 24 ;
25 [label="entropy = 0.0000\nsamples = 2\nvalue = [ 0.50808016  0.        ]", shape="box"] ;
24 -> 25 ;
26 [label="entropy = 0.0000\nsamples = 3\nvalue = [ 0.          9.15319974]", shape="box"] ;
24 -> 26 ;
27 [label="X[7] <= 9.3573\nentropy = 0.730728961268\nsamples = 48", shape="box"] ;
17 -> 27 ;
28 [label="entropy = 0.0000\nsamples = 9\nvalue = [ 2.20168067  0.        ]", shape="box"] ;
27 -> 28 ;
29 [label="X[9] <= 21.1277\nentropy = 0.633788802872\nsamples = 39", shape="box"] ;
27 -> 29 ;
30 [label="entropy = 0.0000\nsamples = 10\nvalue = [ 2.87912088  0.        ]", shape="box"] ;
29 -> 30 ;
31 [label="X[8] <= 122.9522\nentropy = 0.447100804901\nsamples = 29", shape="box"] ;
29 -> 31 ;
32 [label="X[9] <= 38.5629\nentropy = 0.142251374207\nsamples = 9", shape="box"] ;
31 -> 32 ;
33 [label="X[8] <= 105.8114\nentropy = 0.22214603533\nsamples = 6", shape="box"] ;
32 -> 33 ;
34 [label="X[0] <= 0.8346\nentropy = 0.131019458078\nsamples = 5", shape="box"] ;
33 -> 34 ;
35 [label="entropy = 0.0000\nsamples = 1\nvalue = [ 0.16936005  0.        ]", shape="box"] ;
34 -> 35 ;
36 [label="entropy = 0.0000\nsamples = 4\nvalue = [ 0.          9.15319974]", shape="box"] ;
34 -> 36 ;
37 [label="entropy = -0.0000\nsamples = 1\nvalue = [ 0.16936005  0.        ]", shape="box"] ;
33 -> 37 ;
38 [label="entropy = 0.0000\nsamples = 3\nvalue = [ 0.          7.32255979]", shape="box"] ;
32 -> 38 ;
39 [label="X[6] <= 16.8894\nentropy = 0.624990477603\nsamples = 20", shape="box"] ;
31 -> 39 ;
40 [label="entropy = 0.0000\nsamples = 7\nvalue = [ 1.69360052  0.        ]", shape="box"] ;
39 -> 40 ;
41 [label="X[1] <= -0.1205\nentropy = 0.387875508172\nsamples = 13", shape="box"] ;
39 -> 41 ;
42 [label="X[0] <= 0.2208\nentropy = 0.261281206258\nsamples = 9", shape="box"] ;
41 -> 42 ;
43 [label="entropy = 0.0000\nsamples = 3\nvalue = [ 0.          7.32255979]", shape="box"] ;
42 -> 43 ;
44 [label="X[1] <= -0.1459\nentropy = 0.418458598373\nsamples = 6", shape="box"] ;
42 -> 44 ;
45 [label="entropy = 0.0000\nsamples = 3\nvalue = [ 0.50808016  0.        ]", shape="box"] ;
44 -> 45 ;
46 [label="X[7] <= 10.1945\nentropy = 0.15583086671\nsamples = 3", shape="box"] ;
44 -> 46 ;
47 [label="entropy = 0.0000\nsamples = 1\nvalue = [ 0.16936005  0.        ]", shape="box"] ;
46 -> 47 ;
48 [label="entropy = -0.0000\nsamples = 2\nvalue = [ 0.          7.32255979]", shape="box"] ;
46 -> 48 ;
49 [label="X[8] <= 169.3934\nentropy = 0.84161252897\nsamples = 4", shape="box"] ;
41 -> 49 ;
50 [label="entropy = 0.0000\nsamples = 3\nvalue = [ 0.67744021  0.        ]", shape="box"] ;
49 -> 50 ;
51 [label="entropy = 0.0000\nsamples = 1\nvalue = [ 0.          1.83063995]", shape="box"] ;
49 -> 51 ;
52 [label="X[1] <= 65.5963\nentropy = 0.979285399442\nsamples = 830", shape="box"] ;
0 -> 52 ;
53 [label="X[2] <= 4.8287\nentropy = 0.964199335356\nsamples = 820", shape="box"] ;
52 -> 53 ;
54 [label="X[0] <= 0.7940\nentropy = 0.998595298845\nsamples = 461", shape="box"] ;
53 -> 54 ;
55 [label="X[4] <= 3.9461\nentropy = 0.857921059481\nsamples = 201", shape="box"] ;
54 -> 55 ;
56 [label="entropy = 0.0000\nsamples = 68\nvalue = [ 18.62960569   0.        ]", shape="box"] ;
55 -> 56 ;
57 [label="X[0] <= 0.5854\nentropy = 0.9588945316\nsamples = 133", shape="box"] ;
55 -> 57 ;
58 [label="X[3] <= 3.0011\nentropy = 0.989658921569\nsamples = 59", shape="box"] ;
57 -> 58 ;
59 [label="entropy = 0.0000\nsamples = 18\nvalue = [ 5.08080155  0.        ]", shape="box"] ;
58 -> 59 ;
60 [label="X[6] <= 5.6421\nentropy = 0.922147005494\nsamples = 41", shape="box"] ;
58 -> 60 ;
61 [label="X[0] <= 0.5682\nentropy = 0.784732084634\nsamples = 26", shape="box"] ;
60 -> 61 ;
62 [label="X[3] <= 3.8962\nentropy = 0.850238441995\nsamples = 24", shape="box"] ;
61 -> 62 ;
63 [label="X[9] <= 8.4437\nentropy = 0.976306314315\nsamples = 21", shape="box"] ;
62 -> 63 ;
64 [label="entropy = 0.0000\nsamples = 2\nvalue = [ 0.          5.49191984]", shape="box"] ;
63 -> 64 ;
65 [label="X[3] <= 3.6421\nentropy = 0.834008077406\nsamples = 19", shape="box"] ;
63 -> 65 ;
66 [label="entropy = 0.0000\nsamples = 14\nvalue = [ 4.40336134  0.        ]", shape="box"] ;
65 -> 66 ;
67 [label="X[3] <= 3.6656\nentropy = 0.84161252897\nsamples = 5", shape="box"] ;
65 -> 67 ;
68 [label="entropy = 0.0000\nsamples = 1\nvalue = [ 0.          1.83063995]", shape="box"] ;
67 -> 68 ;
69 [label="entropy = -0.0000\nsamples = 4\nvalue = [ 0.67744021  0.        ]", shape="box"] ;
67 -> 69 ;
70 [label="X[4] <= 5.4402\nentropy = 0.34653342198\nsamples = 3", shape="box"] ;
62 -> 70 ;
71 [label="entropy = 0.0000\nsamples = 2\nvalue = [ 0.          7.32255979]", shape="box"] ;
70 -> 71 ;
72 [label="entropy = 0.0000\nsamples = 1\nvalue = [ 0.50808016  0.        ]", shape="box"] ;
70 -> 72 ;
73 [label="entropy = 0.0000\nsamples = 2\nvalue = [ 0.         3.6612799]", shape="box"] ;
61 -> 73 ;
74 [label="entropy = 0.0000\nsamples = 15\nvalue = [ 3.72592114  0.        ]", shape="box"] ;
60 -> 74 ;
75 [label="X[9] <= 13.3305\nentropy = 0.439729784037\nsamples = 74", shape="box"] ;
57 -> 75 ;
76 [label="X[1] <= 0.0044\nentropy = 0.993974794563\nsamples = 8", shape="box"] ;
75 -> 76 ;
77 [label="entropy = 0.0000\nsamples = 5\nvalue = [ 1.18552036  0.        ]", shape="box"] ;
76 -> 77 ;
78 [label="X[9] <= 12.1226\nentropy = 0.624990477603\nsamples = 3", shape="box"] ;
76 -> 78 ;
79 [label="entropy = 0.0000\nsamples = 2\nvalue = [ 0.3387201  0.       ]", shape="box"] ;
78 -> 79 ;
80 [label="entropy = 0.0000\nsamples = 1\nvalue = [ 0.          1.83063995]", shape="box"] ;
78 -> 80 ;
81 [label="entropy = -0.0000\nsamples = 66\nvalue = [ 16.76664512   0.        ]", shape="box"] ;
75 -> 81 ;
82 [label="X[1] <= 0.4942\nentropy = 0.984419792944\nsamples = 260", shape="box"] ;
54 -> 82 ;
83 [label="X[4] <= 0.8355\nentropy = 0.969010480228\nsamples = 237", shape="box"] ;
82 -> 83 ;
84 [label="X[1] <= 0.1069\nentropy = 0.624990477603\nsamples = 21", shape="box"] ;
83 -> 84 ;
85 [label="X[2] <= -2.1960\nentropy = 0.480477732964\nsamples = 15", shape="box"] ;
84 -> 85 ;
86 [label="entropy = 0.0000\nsamples = 2\nvalue = [ 0.67744021  0.        ]", shape="box"] ;
85 -> 86 ;
87 [label="X[8] <= 87.9955\nentropy = 0.395715860621\nsamples = 13", shape="box"] ;
85 -> 87 ;
88 [label="entropy = 0.0000\nsamples = 4\nvalue = [  0.          14.64511959]", shape="box"] ;
87 -> 88 ;
89 [label="X[8] <= 89.2593\nentropy = 0.727522334082\nsamples = 9", shape="box"] ;
87 -> 89 ;
90 [label="entropy = 0.0000\nsamples = 1\nvalue = [ 0.67744021  0.        ]", shape="box"] ;
89 -> 90 ;
91 [label="X[2] <= 3.8084\nentropy = 0.582509098991\nsamples = 8", shape="box"] ;
89 -> 91 ;
92 [label="X[1] <= 0.0668\nentropy = 0.418458598373\nsamples = 7", shape="box"] ;
91 -> 92 ;
93 [label="entropy = 0.0000\nsamples = 2\nvalue = [ 0.         3.6612799]", shape="box"] ;
92 -> 93 ;
94 [label="X[6] <= 49.4945\nentropy = 0.624990477603\nsamples = 5", shape="box"] ;
92 -> 94 ;
95 [label="X[5] <= 12.1225\nentropy = 0.261281206258\nsamples = 3", shape="box"] ;
94 -> 95 ;
96 [label="entropy = 0.0000\nsamples = 2\nvalue = [ 0.         3.6612799]", shape="box"] ;
95 -> 96 ;
97 [label="entropy = -0.0000\nsamples = 1\nvalue = [ 0.16936005  0.        ]", shape="box"] ;
95 -> 97 ;
98 [label="entropy = 0.0000\nsamples = 2\nvalue = [ 0.50808016  0.        ]", shape="box"] ;
94 -> 98 ;
99 [label="entropy = -0.0000\nsamples = 1\nvalue = [ 0.50808016  0.        ]", shape="box"] ;
91 -> 99 ;
100 [label="entropy = 0.0000\nsamples = 6\nvalue = [ 1.52424047  0.        ]", shape="box"] ;
84 -> 100 ;
101 [label="X[6] <= 8.6237\nentropy = 0.99331228494\nsamples = 216", shape="box"] ;
83 -> 101 ;
102 [label="X[3] <= 4.0463\nentropy = 0.950804592126\nsamples = 164", shape="box"] ;
101 -> 102 ;
103 [label="X[5] <= -3.8255\nentropy = 0.89596409966\nsamples = 136", shape="box"] ;
102 -> 103 ;
104 [label="entropy = 0.0000\nsamples = 26\nvalue = [ 7.45184228  0.        ]", shape="box"] ;
103 -> 104 ;
105 [label="X[9] <= 12.0459\nentropy = 0.812478378571\nsamples = 110", shape="box"] ;
103 -> 105 ;
106 [label="entropy = 0.0000\nsamples = 9\nvalue = [ 2.37104072  0.        ]", shape="box"] ;
105 -> 106 ;
107 [label="X[7] <= 50.4696\nentropy = 0.775818562037\nsamples = 101", shape="box"] ;
105 -> 107 ;
108 [label="X[1] <= 0.0716\nentropy = 0.813760880332\nsamples = 99", shape="box"] ;
107 -> 108 ;
109 [label="X[9] <= 19.9865\nentropy = 0.978369428338\nsamples = 49", shape="box"] ;
108 -> 109 ;
110 [label="X[7] <= 4.7570\nentropy = 0.741667967481\nsamples = 23", shape="box"] ;
109 -> 110 ;
111 [label="X[1] <= -0.0236\nentropy = 0.988034411791\nsamples = 11", shape="box"] ;
110 -> 111 ;
112 [label="entropy = 0.0000\nsamples = 1\nvalue = [ 0.          1.83063995]", shape="box"] ;
111 -> 112 ;
113 [label="entropy = 0.0000\nsamples = 10\nvalue = [ 2.37104072  0.        ]", shape="box"] ;
111 -> 113 ;
114 [label="X[6] <= 3.2014\nentropy = 0.488661156708\nsamples = 12", shape="box"] ;
110 -> 114 ;
115 [label="entropy = 0.0000\nsamples = 5\nvalue = [ 1.01616031  0.        ]", shape="box"] ;
114 -> 115 ;
116 [label="X[6] <= 7.3311\nentropy = 0.233683405315\nsamples = 7", shape="box"] ;
114 -> 116 ;
117 [label="X[9] <= 13.6467\nentropy = 0.100356256886\nsamples = 6", shape="box"] ;
116 -> 117 ;
118 [label="X[7] <= 10.1649\nentropy = 0.261281206258\nsamples = 2", shape="box"] ;
117 -> 118 ;
119 [label="entropy = 0.0000\nsamples = 1\nvalue = [ 0.16936005  0.        ]", shape="box"] ;
118 -> 119 ;
120 [label="entropy = 0.0000\nsamples = 1\nvalue = [ 0.         3.6612799]", shape="box"] ;
118 -> 120 ;
121 [label="entropy = 0.0000\nsamples = 4\nvalue = [ 0.          9.15319974]", shape="box"] ;
117 -> 121 ;
122 [label="entropy = -0.0000\nsamples = 1\nvalue = [ 0.3387201  0.       ]", shape="box"] ;
116 -> 122 ;
123 [label="entropy = -0.0000\nsamples = 26\nvalue = [ 6.43568197  0.        ]", shape="box"] ;
109 -> 123 ;
124 [label="X[3] <= 3.3143\nentropy = 0.652990733323\nsamples = 50", shape="box"] ;
108 -> 124 ;
125 [label="X[6] <= 4.4587\nentropy = 0.892001117903\nsamples = 26", shape="box"] ;
124 -> 125 ;
126 [label="X[9] <= 20.5420\nentropy = 0.991143326602\nsamples = 21", shape="box"] ;
125 -> 126 ;
127 [label="X[6] <= 1.8469\nentropy = 0.802604254387\nsamples = 7", shape="box"] ;
126 -> 127 ;
128 [label="entropy = 0.0000\nsamples = 3\nvalue = [ 0.67744021  0.        ]", shape="box"] ;
127 -> 128 ;
129 [label="X[5] <= -0.3059\nentropy = 0.534685175361\nsamples = 4", shape="box"] ;
127 -> 129 ;
130 [label="entropy = 0.0000\nsamples = 1\nvalue = [ 0.3387201  0.       ]", shape="box"] ;
129 -> 130 ;
131 [label="X[9] <= 20.2116\nentropy = 0.261281206258\nsamples = 3", shape="box"] ;
129 -> 131 ;
132 [label="X[0] <= 1.3135\nentropy = 0.418458598373\nsamples = 2", shape="box"] ;
131 -> 132 ;
133 [label="entropy = 0.0000\nsamples = 1\nvalue = [ 0.16936005  0.        ]", shape="box"] ;
132 -> 133 ;
134 [label="entropy = -0.0000\nsamples = 1\nvalue = [ 0.          1.83063995]", shape="box"] ;
132 -> 134 ;
135 [label="entropy = -0.0000\nsamples = 1\nvalue = [ 0.          1.83063995]", shape="box"] ;
131 -> 135 ;
136 [label="entropy = 0.0000\nsamples = 14\nvalue = [ 3.38720103  0.        ]", shape="box"] ;
126 -> 136 ;
137 [label="X[9] <= 24.5899\nentropy = 0.261281206258\nsamples = 5", shape="box"] ;
125 -> 137 ;
138 [label="entropy = 0.0000\nsamples = 3\nvalue = [ 0.          7.32255979]", shape="box"] ;
137 -> 138 ;
139 [label="entropy = -0.0000\nsamples = 2\nvalue = [ 0.3387201  0.       ]", shape="box"] ;
137 -> 139 ;
140 [label="X[6] <= 4.4700\nentropy = 0.465772647443\nsamples = 24", shape="box"] ;
124 -> 140 ;
141 [label="X[0] <= 0.9609\nentropy = 0.34653342198\nsamples = 19", shape="box"] ;
140 -> 141 ;
142 [label="X[2] <= 2.0666\nentropy = 0.983849542104\nsamples = 6", shape="box"] ;
141 -> 142 ;
143 [label="entropy = 0.0000\nsamples = 1\nvalue = [ 0.          1.83063995]", shape="box"] ;
142 -> 143 ;
144 [label="entropy = -0.0000\nsamples = 5\nvalue = [ 1.35488041  0.        ]", shape="box"] ;
142 -> 144 ;
145 [label="X[5] <= 17.1750\nentropy = 0.163754082767\nsamples = 13", shape="box"] ;
141 -> 145 ;
146 [label="X[9] <= 27.9216\nentropy = 0.131019458078\nsamples = 12", shape="box"] ;
145 -> 146 ;
147 [label="X[9] <= 15.0863\nentropy = 0.297296012933\nsamples = 5", shape="box"] ;
146 -> 147 ;
148 [label="entropy = 0.0000\nsamples = 3\nvalue = [ 0.          9.15319974]", shape="box"] ;
147 -> 148 ;
149 [label="entropy = 0.0000\nsamples = 2\nvalue = [ 0.50808016  0.        ]", shape="box"] ;
147 -> 149 ;
150 [label="entropy = 0.0000\nsamples = 7\nvalue = [  0.          18.30639948]", shape="box"] ;
146 -> 150 ;
151 [label="entropy = -0.0000\nsamples = 1\nvalue = [ 0.16936005  0.        ]", shape="box"] ;
145 -> 151 ;
152 [label="entropy = -0.0000\nsamples = 5\nvalue = [ 1.18552036  0.        ]", shape="box"] ;
140 -> 152 ;
153 [label="entropy = 0.0000\nsamples = 2\nvalue = [ 0.          7.32255979]", shape="box"] ;
107 -> 153 ;
154 [label="entropy = -0.0000\nsamples = 28\nvalue = [ 8.29864253  0.        ]", shape="box"] ;
102 -> 154 ;
155 [label="entropy = 0.0000\nsamples = 52\nvalue = [ 14.7343245   0.       ]", shape="box"] ;
101 -> 155 ;
156 [label="entropy = -0.0000\nsamples = 23\nvalue = [ 7.28248222  0.        ]", shape="box"] ;
82 -> 156 ;
157 [label="X[7] <= 17.7811\nentropy = 0.784995848324\nsamples = 359", shape="box"] ;
53 -> 157 ;
158 [label="X[9] <= 148.4215\nentropy = 0.660001442425\nsamples = 327", shape="box"] ;
157 -> 158 ;
159 [label="X[6] <= 2.9657\nentropy = 0.548629578753\nsamples = 324", shape="box"] ;
158 -> 159 ;
160 [label="X[1] <= 0.1853\nentropy = 0.762820150693\nsamples = 151", shape="box"] ;
159 -> 160 ;
161 [label="X[0] <= 0.8923\nentropy = 0.978287111872\nsamples = 65", shape="box"] ;
160 -> 161 ;
162 [label="X[3] <= 3.7184\nentropy = 0.950250608983\nsamples = 31", shape="box"] ;
161 -> 162 ;
163 [label="X[3] <= 2.9715\nentropy = 0.883171963627\nsamples = 24", shape="box"] ;
162 -> 163 ;
164 [label="entropy = 0.0000\nsamples = 6\nvalue = [ 1.35488041  0.        ]", shape="box"] ;
163 -> 164 ;
165 [label="X[6] <= 2.4930\nentropy = 0.787809814031\nsamples = 18", shape="box"] ;
163 -> 165 ;
166 [label="X[5] <= 24.9025\nentropy = 0.944830036434\nsamples = 14", shape="box"] ;
165 -> 166 ;
167 [label="entropy = 0.0000\nsamples = 12\nvalue = [ 2.70976083  0.        ]", shape="box"] ;
166 -> 167 ;
168 [label="X[7] <= -13.3806\nentropy = 0.755108831203\nsamples = 2", shape="box"] ;
166 -> 168 ;
169 [label="entropy = 0.0000\nsamples = 1\nvalue = [ 0.50808016  0.        ]", shape="box"] ;
168 -> 169 ;
170 [label="entropy = 0.0000\nsamples = 1\nvalue = [ 0.          1.83063995]", shape="box"] ;
168 -> 170 ;
171 [label="X[6] <= 2.6211\nentropy = 0.131019458078\nsamples = 4", shape="box"] ;
165 -> 171 ;
172 [label="X[5] <= 11.8692\nentropy = 0.418458598373\nsamples = 2", shape="box"] ;
171 -> 172 ;
173 [label="entropy = 0.0000\nsamples = 1\nvalue = [ 0.16936005  0.        ]", shape="box"] ;
172 -> 173 ;
174 [label="entropy = -0.0000\nsamples = 1\nvalue = [ 0.          1.83063995]", shape="box"] ;
172 -> 174 ;
175 [label="entropy = 0.0000\nsamples = 2\nvalue = [ 0.          7.32255979]", shape="box"] ;
171 -> 175 ;
176 [label="entropy = 0.0000\nsamples = 7\nvalue = [ 1.69360052  0.        ]", shape="box"] ;
162 -> 176 ;
177 [label="entropy = -0.0000\nsamples = 34\nvalue = [ 9.14544279  0.        ]", shape="box"] ;
161 -> 177 ;
178 [label="entropy = 0.0000\nsamples = 86\nvalue = [ 23.03296703   0.        ]", shape="box"] ;
160 -> 178 ;
179 [label="X[1] <= 0.0025\nentropy = 0.221640147308\nsamples = 173", shape="box"] ;
159 -> 179 ;
180 [label="X[7] <= 10.4244\nentropy = 0.709108123868\nsamples = 29", shape="box"] ;
179 -> 180 ;
181 [label="entropy = 0.0000\nsamples = 27\nvalue = [ 7.45184228  0.        ]", shape="box"] ;
180 -> 181 ;
182 [label="X[0] <= 0.8282\nentropy = 0.418458598373\nsamples = 2", shape="box"] ;
180 -> 182 ;
183 [label="entropy = 0.0000\nsamples = 1\nvalue = [ 0.16936005  0.        ]", shape="box"] ;
182 -> 183 ;
184 [label="entropy = -0.0000\nsamples = 1\nvalue = [ 0.          1.83063995]", shape="box"] ;
182 -> 184 ;
185 [label="entropy = 0.0000\nsamples = 144\nvalue = [ 42.00129282   0.        ]", shape="box"] ;
179 -> 185 ;
186 [label="X[2] <= 6.0490\nentropy = 0.418458598373\nsamples = 3", shape="box"] ;
158 -> 186 ;
187 [label="entropy = 0.0000\nsamples = 2\nvalue = [ 0.50808016  0.        ]", shape="box"] ;
186 -> 187 ;
188 [label="entropy = 0.0000\nsamples = 1\nvalue = [ 0.          5.49191984]", shape="box"] ;
186 -> 188 ;
189 [label="X[8] <= 107.9373\nentropy = 0.966743496033\nsamples = 32", shape="box"] ;
157 -> 189 ;
190 [label="X[6] <= 75.7669\nentropy = 0.78825824374\nsamples = 25", shape="box"] ;
189 -> 190 ;
191 [label="entropy = 0.0000\nsamples = 24\nvalue = [ 5.92760181  0.        ]", shape="box"] ;
190 -> 191 ;
192 [label="entropy = 0.0000\nsamples = 1\nvalue = [ 0.          1.83063995]", shape="box"] ;
190 -> 192 ;
193 [label="X[8] <= 117.5918\nentropy = 0.51383745012\nsamples = 7", shape="box"] ;
189 -> 193 ;
194 [label="X[2] <= 10.0577\nentropy = 0.22214603533\nsamples = 3", shape="box"] ;
193 -> 194 ;
195 [label="entropy = 0.0000\nsamples = 2\nvalue = [ 0.          9.15319974]", shape="box"] ;
194 -> 195 ;
196 [label="entropy = -0.0000\nsamples = 1\nvalue = [ 0.3387201  0.       ]", shape="box"] ;
194 -> 196 ;
197 [label="entropy = 0.0000\nsamples = 4\nvalue = [ 0.84680026  0.        ]", shape="box"] ;
193 -> 197 ;
198 [label="X[0] <= 1.9038\nentropy = 0.387875508172\nsamples = 10", shape="box"] ;
52 -> 198 ;
199 [label="X[3] <= 2.8457\nentropy = 0.142251374207\nsamples = 6", shape="box"] ;
198 -> 199 ;
200 [label="X[6] <= 10.6796\nentropy = 0.0819494517024\nsamples = 5", shape="box"] ;
199 -> 200 ;
201 [label="entropy = 0.0000\nsamples = 4\nvalue = [  0.          16.47575953]", shape="box"] ;
200 -> 201 ;
202 [label="entropy = -0.0000\nsamples = 1\nvalue = [ 0.16936005  0.        ]", shape="box"] ;
200 -> 202 ;
203 [label="entropy = -0.0000\nsamples = 1\nvalue = [ 0.16936005  0.        ]", shape="box"] ;
199 -> 203 ;
204 [label="entropy = 0.0000\nsamples = 4\nvalue = [ 1.01616031  0.        ]", shape="box"] ;
198 -> 204 ;
}