digraph Tree {
0 [label="X[0] <= 1.8506\nentropy = 1.0\nsamples = 953", shape="box"] ;
1 [label="X[2] <= 0.3865\nentropy = 0.999488824901\nsamples = 910", shape="box"] ;
0 -> 1 ;
2 [label="X[1] <= 0.2109\nentropy = 0.780236489027\nsamples = 130", shape="box"] ;
1 -> 2 ;
3 [label="X[8] <= 86.1077\nentropy = 0.724828473227\nsamples = 110", shape="box"] ;
2 -> 3 ;
4 [label="X[4] <= 551.3248\nentropy = 0.995211670418\nsamples = 40", shape="box"] ;
3 -> 4 ;
5 [label="X[3] <= 3.3976\nentropy = 0.928692073096\nsamples = 37", shape="box"] ;
4 -> 5 ;
6 [label="entropy = 0.0000\nsamples = 20\nvalue = [ 6.20555915  0.        ]", shape="box"] ;
5 -> 6 ;
7 [label="X[6] <= 3.3008\nentropy = 0.989494423713\nsamples = 17", shape="box"] ;
5 -> 7 ;
8 [label="entropy = 0.0000\nsamples = 2\nvalue = [ 0.          3.68972204]", shape="box"] ;
7 -> 8 ;
9 [label="X[5] <= -5.1742\nentropy = 0.878954725282\nsamples = 15", shape="box"] ;
7 -> 9 ;
10 [label="X[0] <= 0.7957\nentropy = 0.594545293643\nsamples = 2", shape="box"] ;
9 -> 10 ;
11 [label="entropy = 0.0000\nsamples = 1\nvalue = [ 0.31027796  0.        ]", shape="box"] ;
10 -> 11 ;
12 [label="entropy = 0.0000\nsamples = 1\nvalue = [ 0.          1.84486102]", shape="box"] ;
10 -> 12 ;
13 [label="entropy = 0.0000\nsamples = 13\nvalue = [ 4.03361345  0.        ]", shape="box"] ;
9 -> 13 ;
14 [label="X[9] <= 10.3533\nentropy = 0.393556693818\nsamples = 3", shape="box"] ;
4 -> 14 ;
15 [label="entropy = 0.0000\nsamples = 1\nvalue = [ 0.          3.68972204]", shape="box"] ;
14 -> 15 ;
16 [label="entropy = -0.0000\nsamples = 2\nvalue = [ 0.31027796  0.        ]", shape="box"] ;
14 -> 16 ;
17 [label="X[5] <= -0.9120\nentropy = 0.523355646534\nsamples = 70", shape="box"] ;
3 -> 17 ;
18 [label="X[7] <= 12.1213\nentropy = 0.852266694228\nsamples = 27", shape="box"] ;
17 -> 18 ;
19 [label="X[7] <= -8.6732\nentropy = 0.995211670418\nsamples = 20", shape="box"] ;
18 -> 19 ;
20 [label="X[1] <= 0.0069\nentropy = 0.594545293643\nsamples = 3", shape="box"] ;
19 -> 20 ;
21 [label="entropy = 0.0000\nsamples = 2\nvalue = [ 0.62055591  0.        ]", shape="box"] ;
20 -> 21 ;
22 [label="entropy = 0.0000\nsamples = 1\nvalue = [ 0.          3.68972204]", shape="box"] ;
20 -> 22 ;
23 [label="entropy = 0.0000\nsamples = 17\nvalue = [ 3.72333549  0.        ]", shape="box"] ;
19 -> 23 ;
24 [label="X[1] <= -0.0313\nentropy = 0.33937084562\nsamples = 7", shape="box"] ;
18 -> 24 ;
25 [label="entropy = 0.0000\nsamples = 4\nvalue = [ 0.          7.37944409]", shape="box"] ;
24 -> 25 ;
26 [label="X[2] <= -2.4794\nentropy = 0.813968135715\nsamples = 3", shape="box"] ;
24 -> 26 ;
27 [label="entropy = 0.0000\nsamples = 2\nvalue = [ 0.62055591  0.        ]", shape="box"] ;
26 -> 27 ;
28 [label="entropy = 0.0000\nsamples = 1\nvalue = [ 0.          1.84486102]", shape="box"] ;
26 -> 28 ;
29 [label="X[6] <= 3.8764\nentropy = 0.377298031873\nsamples = 43", shape="box"] ;
17 -> 29 ;
30 [label="X[9] <= 19.9216\nentropy = 0.115502473074\nsamples = 13", shape="box"] ;
29 -> 30 ;
31 [label="X[3] <= 2.9282\nentropy = 0.393556693818\nsamples = 5", shape="box"] ;
30 -> 31 ;
32 [label="X[5] <= 16.4624\nentropy = 0.180492712056\nsamples = 3", shape="box"] ;
31 -> 32 ;
33 [label="entropy = 0.0000\nsamples = 1\nvalue = [ 0.15513898  0.        ]", shape="box"] ;
32 -> 33 ;
34 [label="entropy = 0.0000\nsamples = 2\nvalue = [ 0.          5.53458306]", shape="box"] ;
32 -> 34 ;
35 [label="entropy = 0.0000\nsamples = 2\nvalue = [ 0.31027796  0.        ]", shape="box"] ;
31 -> 35 ;
36 [label="entropy = 0.0000\nsamples = 8\nvalue = [  0.          23.98319328]", shape="box"] ;
30 -> 36 ;
37 [label="X[8] <= 138.9860\nentropy = 0.541515071663\nsamples = 30", shape="box"] ;
29 -> 37 ;
38 [label="X[7] <= -13.0389\nentropy = 0.853987050593\nsamples = 20", shape="box"] ;
37 -> 38 ;
39 [label="entropy = 0.0000\nsamples = 1\nvalue = [ 0.          3.68972204]", shape="box"] ;
38 -> 39 ;
40 [label="X[8] <= 108.5063\nentropy = 0.966071622109\nsamples = 19", shape="box"] ;
38 -> 40 ;
41 [label="X[3] <= 3.7675\nentropy = 0.75822385081\nsamples = 10", shape="box"] ;
40 -> 41 ;
42 [label="entropy = 0.0000\nsamples = 3\nvalue = [ 0.93083387  0.        ]", shape="box"] ;
41 -> 42 ;
43 [label="X[3] <= 4.0967\nentropy = 0.471586890356\nsamples = 7", shape="box"] ;
41 -> 43 ;
44 [label="entropy = 0.0000\nsamples = 2\nvalue = [ 0.          3.68972204]", shape="box"] ;
43 -> 44 ;
45 [label="X[4] <= 1.0507\nentropy = 0.813968135715\nsamples = 5", shape="box"] ;
43 -> 45 ;
46 [label="entropy = 0.0000\nsamples = 1\nvalue = [ 0.          1.84486102]", shape="box"] ;
45 -> 46 ;
47 [label="entropy = 0.0000\nsamples = 4\nvalue = [ 0.62055591  0.        ]", shape="box"] ;
45 -> 47 ;
48 [label="entropy = 0.0000\nsamples = 9\nvalue = [ 2.01680672  0.        ]", shape="box"] ;
40 -> 48 ;
49 [label="X[8] <= 188.9179\nentropy = 0.192743051148\nsamples = 10", shape="box"] ;
37 -> 49 ;
50 [label="X[8] <= 167.5074\nentropy = 0.112718513777\nsamples = 8", shape="box"] ;
49 -> 50 ;
51 [label="X[7] <= 5.6654\nentropy = 0.299362510766\nsamples = 4", shape="box"] ;
50 -> 51 ;
52 [label="entropy = 0.0000\nsamples = 2\nvalue = [ 0.31027796  0.        ]", shape="box"] ;
51 -> 52 ;
53 [label="entropy = 0.0000\nsamples = 2\nvalue = [ 0.          5.53458306]", shape="box"] ;
51 -> 53 ;
54 [label="entropy = 0.0000\nsamples = 4\nvalue = [  0.          14.75888817]", shape="box"] ;
50 -> 54 ;
55 [label="entropy = -0.0000\nsamples = 2\nvalue = [ 0.31027796  0.        ]", shape="box"] ;
49 -> 55 ;
56 [label="X[1] <= 97.0515\nentropy = 0.869764055609\nsamples = 20", shape="box"] ;
2 -> 56 ;
57 [label="entropy = 0.0000\nsamples = 19\nvalue = [ 4.49903038  0.        ]", shape="box"] ;
56 -> 57 ;
58 [label="entropy = 0.0000\nsamples = 1\nvalue = [ 0.          1.84486102]", shape="box"] ;
56 -> 58 ;
59 [label="X[9] <= 25.6483\nentropy = 0.984985291096\nsamples = 780", shape="box"] ;
1 -> 59 ;
60 [label="X[6] <= 2.5193\nentropy = 0.989105726019\nsamples = 314", shape="box"] ;
59 -> 60 ;
61 [label="X[1] <= 0.2023\nentropy = 0.962162025364\nsamples = 153", shape="box"] ;
60 -> 61 ;
62 [label="X[5] <= -0.3725\nentropy = 0.99230253296\nsamples = 77", shape="box"] ;
61 -> 62 ;
63 [label="X[4] <= 35.2748\nentropy = 0.546352015666\nsamples = 15", shape="box"] ;
62 -> 63 ;
64 [label="X[5] <= -2.9417\nentropy = 0.813968135715\nsamples = 13", shape="box"] ;
63 -> 64 ;
65 [label="entropy = 0.0000\nsamples = 10\nvalue = [ 1.70652877  0.        ]", shape="box"] ;
64 -> 65 ;
66 [label="X[0] <= 1.0639\nentropy = 0.180492712056\nsamples = 3", shape="box"] ;
64 -> 66 ;
67 [label="entropy = 0.0000\nsamples = 1\nvalue = [ 0.15513898  0.        ]", shape="box"] ;
66 -> 67 ;
68 [label="entropy = 0.0000\nsamples = 2\nvalue = [ 0.          5.53458306]", shape="box"] ;
66 -> 68 ;
69 [label="entropy = 0.0000\nsamples = 2\nvalue = [ 0.          7.37944409]", shape="box"] ;
63 -> 69 ;
70 [label="X[5] <= 13.0726\nentropy = 0.945753808384\nsamples = 62", shape="box"] ;
62 -> 70 ;
71 [label="entropy = 0.0000\nsamples = 37\nvalue = [ 9.61861668  0.        ]", shape="box"] ;
70 -> 71 ;
72 [label="X[4] <= 17.3017\nentropy = 0.978534636074\nsamples = 25", shape="box"] ;
70 -> 72 ;
73 [label="X[0] <= 1.7306\nentropy = 0.81693229538\nsamples = 21", shape="box"] ;
72 -> 73 ;
74 [label="entropy = 0.0000\nsamples = 20\nvalue = [ 5.42986425  0.        ]", shape="box"] ;
73 -> 74 ;
75 [label="entropy = -0.0000\nsamples = 1\nvalue = [ 0.          1.84486102]", shape="box"] ;
73 -> 75 ;
76 [label="X[7] <= 13.1259\nentropy = 0.552711663468\nsamples = 4", shape="box"] ;
72 -> 76 ;
77 [label="entropy = 0.0000\nsamples = 2\nvalue = [ 0.          7.37944409]", shape="box"] ;
76 -> 77 ;
78 [label="entropy = -0.0000\nsamples = 2\nvalue = [ 1.08597285  0.        ]", shape="box"] ;
76 -> 78 ;
79 [label="entropy = -0.0000\nsamples = 76\nvalue = [ 17.22042663   0.        ]", shape="box"] ;
61 -> 79 ;
80 [label="X[5] <= 9.8626\nentropy = 0.923311302958\nsamples = 161", shape="box"] ;
60 -> 80 ;
81 [label="X[6] <= 48.5490\nentropy = 0.994607156018\nsamples = 99", shape="box"] ;
80 -> 81 ;
82 [label="X[4] <= 14.1221\nentropy = 0.996016466157\nsamples = 95", shape="box"] ;
81 -> 82 ;
83 [label="X[4] <= -3.8677\nentropy = 0.81693229538\nsamples = 68", shape="box"] ;
82 -> 83 ;
84 [label="X[3] <= 2.5596\nentropy = 0.243893247635\nsamples = 2", shape="box"] ;
83 -> 84 ;
85 [label="entropy = 0.0000\nsamples = 1\nvalue = [ 0.          3.68972204]", shape="box"] ;
84 -> 85 ;
86 [label="entropy = -0.0000\nsamples = 1\nvalue = [ 0.15513898  0.        ]", shape="box"] ;
84 -> 86 ;
87 [label="X[3] <= 2.4249\nentropy = 0.477215529928\nsamples = 66", shape="box"] ;
83 -> 87 ;
88 [label="X[5] <= -1.1223\nentropy = 0.920300944257\nsamples = 5", shape="box"] ;
87 -> 88 ;
89 [label="entropy = 0.0000\nsamples = 3\nvalue = [ 0.77569489  0.        ]", shape="box"] ;
88 -> 89 ;
90 [label="X[7] <= 3.8147\nentropy = 0.393556693818\nsamples = 2", shape="box"] ;
88 -> 90 ;
91 [label="entropy = 0.0000\nsamples = 1\nvalue = [ 0.15513898  0.        ]", shape="box"] ;
90 -> 91 ;
92 [label="entropy = 0.0000\nsamples = 1\nvalue = [ 0.          1.84486102]", shape="box"] ;
90 -> 92 ;
93 [label="entropy = -0.0000\nsamples = 61\nvalue = [ 15.20361991   0.        ]", shape="box"] ;
87 -> 93 ;
94 [label="X[2] <= 4.7906\nentropy = 0.860698975546\nsamples = 27", shape="box"] ;
82 -> 94 ;
95 [label="X[7] <= -23.5415\nentropy = 0.675223770286\nsamples = 18", shape="box"] ;
94 -> 95 ;
96 [label="entropy = 0.0000\nsamples = 4\nvalue = [ 1.08597285  0.        ]", shape="box"] ;
95 -> 96 ;
97 [label="X[5] <= 4.1374\nentropy = 0.519862020749\nsamples = 14", shape="box"] ;
95 -> 97 ;
98 [label="X[7] <= 20.0029\nentropy = 0.314051583612\nsamples = 9", shape="box"] ;
97 -> 98 ;
99 [label="X[0] <= 1.0693\nentropy = 0.268497830089\nsamples = 8", shape="box"] ;
98 -> 99 ;
100 [label="X[5] <= -0.6633\nentropy = 0.105177603982\nsamples = 5", shape="box"] ;
99 -> 100 ;
101 [label="X[2] <= 2.6359\nentropy = 0.243893247635\nsamples = 3", shape="box"] ;
100 -> 101 ;
102 [label="entropy = 0.0000\nsamples = 2\nvalue = [ 0.          3.68972204]", shape="box"] ;
101 -> 102 ;
103 [label="entropy = -0.0000\nsamples = 1\nvalue = [ 0.15513898  0.        ]", shape="box"] ;
101 -> 103 ;
104 [label="entropy = -0.0000\nsamples = 2\nvalue = [ 0.          7.37944409]", shape="box"] ;
100 -> 104 ;
105 [label="X[5] <= -0.0552\nentropy = 0.724828473227\nsamples = 3", shape="box"] ;
99 -> 105 ;
106 [label="entropy = 0.0000\nsamples = 1\nvalue = [ 0.          1.84486102]", shape="box"] ;
105 -> 106 ;
107 [label="entropy = 0.0000\nsamples = 2\nvalue = [ 0.46541694  0.        ]", shape="box"] ;
105 -> 107 ;
108 [label="entropy = -0.0000\nsamples = 1\nvalue = [ 0.15513898  0.        ]", shape="box"] ;
98 -> 108 ;
109 [label="entropy = -0.0000\nsamples = 5\nvalue = [ 0.93083387  0.        ]", shape="box"] ;
97 -> 109 ;
110 [label="entropy = -0.0000\nsamples = 9\nvalue = [ 2.32708468  0.        ]", shape="box"] ;
94 -> 110 ;
111 [label="X[3] <= 3.2581\nentropy = 0.243893247635\nsamples = 4", shape="box"] ;
81 -> 111 ;
112 [label="entropy = 0.0000\nsamples = 3\nvalue = [ 0.          7.37944409]", shape="box"] ;
111 -> 112 ;
113 [label="entropy = -0.0000\nsamples = 1\nvalue = [ 0.31027796  0.        ]", shape="box"] ;
111 -> 113 ;
114 [label="X[3] <= 2.5266\nentropy = 0.781364522946\nsamples = 62", shape="box"] ;
80 -> 114 ;
115 [label="entropy = 0.0000\nsamples = 11\nvalue = [ 3.10277957  0.        ]", shape="box"] ;
114 -> 115 ;
116 [label="X[6] <= 9.6403\nentropy = 0.688793591948\nsamples = 51", shape="box"] ;
114 -> 116 ;
117 [label="X[0] <= 0.5454\nentropy = 0.60867983416\nsamples = 43", shape="box"] ;
116 -> 117 ;
118 [label="entropy = 0.0000\nsamples = 10\nvalue = [ 2.48222366  0.        ]", shape="box"] ;
117 -> 118 ;
119 [label="X[3] <= 4.0096\nentropy = 0.478042743513\nsamples = 33", shape="box"] ;
117 -> 119 ;
120 [label="X[5] <= 11.8535\nentropy = 0.427137126347\nsamples = 31", shape="box"] ;
119 -> 120 ;
121 [label="entropy = 0.0000\nsamples = 3\nvalue = [ 0.          9.22430511]", shape="box"] ;
120 -> 121 ;
122 [label="X[8] <= 117.3919\nentropy = 0.500083022235\nsamples = 28", shape="box"] ;
120 -> 122 ;
123 [label="X[4] <= 2.9788\nentropy = 0.408348197505\nsamples = 23", shape="box"] ;
122 -> 123 ;
124 [label="entropy = 0.0000\nsamples = 3\nvalue = [  0.          11.06916613]", shape="box"] ;
123 -> 124 ;
125 [label="X[8] <= 66.8114\nentropy = 0.532116843618\nsamples = 20", shape="box"] ;
123 -> 125 ;
126 [label="X[9] <= 19.7740\nentropy = 0.206985715729\nsamples = 10", shape="box"] ;
125 -> 126 ;
127 [label="X[4] <= 12.1966\nentropy = 0.393556693818\nsamples = 6", shape="box"] ;
126 -> 127 ;
128 [label="entropy = 0.0000\nsamples = 1\nvalue = [ 0.31027796  0.        ]", shape="box"] ;
127 -> 128 ;
129 [label="X[5] <= 19.4354\nentropy = 0.243893247635\nsamples = 5", shape="box"] ;
127 -> 129 ;
130 [label="X[2] <= 5.5464\nentropy = 0.144741946649\nsamples = 4", shape="box"] ;
129 -> 130 ;
131 [label="entropy = 0.0000\nsamples = 3\nvalue = [ 0.          7.37944409]", shape="box"] ;
130 -> 131 ;
132 [label="entropy = -0.0000\nsamples = 1\nvalue = [ 0.15513898  0.        ]", shape="box"] ;
130 -> 132 ;
133 [label="entropy = 0.0000\nsamples = 1\nvalue = [ 0.15513898  0.        ]", shape="box"] ;
129 -> 133 ;
134 [label="entropy = 0.0000\nsamples = 4\nvalue = [  0.          11.06916613]", shape="box"] ;
126 -> 134 ;
135 [label="X[4] <= 8.8145\nentropy = 0.995211670418\nsamples = 10", shape="box"] ;
125 -> 135 ;
136 [label="X[0] <= 0.8941\nentropy = 0.594545293643\nsamples = 2", shape="box"] ;
135 -> 136 ;
137 [label="entropy = 0.0000\nsamples = 1\nvalue = [ 0.          1.84486102]", shape="box"] ;
136 -> 137 ;
138 [label="entropy = 0.0000\nsamples = 1\nvalue = [ 0.31027796  0.        ]", shape="box"] ;
136 -> 138 ;
139 [label="entropy = -0.0000\nsamples = 8\nvalue = [ 1.86166774  0.        ]", shape="box"] ;
135 -> 139 ;
140 [label="entropy = -0.0000\nsamples = 5\nvalue = [ 1.08597285  0.        ]", shape="box"] ;
122 -> 140 ;
141 [label="entropy = -0.0000\nsamples = 2\nvalue = [ 0.77569489  0.        ]", shape="box"] ;
119 -> 141 ;
142 [label="entropy = -0.0000\nsamples = 8\nvalue = [ 2.01680672  0.        ]", shape="box"] ;
116 -> 142 ;
143 [label="X[8] <= 70.3437\nentropy = 0.882379304369\nsamples = 466", shape="box"] ;
59 -> 143 ;
144 [label="entropy = 0.0000\nsamples = 63\nvalue = [ 17.37556561   0.        ]", shape="box"] ;
143 -> 144 ;
145 [label="X[5] <= 2.5407\nentropy = 0.921114061287\nsamples = 403", shape="box"] ;
143 -> 145 ;
146 [label="entropy = 0.0000\nsamples = 91\nvalue = [ 23.2708468   0.       ]", shape="box"] ;
145 -> 146 ;
147 [label="X[4] <= 90.4252\nentropy = 0.970252466692\nsamples = 312", shape="box"] ;
145 -> 147 ;
148 [label="X[2] <= 2.3027\nentropy = 0.958403560139\nsamples = 311", shape="box"] ;
147 -> 148 ;
149 [label="X[8] <= 83.4494\nentropy = 0.897795823063\nsamples = 37", shape="box"] ;
148 -> 149 ;
150 [label="entropy = 0.0000\nsamples = 9\nvalue = [ 3.10277957  0.        ]", shape="box"] ;
149 -> 150 ;
151 [label="X[0] <= 0.9918\nentropy = 0.747547722878\nsamples = 28", shape="box"] ;
149 -> 151 ;
152 [label="X[9] <= 36.7008\nentropy = 0.62817245075\nsamples = 21", shape="box"] ;
151 -> 152 ;
153 [label="entropy = 0.0000\nsamples = 6\nvalue = [ 1.24111183  0.        ]", shape="box"] ;
152 -> 153 ;
154 [label="X[4] <= 0.7050\nentropy = 0.471586890356\nsamples = 15", shape="box"] ;
152 -> 154 ;
155 [label="entropy = 0.0000\nsamples = 3\nvalue = [ 0.          7.37944409]", shape="box"] ;
154 -> 155 ;
156 [label="X[8] <= 88.9137\nentropy = 0.652947585604\nsamples = 12", shape="box"] ;
154 -> 156 ;
157 [label="entropy = 0.0000\nsamples = 4\nvalue = [ 1.24111183  0.        ]", shape="box"] ;
156 -> 157 ;
158 [label="X[4] <= 5.8604\nentropy = 0.33937084562\nsamples = 8", shape="box"] ;
156 -> 158 ;
159 [label="entropy = 0.0000\nsamples = 3\nvalue = [ 0.46541694  0.        ]", shape="box"] ;
158 -> 159 ;
160 [label="X[5] <= 5.1744\nentropy = 0.121547622806\nsamples = 5", shape="box"] ;
158 -> 160 ;
161 [label="X[1] <= -0.0505\nentropy = 0.243893247635\nsamples = 2", shape="box"] ;
160 -> 161 ;
162 [label="entropy = 0.0000\nsamples = 1\nvalue = [ 0.          3.68972204]", shape="box"] ;
161 -> 162 ;
163 [label="entropy = -0.0000\nsamples = 1\nvalue = [ 0.15513898  0.        ]", shape="box"] ;
161 -> 163 ;
164 [label="entropy = 0.0000\nsamples = 3\nvalue = [ 0.          5.53458306]", shape="box"] ;
160 -> 164 ;
165 [label="entropy = 0.0000\nsamples = 7\nvalue = [ 1.39625081  0.        ]", shape="box"] ;
151 -> 165 ;
166 [label="X[8] <= 71.2023\nentropy = 0.886480067727\nsamples = 274", shape="box"] ;
148 -> 166 ;
167 [label="entropy = 0.0000\nsamples = 1\nvalue = [ 0.          3.68972204]", shape="box"] ;
166 -> 167 ;
168 [label="X[9] <= 63.9966\nentropy = 0.851037151535\nsamples = 273", shape="box"] ;
166 -> 168 ;
169 [label="X[9] <= 55.7054\nentropy = 0.943260112046\nsamples = 172", shape="box"] ;
168 -> 169 ;
170 [label="X[9] <= 45.2007\nentropy = 0.775263763825\nsamples = 152", shape="box"] ;
169 -> 170 ;
171 [label="X[0] <= 0.8886\nentropy = 0.860666669265\nsamples = 115", shape="box"] ;
170 -> 171 ;
172 [label="entropy = 0.0000\nsamples = 59\nvalue = [ 14.89334195   0.        ]", shape="box"] ;
171 -> 172 ;
173 [label="X[7] <= 22.2413\nentropy = 0.995211670418\nsamples = 56", shape="box"] ;
171 -> 173 ;
174 [label="X[0] <= 0.8910\nentropy = 0.943954420988\nsamples = 54", shape="box"] ;
173 -> 174 ;
175 [label="entropy = 0.0000\nsamples = 1\nvalue = [ 0.          3.68972204]", shape="box"] ;
174 -> 175 ;
176 [label="X[5] <= 14.5487\nentropy = 0.761368499863\nsamples = 53", shape="box"] ;
174 -> 176 ;
177 [label="entropy = 0.0000\nsamples = 44\nvalue = [ 10.70458953   0.        ]", shape="box"] ;
176 -> 177 ;
178 [label="X[8] <= 83.5200\nentropy = 0.962679509549\nsamples = 9", shape="box"] ;
176 -> 178 ;
179 [label="entropy = 0.0000\nsamples = 1\nvalue = [ 0.          3.68972204]", shape="box"] ;
178 -> 179 ;
180 [label="entropy = 0.0000\nsamples = 8\nvalue = [ 2.32708468  0.        ]", shape="box"] ;
178 -> 180 ;
181 [label="entropy = -0.0000\nsamples = 2\nvalue = [ 0.          3.68972204]", shape="box"] ;
173 -> 181 ;
182 [label="entropy = -0.0000\nsamples = 37\nvalue = [ 9.4634777  0.       ]", shape="box"] ;
170 -> 182 ;
183 [label="X[0] <= 0.9858\nentropy = 0.860698975546\nsamples = 20", shape="box"] ;
169 -> 183 ;
184 [label="X[8] <= 102.1923\nentropy = 0.709189354873\nsamples = 13", shape="box"] ;
183 -> 184 ;
185 [label="entropy = 0.0000\nsamples = 3\nvalue = [ 0.93083387  0.        ]", shape="box"] ;
184 -> 185 ;
186 [label="X[5] <= 19.4422\nentropy = 0.594545293643\nsamples = 10", shape="box"] ;
184 -> 186 ;
187 [label="X[4] <= 2.0689\nentropy = 0.773443860559\nsamples = 9", shape="box"] ;
186 -> 187 ;
188 [label="entropy = 0.0000\nsamples = 2\nvalue = [ 1.24111183  0.        ]", shape="box"] ;
187 -> 188 ;
189 [label="X[8] <= 121.4810\nentropy = 0.505948983849\nsamples = 7", shape="box"] ;
187 -> 189 ;
190 [label="X[6] <= 3.2358\nentropy = 0.243893247635\nsamples = 4", shape="box"] ;
189 -> 190 ;
191 [label="entropy = 0.0000\nsamples = 1\nvalue = [ 0.31027796  0.        ]", shape="box"] ;
190 -> 191 ;
192 [label="entropy = -0.0000\nsamples = 3\nvalue = [ 0.          7.37944409]", shape="box"] ;
190 -> 192 ;
193 [label="entropy = -0.0000\nsamples = 3\nvalue = [ 0.62055591  0.        ]", shape="box"] ;
189 -> 193 ;
194 [label="entropy = 0.0000\nsamples = 1\nvalue = [ 0.          5.53458306]", shape="box"] ;
186 -> 194 ;
195 [label="entropy = -0.0000\nsamples = 7\nvalue = [ 2.01680672  0.        ]", shape="box"] ;
183 -> 195 ;
196 [label="X[1] <= 0.5888\nentropy = 0.361358134886\nsamples = 101", shape="box"] ;
168 -> 196 ;
197 [label="entropy = 0.0000\nsamples = 92\nvalue = [ 23.11570782   0.        ]", shape="box"] ;
196 -> 197 ;
198 [label="X[1] <= 0.6387\nentropy = 0.999985168764\nsamples = 9", shape="box"] ;
196 -> 198 ;
199 [label="entropy = 0.0000\nsamples = 1\nvalue = [ 0.          1.84486102]", shape="box"] ;
198 -> 199 ;
200 [label="entropy = 0.0000\nsamples = 8\nvalue = [ 1.86166774  0.        ]", shape="box"] ;
198 -> 200 ;
201 [label="entropy = 0.0000\nsamples = 1\nvalue = [ 0.          3.68972204]", shape="box"] ;
147 -> 201 ;
202 [label="entropy = -0.0000\nsamples = 43\nvalue = [ 11.48028442   0.        ]", shape="box"] ;
0 -> 202 ;
}