digraph Tree {
0 [label="X[1] <= -0.0491\nentropy = 1.0\nsamples = 978", shape="box"] ;
1 [label="X[2] <= 0.2082\nentropy = 0.838694981264\nsamples = 167", shape="box"] ;
0 -> 1 ;
2 [label="X[7] <= 12.0671\nentropy = 0.581063123351\nsamples = 40", shape="box"] ;
1 -> 2 ;
3 [label="X[7] <= 2.2401\nentropy = 0.96250103105\nsamples = 32", shape="box"] ;
2 -> 3 ;
4 [label="X[0] <= 0.9729\nentropy = 0.738954203539\nsamples = 14", shape="box"] ;
3 -> 4 ;
5 [label="X[1] <= -571.5551\nentropy = 0.608641639782\nsamples = 10", shape="box"] ;
4 -> 5 ;
6 [label="entropy = 0.0000\nsamples = 3\nvalue = [ 1.13122172  0.        ]", shape="box"] ;
5 -> 6 ;
7 [label="X[8] <= 90.3869\nentropy = 0.28682244878\nsamples = 7", shape="box"] ;
5 -> 7 ;
8 [label="X[6] <= 2.5647\nentropy = 0.738954203539\nsamples = 4", shape="box"] ;
7 -> 8 ;
9 [label="entropy = 0.0000\nsamples = 1\nvalue = [ 0.         1.8383969]", shape="box"] ;
8 -> 9 ;
10 [label="entropy = -0.0000\nsamples = 3\nvalue = [ 0.48480931  0.        ]", shape="box"] ;
8 -> 10 ;
11 [label="entropy = 0.0000\nsamples = 3\nvalue = [ 0.          7.35358759]", shape="box"] ;
7 -> 11 ;
12 [label="entropy = 0.0000\nsamples = 4\nvalue = [ 0.80801551  0.        ]", shape="box"] ;
4 -> 12 ;
13 [label="X[9] <= 20.7777\nentropy = 0.867305090472\nsamples = 18", shape="box"] ;
3 -> 13 ;
14 [label="X[8] <= 104.5140\nentropy = 0.608641639782\nsamples = 3", shape="box"] ;
13 -> 14 ;
15 [label="entropy = 0.0000\nsamples = 1\nvalue = [ 0.         1.8383969]", shape="box"] ;
14 -> 15 ;
16 [label="entropy = 0.0000\nsamples = 2\nvalue = [ 0.32320621  0.        ]", shape="box"] ;
14 -> 16 ;
17 [label="entropy = 0.0000\nsamples = 15\nvalue = [ 4.20168067  0.        ]", shape="box"] ;
13 -> 17 ;
18 [label="X[1] <= -2.0978\nentropy = 0.0443414843019\nsamples = 8", shape="box"] ;
2 -> 18 ;
19 [label="entropy = 0.0000\nsamples = 1\nvalue = [ 0.1616031  0.       ]", shape="box"] ;
18 -> 19 ;
20 [label="entropy = 0.0000\nsamples = 7\nvalue = [  0.          33.09114415]", shape="box"] ;
18 -> 20 ;
21 [label="X[3] <= 3.8889\nentropy = 0.930955888085\nsamples = 127", shape="box"] ;
1 -> 21 ;
22 [label="X[5] <= 36.8067\nentropy = 0.831744271536\nsamples = 93", shape="box"] ;
21 -> 22 ;
23 [label="X[2] <= 1.3086\nentropy = 0.795679296503\nsamples = 87", shape="box"] ;
22 -> 23 ;
24 [label="entropy = 0.0000\nsamples = 8\nvalue = [ 2.42404654  0.        ]", shape="box"] ;
23 -> 24 ;
25 [label="X[9] <= 13.8870\nentropy = 0.749336199352\nsamples = 79", shape="box"] ;
23 -> 25 ;
26 [label="X[8] <= 36.3870\nentropy = 0.438466111623\nsamples = 23", shape="box"] ;
25 -> 26 ;
27 [label="entropy = 0.0000\nsamples = 4\nvalue = [ 0.80801551  0.        ]", shape="box"] ;
26 -> 27 ;
28 [label="X[7] <= 4.2705\nentropy = 0.34967958507\nsamples = 19", shape="box"] ;
26 -> 28 ;
29 [label="entropy = 0.0000\nsamples = 3\nvalue = [ 0.80801551  0.        ]", shape="box"] ;
28 -> 29 ;
30 [label="X[7] <= 24.4361\nentropy = 0.239559938939\nsamples = 16", shape="box"] ;
28 -> 30 ;
31 [label="X[3] <= 3.0201\nentropy = 0.186646323901\nsamples = 15", shape="box"] ;
30 -> 31 ;
32 [label="X[3] <= 2.9415\nentropy = 0.465824190515\nsamples = 9", shape="box"] ;
31 -> 32 ;
33 [label="X[8] <= 45.4344\nentropy = 0.251846865524\nsamples = 6", shape="box"] ;
32 -> 33 ;
34 [label="entropy = 0.0000\nsamples = 1\nvalue = [ 0.1616031  0.       ]", shape="box"] ;
33 -> 34 ;
35 [label="X[6] <= 99.8916\nentropy = 0.149801179226\nsamples = 5", shape="box"] ;
33 -> 35 ;
36 [label="entropy = 0.0000\nsamples = 4\nvalue = [ 0.          7.35358759]", shape="box"] ;
35 -> 36 ;
37 [label="entropy = 0.0000\nsamples = 1\nvalue = [ 0.1616031  0.       ]", shape="box"] ;
35 -> 37 ;
38 [label="entropy = 0.0000\nsamples = 3\nvalue = [ 0.48480931  0.        ]", shape="box"] ;
32 -> 38 ;
39 [label="entropy = 0.0000\nsamples = 6\nvalue = [  0.          20.22236587]", shape="box"] ;
31 -> 39 ;
40 [label="entropy = -0.0000\nsamples = 1\nvalue = [ 0.32320621  0.        ]", shape="box"] ;
30 -> 40 ;
41 [label="X[7] <= 4.2317\nentropy = 0.891016385903\nsamples = 56", shape="box"] ;
25 -> 41 ;
42 [label="entropy = 0.0000\nsamples = 13\nvalue = [ 3.23206206  0.        ]", shape="box"] ;
41 -> 42 ;
43 [label="X[5] <= 12.3817\nentropy = 0.806629832986\nsamples = 43", shape="box"] ;
41 -> 43 ;
44 [label="X[2] <= 3.4746\nentropy = 0.961973324321\nsamples = 33", shape="box"] ;
43 -> 44 ;
45 [label="X[8] <= 118.6045\nentropy = 0.667258984245\nsamples = 11", shape="box"] ;
44 -> 45 ;
46 [label="entropy = 0.0000\nsamples = 5\nvalue = [ 1.45442793  0.        ]", shape="box"] ;
45 -> 46 ;
47 [label="X[0] <= 1.1265\nentropy = 0.28682244878\nsamples = 6", shape="box"] ;
45 -> 47 ;
48 [label="entropy = 0.0000\nsamples = 3\nvalue = [ 0.          7.35358759]", shape="box"] ;
47 -> 48 ;
49 [label="X[0] <= 1.8385\nentropy = 0.738954203539\nsamples = 3", shape="box"] ;
47 -> 49 ;
50 [label="entropy = 0.0000\nsamples = 2\nvalue = [ 0.48480931  0.        ]", shape="box"] ;
49 -> 50 ;
51 [label="entropy = -0.0000\nsamples = 1\nvalue = [ 0.         1.8383969]", shape="box"] ;
49 -> 51 ;
52 [label="X[3] <= 2.8477\nentropy = 0.95406933064\nsamples = 22", shape="box"] ;
44 -> 52 ;
53 [label="X[6] <= 28.9218\nentropy = 0.251846865524\nsamples = 2", shape="box"] ;
52 -> 53 ;
54 [label="entropy = 0.0000\nsamples = 1\nvalue = [ 0.          3.67679379]", shape="box"] ;
53 -> 54 ;
55 [label="entropy = -0.0000\nsamples = 1\nvalue = [ 0.1616031  0.       ]", shape="box"] ;
53 -> 55 ;
56 [label="entropy = -0.0000\nsamples = 20\nvalue = [ 5.9793148  0.       ]", shape="box"] ;
52 -> 56 ;
57 [label="X[0] <= 1.2774\nentropy = 0.334747601682\nsamples = 10", shape="box"] ;
43 -> 57 ;
58 [label="X[9] <= 20.4130\nentropy = 0.149801179226\nsamples = 7", shape="box"] ;
57 -> 58 ;
59 [label="X[9] <= 16.2599\nentropy = 0.404997228352\nsamples = 3", shape="box"] ;
58 -> 59 ;
60 [label="entropy = 0.0000\nsamples = 1\nvalue = [ 0.          3.67679379]", shape="box"] ;
59 -> 60 ;
61 [label="entropy = -0.0000\nsamples = 2\nvalue = [ 0.32320621  0.        ]", shape="box"] ;
59 -> 61 ;
62 [label="entropy = 0.0000\nsamples = 4\nvalue = [  0.          11.03038138]", shape="box"] ;
58 -> 62 ;
63 [label="entropy = 0.0000\nsamples = 3\nvalue = [ 0.64641241  0.        ]", shape="box"] ;
57 -> 63 ;
64 [label="entropy = -0.0000\nsamples = 6\nvalue = [ 2.26244344  0.        ]", shape="box"] ;
22 -> 64 ;
65 [label="entropy = 0.0000\nsamples = 34\nvalue = [ 9.53458306  0.        ]", shape="box"] ;
21 -> 65 ;
66 [label="X[7] <= 11.2526\nentropy = 0.972622855899\nsamples = 811", shape="box"] ;
0 -> 66 ;
67 [label="X[4] <= 35.2522\nentropy = 0.897660607922\nsamples = 608", shape="box"] ;
66 -> 67 ;
68 [label="X[2] <= 4.9323\nentropy = 0.810999551286\nsamples = 578", shape="box"] ;
67 -> 68 ;
69 [label="X[1] <= 0.0538\nentropy = 0.946020814564\nsamples = 307", shape="box"] ;
68 -> 69 ;
70 [label="X[6] <= 5.8515\nentropy = 0.495286603372\nsamples = 122", shape="box"] ;
69 -> 70 ;
71 [label="X[9] <= 22.4327\nentropy = 0.886563089473\nsamples = 35", shape="box"] ;
70 -> 71 ;
72 [label="X[7] <= 4.1136\nentropy = 0.99884300082\nsamples = 15", shape="box"] ;
71 -> 72 ;
73 [label="entropy = 0.0000\nsamples = 8\nvalue = [ 2.26244344  0.        ]", shape="box"] ;
72 -> 73 ;
74 [label="X[5] <= -3.9935\nentropy = 0.787099689295\nsamples = 7", shape="box"] ;
72 -> 74 ;
75 [label="entropy = 0.0000\nsamples = 2\nvalue = [ 0.64641241  0.        ]", shape="box"] ;
74 -> 75 ;
76 [label="X[8] <= 60.2027\nentropy = 0.519203572743\nsamples = 5", shape="box"] ;
74 -> 76 ;
77 [label="entropy = 0.0000\nsamples = 2\nvalue = [ 0.32320621  0.        ]", shape="box"] ;
76 -> 77 ;
78 [label="X[1] <= 0.0142\nentropy = 0.251846865524\nsamples = 3", shape="box"] ;
76 -> 78 ;
79 [label="entropy = 0.0000\nsamples = 2\nvalue = [ 0.          3.67679379]", shape="box"] ;
78 -> 79 ;
80 [label="entropy = -0.0000\nsamples = 1\nvalue = [ 0.1616031  0.       ]", shape="box"] ;
78 -> 80 ;
81 [label="entropy = 0.0000\nsamples = 20\nvalue = [ 5.00969619  0.        ]", shape="box"] ;
71 -> 81 ;
82 [label="entropy = -0.0000\nsamples = 87\nvalue = [ 21.81641888   0.        ]", shape="box"] ;
70 -> 82 ;
83 [label="X[0] <= 0.5054\nentropy = 0.997303566735\nsamples = 185", shape="box"] ;
69 -> 83 ;
84 [label="entropy = 0.0000\nsamples = 18\nvalue = [ 4.36328378  0.        ]", shape="box"] ;
83 -> 84 ;
85 [label="X[1] <= 0.3898\nentropy = 0.99994768119\nsamples = 167", shape="box"] ;
83 -> 85 ;
86 [label="X[1] <= 0.2834\nentropy = 0.980794931135\nsamples = 122", shape="box"] ;
85 -> 86 ;
87 [label="X[9] <= 62.7120\nentropy = 0.999963739817\nsamples = 104", shape="box"] ;
86 -> 87 ;
88 [label="X[3] <= 3.8991\nentropy = 0.95709116446\nsamples = 77", shape="box"] ;
87 -> 88 ;
89 [label="X[1] <= 0.1305\nentropy = 0.998400756655\nsamples = 55", shape="box"] ;
88 -> 89 ;
90 [label="X[1] <= 0.0758\nentropy = 0.940695658627\nsamples = 30", shape="box"] ;
89 -> 90 ;
91 [label="entropy = 0.0000\nsamples = 11\nvalue = [ 2.10084034  0.        ]", shape="box"] ;
90 -> 91 ;
92 [label="X[0] <= 0.7340\nentropy = 0.838694981264\nsamples = 19", shape="box"] ;
90 -> 92 ;
93 [label="entropy = 0.0000\nsamples = 4\nvalue = [ 1.61603103  0.        ]", shape="box"] ;
92 -> 93 ;
94 [label="X[5] <= -7.7062\nentropy = 0.680442669785\nsamples = 15", shape="box"] ;
92 -> 94 ;
95 [label="entropy = 0.0000\nsamples = 4\nvalue = [ 1.45442793  0.        ]", shape="box"] ;
94 -> 95 ;
96 [label="X[8] <= 117.3910\nentropy = 0.404997228352\nsamples = 11", shape="box"] ;
94 -> 96 ;
97 [label="X[9] <= 39.8357\nentropy = 0.308738356442\nsamples = 9", shape="box"] ;
96 -> 97 ;
98 [label="X[1] <= 0.1062\nentropy = 0.108959455293\nsamples = 7", shape="box"] ;
97 -> 98 ;
99 [label="entropy = 0.0000\nsamples = 5\nvalue = [ 0.          9.19198449]", shape="box"] ;
98 -> 99 ;
100 [label="X[7] <= -0.3748\nentropy = 0.404997228352\nsamples = 2", shape="box"] ;
98 -> 100 ;
101 [label="entropy = 0.0000\nsamples = 1\nvalue = [ 0.         1.8383969]", shape="box"] ;
100 -> 101 ;
102 [label="entropy = 0.0000\nsamples = 1\nvalue = [ 0.1616031  0.       ]", shape="box"] ;
100 -> 102 ;
103 [label="entropy = 0.0000\nsamples = 2\nvalue = [ 0.48480931  0.        ]", shape="box"] ;
97 -> 103 ;
104 [label="entropy = 0.0000\nsamples = 2\nvalue = [ 0.32320621  0.        ]", shape="box"] ;
96 -> 104 ;
105 [label="entropy = 0.0000\nsamples = 25\nvalue = [ 5.9793148  0.       ]", shape="box"] ;
89 -> 105 ;
106 [label="entropy = 0.0000\nsamples = 22\nvalue = [ 5.9793148  0.       ]", shape="box"] ;
88 -> 106 ;
107 [label="X[0] <= 0.9805\nentropy = 0.907658199897\nsamples = 27", shape="box"] ;
87 -> 107 ;
108 [label="X[2] <= 0.6095\nentropy = 0.753664147084\nsamples = 19", shape="box"] ;
107 -> 108 ;
109 [label="entropy = 0.0000\nsamples = 4\nvalue = [  0.          11.03038138]", shape="box"] ;
108 -> 109 ;
110 [label="X[4] <= 9.4175\nentropy = 0.925623799655\nsamples = 15", shape="box"] ;
108 -> 110 ;
111 [label="entropy = 0.0000\nsamples = 11\nvalue = [ 2.74725275  0.        ]", shape="box"] ;
110 -> 111 ;
112 [label="X[0] <= 0.9004\nentropy = 0.887702903791\nsamples = 4", shape="box"] ;
110 -> 112 ;
113 [label="entropy = 0.0000\nsamples = 3\nvalue = [ 0.80801551  0.        ]", shape="box"] ;
112 -> 113 ;
114 [label="entropy = -0.0000\nsamples = 1\nvalue = [ 0.         1.8383969]", shape="box"] ;
112 -> 114 ;
115 [label="entropy = 0.0000\nsamples = 8\nvalue = [ 2.58564964  0.        ]", shape="box"] ;
107 -> 115 ;
116 [label="X[4] <= 1.1809\nentropy = 0.711152430453\nsamples = 18", shape="box"] ;
86 -> 116 ;
117 [label="entropy = 0.0000\nsamples = 4\nvalue = [ 1.29282482  0.        ]", shape="box"] ;
116 -> 117 ;
118 [label="X[5] <= 6.6608\nentropy = 0.56648207496\nsamples = 14", shape="box"] ;
116 -> 118 ;
119 [label="entropy = 0.0000\nsamples = 8\nvalue = [ 2.10084034  0.        ]", shape="box"] ;
118 -> 119 ;
120 [label="X[8] <= 115.0297\nentropy = 0.0864980635616\nsamples = 6", shape="box"] ;
118 -> 120 ;
121 [label="entropy = 0.0000\nsamples = 5\nvalue = [  0.          14.70717518]", shape="box"] ;
120 -> 121 ;
122 [label="entropy = 0.0000\nsamples = 1\nvalue = [ 0.1616031  0.       ]", shape="box"] ;
120 -> 122 ;
123 [label="entropy = -0.0000\nsamples = 45\nvalue = [ 11.4738203   0.       ]", shape="box"] ;
85 -> 123 ;
124 [label="X[8] <= 140.8505\nentropy = 0.30399135532\nsamples = 271", shape="box"] ;
68 -> 124 ;
125 [label="entropy = 0.0000\nsamples = 238\nvalue = [ 57.53070459   0.        ]", shape="box"] ;
124 -> 125 ;
126 [label="X[4] <= 19.4142\nentropy = 0.940065321589\nsamples = 33", shape="box"] ;
124 -> 126 ;
127 [label="X[4] <= 4.0286\nentropy = 0.762763431553\nsamples = 31", shape="box"] ;
126 -> 127 ;
128 [label="X[4] <= 3.6736\nentropy = 0.826966128427\nsamples = 4", shape="box"] ;
127 -> 128 ;
129 [label="entropy = 0.0000\nsamples = 3\nvalue = [ 0.64641241  0.        ]", shape="box"] ;
128 -> 129 ;
130 [label="entropy = -0.0000\nsamples = 1\nvalue = [ 0.         1.8383969]", shape="box"] ;
128 -> 130 ;
131 [label="entropy = -0.0000\nsamples = 27\nvalue = [ 5.8177117  0.       ]", shape="box"] ;
127 -> 131 ;
132 [label="X[9] <= 28.6460\nentropy = 0.404997228352\nsamples = 2", shape="box"] ;
126 -> 132 ;
133 [label="entropy = 0.0000\nsamples = 1\nvalue = [ 0.1616031  0.       ]", shape="box"] ;
132 -> 133 ;
134 [label="entropy = 0.0000\nsamples = 1\nvalue = [ 0.         1.8383969]", shape="box"] ;
132 -> 134 ;
135 [label="X[4] <= 38.6825\nentropy = 0.806143823046\nsamples = 30", shape="box"] ;
67 -> 135 ;
136 [label="X[1] <= 1.2841\nentropy = 0.125866496993\nsamples = 4", shape="box"] ;
135 -> 136 ;
137 [label="entropy = 0.0000\nsamples = 3\nvalue = [ 0.          9.19198449]", shape="box"] ;
136 -> 137 ;
138 [label="entropy = 0.0000\nsamples = 1\nvalue = [ 0.1616031  0.       ]", shape="box"] ;
136 -> 138 ;
139 [label="X[0] <= 0.5863\nentropy = 0.950283189724\nsamples = 26", shape="box"] ;
135 -> 139 ;
140 [label="X[5] <= 12.9311\nentropy = 0.538785715861\nsamples = 5", shape="box"] ;
139 -> 140 ;
141 [label="entropy = 0.0000\nsamples = 2\nvalue = [ 0.          9.19198449]", shape="box"] ;
140 -> 141 ;
142 [label="entropy = 0.0000\nsamples = 3\nvalue = [ 1.29282482  0.        ]", shape="box"] ;
140 -> 142 ;
143 [label="X[8] <= 181.5370\nentropy = 0.830144861761\nsamples = 21", shape="box"] ;
139 -> 143 ;
144 [label="entropy = 0.0000\nsamples = 19\nvalue = [ 4.84809308  0.        ]", shape="box"] ;
143 -> 144 ;
145 [label="X[8] <= 264.2121\nentropy = 0.608641639782\nsamples = 2", shape="box"] ;
143 -> 145 ;
146 [label="entropy = 0.0000\nsamples = 1\nvalue = [ 0.         1.8383969]", shape="box"] ;
145 -> 146 ;
147 [label="entropy = 0.0000\nsamples = 1\nvalue = [ 0.32320621  0.        ]", shape="box"] ;
145 -> 147 ;
148 [label="X[8] <= 116.4799\nentropy = 0.986350636791\nsamples = 203", shape="box"] ;
66 -> 148 ;
149 [label="X[8] <= 93.1487\nentropy = 0.951896741258\nsamples = 159", shape="box"] ;
148 -> 149 ;
150 [label="X[1] <= 38.1982\nentropy = 0.997920225532\nsamples = 125", shape="box"] ;
149 -> 150 ;
151 [label="X[0] <= 0.6689\nentropy = 0.954979989049\nsamples = 120", shape="box"] ;
150 -> 151 ;
152 [label="entropy = 0.0000\nsamples = 40\nvalue = [ 11.31221719   0.        ]", shape="box"] ;
151 -> 152 ;
153 [label="X[2] <= 3.0020\nentropy = 0.999634382386\nsamples = 80", shape="box"] ;
151 -> 153 ;
154 [label="X[1] <= 0.1797\nentropy = 0.837063175795\nsamples = 24", shape="box"] ;
153 -> 154 ;
155 [label="X[4] <= 62.4010\nentropy = 0.689535178147\nsamples = 14", shape="box"] ;
154 -> 155 ;
156 [label="X[1] <= 0.1046\nentropy = 0.533285924856\nsamples = 11", shape="box"] ;
155 -> 156 ;
157 [label="X[9] <= 26.9437\nentropy = 0.910689397118\nsamples = 8", shape="box"] ;
156 -> 157 ;
158 [label="entropy = 0.0000\nsamples = 4\nvalue = [ 1.29282482  0.        ]", shape="box"] ;
157 -> 158 ;
159 [label="X[0] <= 0.7987\nentropy = 0.519203572743\nsamples = 4", shape="box"] ;
157 -> 159 ;
160 [label="entropy = 0.0000\nsamples = 2\nvalue = [ 0.48480931  0.        ]", shape="box"] ;
159 -> 160 ;
161 [label="entropy = 0.0000\nsamples = 2\nvalue = [ 0.          3.67679379]", shape="box"] ;
159 -> 161 ;
162 [label="entropy = 0.0000\nsamples = 3\nvalue = [ 0.          9.19198449]", shape="box"] ;
156 -> 162 ;
163 [label="entropy = -0.0000\nsamples = 3\nvalue = [ 1.13122172  0.        ]", shape="box"] ;
155 -> 163 ;
164 [label="entropy = -0.0000\nsamples = 10\nvalue = [ 1.77763413  0.        ]", shape="box"] ;
154 -> 164 ;
165 [label="X[0] <= 0.6909\nentropy = 0.848467043767\nsamples = 56", shape="box"] ;
153 -> 165 ;
166 [label="X[9] <= 32.9299\nentropy = 0.608641639782\nsamples = 5", shape="box"] ;
165 -> 166 ;
167 [label="X[5] <= 12.6484\nentropy = 0.404997228352\nsamples = 4", shape="box"] ;
166 -> 167 ;
168 [label="X[3] <= 2.9347\nentropy = 0.738954203539\nsamples = 3", shape="box"] ;
167 -> 168 ;
169 [label="entropy = 0.0000\nsamples = 1\nvalue = [ 0.         1.8383969]", shape="box"] ;
168 -> 169 ;
170 [label="entropy = -0.0000\nsamples = 2\nvalue = [ 0.48480931  0.        ]", shape="box"] ;
168 -> 170 ;
171 [label="entropy = -0.0000\nsamples = 1\nvalue = [ 0.          3.67679379]", shape="box"] ;
167 -> 171 ;
172 [label="entropy = 0.0000\nsamples = 1\nvalue = [ 0.48480931  0.        ]", shape="box"] ;
166 -> 172 ;
173 [label="entropy = -0.0000\nsamples = 51\nvalue = [ 13.57466063   0.        ]", shape="box"] ;
165 -> 173 ;
174 [label="X[6] <= 10.6796\nentropy = 0.125866496993\nsamples = 5", shape="box"] ;
150 -> 174 ;
175 [label="entropy = 0.0000\nsamples = 4\nvalue = [ 0.          9.19198449]", shape="box"] ;
174 -> 175 ;
176 [label="entropy = 0.0000\nsamples = 1\nvalue = [ 0.1616031  0.       ]", shape="box"] ;
174 -> 176 ;
177 [label="X[6] <= 4.9124\nentropy = 0.571403884602\nsamples = 34", shape="box"] ;
149 -> 177 ;
178 [label="X[1] <= 0.0134\nentropy = 0.849726686498\nsamples = 23", shape="box"] ;
177 -> 178 ;
179 [label="entropy = 0.0000\nsamples = 2\nvalue = [ 0.          3.67679379]", shape="box"] ;
178 -> 179 ;
180 [label="X[2] <= 6.4452\nentropy = 0.945643879972\nsamples = 21", shape="box"] ;
178 -> 180 ;
181 [label="X[9] <= 39.0829\nentropy = 0.915872260977\nsamples = 17", shape="box"] ;
180 -> 181 ;
182 [label="entropy = 0.0000\nsamples = 12\nvalue = [ 2.90885585  0.        ]", shape="box"] ;
181 -> 182 ;
183 [label="X[8] <= 100.4598\nentropy = 0.887702903791\nsamples = 5", shape="box"] ;
181 -> 183 ;
184 [label="entropy = 0.0000\nsamples = 1\nvalue = [ 0.         1.8383969]", shape="box"] ;
183 -> 184 ;
185 [label="entropy = 0.0000\nsamples = 4\nvalue = [ 0.80801551  0.        ]", shape="box"] ;
183 -> 185 ;
186 [label="X[6] <= 2.4803\nentropy = 0.404997228352\nsamples = 4", shape="box"] ;
180 -> 186 ;
187 [label="entropy = 0.0000\nsamples = 2\nvalue = [ 0.          5.51519069]", shape="box"] ;
186 -> 187 ;
188 [label="entropy = 0.0000\nsamples = 2\nvalue = [ 0.48480931  0.        ]", shape="box"] ;
186 -> 188 ;
189 [label="X[0] <= 0.9116\nentropy = 0.251846865524\nsamples = 11", shape="box"] ;
177 -> 189 ;
190 [label="X[5] <= 12.6067\nentropy = 0.0667200271026\nsamples = 5", shape="box"] ;
189 -> 190 ;
191 [label="entropy = 0.0000\nsamples = 4\nvalue = [  0.          20.22236587]", shape="box"] ;
190 -> 191 ;
192 [label="entropy = 0.0000\nsamples = 1\nvalue = [ 0.1616031  0.       ]", shape="box"] ;
190 -> 192 ;
193 [label="X[9] <= 26.8000\nentropy = 0.887702903791\nsamples = 6", shape="box"] ;
189 -> 193 ;
194 [label="entropy = 0.0000\nsamples = 1\nvalue = [ 0.         1.8383969]", shape="box"] ;
193 -> 194 ;
195 [label="entropy = 0.0000\nsamples = 5\nvalue = [ 0.80801551  0.        ]", shape="box"] ;
193 -> 195 ;
196 [label="X[0] <= 1.5228\nentropy = 0.762763431553\nsamples = 44", shape="box"] ;
148 -> 196 ;
197 [label="entropy = 0.0000\nsamples = 40\nvalue = [ 11.7970265   0.       ]", shape="box"] ;
196 -> 197 ;
198 [label="X[8] <= 156.9891\nentropy = 0.787099689295\nsamples = 4", shape="box"] ;
196 -> 198 ;
199 [label="entropy = 0.0000\nsamples = 1\nvalue = [ 0.          3.67679379]", shape="box"] ;
198 -> 199 ;
200 [label="entropy = 0.0000\nsamples = 3\nvalue = [ 1.13122172  0.        ]", shape="box"] ;
198 -> 200 ;
}