digraph Tree {
0 [label="X[7] <= 10.2074\nentropy = 1.0\nsamples = 995", shape="box"] ;
1 [label="X[9] <= 151.8209\nentropy = 0.949331929502\nsamples = 683", shape="box"] ;
0 -> 1 ;
2 [label="X[4] <= 8.2382\nentropy = 0.914357316743\nsamples = 652", shape="box"] ;
1 -> 2 ;
3 [label="X[7] <= 5.3699\nentropy = 0.618449113981\nsamples = 326", shape="box"] ;
2 -> 3 ;
4 [label="entropy = 0.0000\nsamples = 157\nvalue = [ 38.99159664   0.        ]", shape="box"] ;
3 -> 4 ;
5 [label="X[7] <= 6.7437\nentropy = 0.825793331567\nsamples = 169", shape="box"] ;
3 -> 5 ;
6 [label="X[1] <= 0.0641\nentropy = 0.998661953238\nsamples = 54", shape="box"] ;
5 -> 6 ;
7 [label="entropy = 0.0000\nsamples = 25\nvalue = [ 5.71428571  0.        ]", shape="box"] ;
6 -> 7 ;
8 [label="X[9] <= 35.5017\nentropy = 0.905000128684\nsamples = 29", shape="box"] ;
6 -> 8 ;
9 [label="entropy = 0.0000\nsamples = 7\nvalue = [ 2.18487395  0.        ]", shape="box"] ;
8 -> 9 ;
10 [label="X[1] <= 0.3505\nentropy = 0.780826990054\nsamples = 22", shape="box"] ;
8 -> 10 ;
11 [label="X[6] <= 4.7146\nentropy = 0.665306078689\nsamples = 17", shape="box"] ;
10 -> 11 ;
12 [label="X[6] <= 2.8157\nentropy = 0.416234802387\nsamples = 9", shape="box"] ;
11 -> 12 ;
13 [label="entropy = 0.0000\nsamples = 2\nvalue = [ 0.50420168  0.        ]", shape="box"] ;
12 -> 13 ;
14 [label="X[3] <= 3.1777\nentropy = 0.285602915836\nsamples = 7", shape="box"] ;
12 -> 14 ;
15 [label="entropy = 0.0000\nsamples = 2\nvalue = [ 0.50420168  0.        ]", shape="box"] ;
14 -> 15 ;
16 [label="X[3] <= 4.0420\nentropy = 0.099685889457\nsamples = 5", shape="box"] ;
14 -> 16 ;
17 [label="entropy = 0.0000\nsamples = 3\nvalue = [ 0.          9.15966387]", shape="box"] ;
16 -> 17 ;
18 [label="X[1] <= 0.0692\nentropy = 0.259716927541\nsamples = 2", shape="box"] ;
16 -> 18 ;
19 [label="entropy = 0.0000\nsamples = 1\nvalue = [ 0.          3.66386555]", shape="box"] ;
18 -> 19 ;
20 [label="entropy = -0.0000\nsamples = 1\nvalue = [ 0.16806723  0.        ]", shape="box"] ;
18 -> 20 ;
21 [label="entropy = 0.0000\nsamples = 8\nvalue = [ 1.51260504  0.        ]", shape="box"] ;
11 -> 21 ;
22 [label="entropy = 0.0000\nsamples = 5\nvalue = [ 1.17647059  0.        ]", shape="box"] ;
10 -> 22 ;
23 [label="X[3] <= 4.1061\nentropy = 0.317030708026\nsamples = 115", shape="box"] ;
5 -> 23 ;
24 [label="entropy = 0.0000\nsamples = 86\nvalue = [ 22.68907563   0.        ]", shape="box"] ;
23 -> 24 ;
25 [label="X[8] <= 127.9306\nentropy = 0.719004114321\nsamples = 29", shape="box"] ;
23 -> 25 ;
26 [label="entropy = 0.0000\nsamples = 26\nvalue = [ 6.8907563  0.       ]", shape="box"] ;
25 -> 26 ;
27 [label="X[5] <= 9.1367\nentropy = 0.75247481899\nsamples = 3", shape="box"] ;
25 -> 27 ;
28 [label="entropy = 0.0000\nsamples = 2\nvalue = [ 0.50420168  0.        ]", shape="box"] ;
27 -> 28 ;
29 [label="entropy = 0.0000\nsamples = 1\nvalue = [ 0.          1.83193277]", shape="box"] ;
27 -> 29 ;
30 [label="X[1] <= -0.0235\nentropy = 0.991713033628\nsamples = 326", shape="box"] ;
2 -> 30 ;
31 [label="X[9] <= 19.3002\nentropy = 0.900548413298\nsamples = 84", shape="box"] ;
30 -> 31 ;
32 [label="X[2] <= 5.8933\nentropy = 0.999993212497\nsamples = 44", shape="box"] ;
31 -> 32 ;
33 [label="X[6] <= 9.5979\nentropy = 0.982949625323\nsamples = 34", shape="box"] ;
32 -> 33 ;
34 [label="X[1] <= -0.1083\nentropy = 0.932816548954\nsamples = 28", shape="box"] ;
33 -> 34 ;
35 [label="X[4] <= 20.0105\nentropy = 0.988790230169\nsamples = 19", shape="box"] ;
34 -> 35 ;
36 [label="entropy = 0.0000\nsamples = 9\nvalue = [ 2.68907563  0.        ]", shape="box"] ;
35 -> 36 ;
37 [label="X[6] <= 3.0639\nentropy = 0.938479867423\nsamples = 10", shape="box"] ;
35 -> 37 ;
38 [label="X[4] <= 29.3300\nentropy = 0.532136227042\nsamples = 4", shape="box"] ;
37 -> 38 ;
39 [label="entropy = 0.0000\nsamples = 2\nvalue = [ 0.          3.66386555]", shape="box"] ;
38 -> 39 ;
40 [label="entropy = -0.0000\nsamples = 2\nvalue = [ 0.50420168  0.        ]", shape="box"] ;
38 -> 40 ;
41 [label="entropy = 0.0000\nsamples = 6\nvalue = [ 1.51260504  0.        ]", shape="box"] ;
37 -> 41 ;
42 [label="X[3] <= 2.8222\nentropy = 0.579874648234\nsamples = 9", shape="box"] ;
34 -> 42 ;
43 [label="entropy = 0.0000\nsamples = 3\nvalue = [ 0.67226891  0.        ]", shape="box"] ;
42 -> 43 ;
44 [label="X[4] <= 6284.3833\nentropy = 0.34458296124\nsamples = 6", shape="box"] ;
42 -> 44 ;
45 [label="X[1] <= -0.0291\nentropy = 0.154828943527\nsamples = 5", shape="box"] ;
44 -> 45 ;
46 [label="entropy = 0.0000\nsamples = 3\nvalue = [ 0.          5.49579832]", shape="box"] ;
45 -> 46 ;
47 [label="X[9] <= 14.2064\nentropy = 0.416234802387\nsamples = 2", shape="box"] ;
45 -> 47 ;
48 [label="entropy = 0.0000\nsamples = 1\nvalue = [ 0.16806723  0.        ]", shape="box"] ;
47 -> 48 ;
49 [label="entropy = 0.0000\nsamples = 1\nvalue = [ 0.          1.83193277]", shape="box"] ;
47 -> 49 ;
50 [label="entropy = 0.0000\nsamples = 1\nvalue = [ 0.33613445  0.        ]", shape="box"] ;
44 -> 50 ;
51 [label="entropy = 0.0000\nsamples = 6\nvalue = [ 2.18487395  0.        ]", shape="box"] ;
33 -> 51 ;
52 [label="entropy = 0.0000\nsamples = 10\nvalue = [ 2.85714286  0.        ]", shape="box"] ;
32 -> 52 ;
53 [label="X[8] <= 100.6658\nentropy = 0.722905012608\nsamples = 40", shape="box"] ;
31 -> 53 ;
54 [label="X[8] <= 83.4134\nentropy = 0.337480952521\nsamples = 13", shape="box"] ;
53 -> 54 ;
55 [label="X[3] <= 3.4624\nentropy = 0.551927553457\nsamples = 10", shape="box"] ;
54 -> 55 ;
56 [label="entropy = 0.0000\nsamples = 5\nvalue = [ 0.84033613  0.        ]", shape="box"] ;
55 -> 56 ;
57 [label="X[0] <= 1.4702\nentropy = 0.295560777857\nsamples = 5", shape="box"] ;
55 -> 57 ;
58 [label="entropy = 0.0000\nsamples = 3\nvalue = [ 0.          9.15966387]", shape="box"] ;
57 -> 58 ;
59 [label="entropy = 0.0000\nsamples = 2\nvalue = [ 0.50420168  0.        ]", shape="box"] ;
57 -> 59 ;
60 [label="entropy = 0.0000\nsamples = 3\nvalue = [  0.          10.99159664]", shape="box"] ;
54 -> 60 ;
61 [label="X[0] <= 0.7132\nentropy = 0.986142231659\nsamples = 27", shape="box"] ;
53 -> 61 ;
62 [label="X[6] <= 3.8139\nentropy = 0.724848836725\nsamples = 12", shape="box"] ;
61 -> 62 ;
63 [label="X[5] <= 6.5934\nentropy = 0.416234802387\nsamples = 6", shape="box"] ;
62 -> 63 ;
64 [label="entropy = 0.0000\nsamples = 3\nvalue = [ 0.          7.32773109]", shape="box"] ;
63 -> 64 ;
65 [label="entropy = 0.0000\nsamples = 3\nvalue = [ 0.67226891  0.        ]", shape="box"] ;
63 -> 65 ;
66 [label="entropy = 0.0000\nsamples = 6\nvalue = [ 1.17647059  0.        ]", shape="box"] ;
62 -> 66 ;
67 [label="entropy = 0.0000\nsamples = 15\nvalue = [ 3.69747899  0.        ]", shape="box"] ;
61 -> 67 ;
68 [label="X[5] <= -0.3087\nentropy = 0.873437053623\nsamples = 242", shape="box"] ;
30 -> 68 ;
69 [label="entropy = 0.0000\nsamples = 56\nvalue = [ 15.96638655   0.        ]", shape="box"] ;
68 -> 69 ;
70 [label="X[7] <= -0.7590\nentropy = 0.942181581726\nsamples = 186", shape="box"] ;
68 -> 70 ;
71 [label="entropy = 0.0000\nsamples = 66\nvalue = [ 17.81512605   0.        ]", shape="box"] ;
70 -> 71 ;
72 [label="X[6] <= 8.6237\nentropy = 0.998723588494\nsamples = 120", shape="box"] ;
70 -> 72 ;
73 [label="X[6] <= 2.8753\nentropy = 0.998178446694\nsamples = 99", shape="box"] ;
72 -> 73 ;
74 [label="X[1] <= 0.0766\nentropy = 0.769561303557\nsamples = 47", shape="box"] ;
73 -> 74 ;
75 [label="X[8] <= 110.9909\nentropy = 0.996599978285\nsamples = 16", shape="box"] ;
74 -> 75 ;
76 [label="X[4] <= 16.6324\nentropy = 0.871556146308\nsamples = 8", shape="box"] ;
75 -> 76 ;
77 [label="entropy = 0.0000\nsamples = 5\nvalue = [ 1.34453782  0.        ]", shape="box"] ;
76 -> 77 ;
78 [label="X[7] <= 4.7925\nentropy = 0.259716927541\nsamples = 3", shape="box"] ;
76 -> 78 ;
79 [label="entropy = 0.0000\nsamples = 2\nvalue = [ 0.          3.66386555]", shape="box"] ;
78 -> 79 ;
80 [label="entropy = -0.0000\nsamples = 1\nvalue = [ 0.16806723  0.        ]", shape="box"] ;
78 -> 80 ;
81 [label="entropy = -0.0000\nsamples = 8\nvalue = [ 1.68067227  0.        ]", shape="box"] ;
75 -> 81 ;
82 [label="entropy = -0.0000\nsamples = 31\nvalue = [ 9.41176471  0.        ]", shape="box"] ;
74 -> 82 ;
83 [label="X[0] <= 0.4762\nentropy = 0.909817716439\nsamples = 52", shape="box"] ;
73 -> 83 ;
84 [label="entropy = 0.0000\nsamples = 6\nvalue = [ 1.8487395  0.       ]", shape="box"] ;
83 -> 84 ;
85 [label="X[6] <= 3.3296\nentropy = 0.861462110788\nsamples = 46", shape="box"] ;
83 -> 85 ;
86 [label="X[1] <= 0.2016\nentropy = 0.448226233588\nsamples = 10", shape="box"] ;
85 -> 86 ;
87 [label="X[8] <= 98.6254\nentropy = 0.304100662019\nsamples = 8", shape="box"] ;
86 -> 87 ;
88 [label="X[2] <= 4.0622\nentropy = 0.898260937112\nsamples = 4", shape="box"] ;
87 -> 88 ;
89 [label="entropy = 0.0000\nsamples = 1\nvalue = [ 0.          1.83193277]", shape="box"] ;
88 -> 89 ;
90 [label="entropy = -0.0000\nsamples = 3\nvalue = [ 0.84033613  0.        ]", shape="box"] ;
88 -> 90 ;
91 [label="entropy = 0.0000\nsamples = 4\nvalue = [  0.          12.82352941]", shape="box"] ;
87 -> 91 ;
92 [label="entropy = 0.0000\nsamples = 2\nvalue = [ 0.67226891  0.        ]", shape="box"] ;
86 -> 92 ;
93 [label="X[6] <= 4.8613\nentropy = 0.999965373011\nsamples = 36", shape="box"] ;
85 -> 93 ;
94 [label="entropy = 0.0000\nsamples = 22\nvalue = [ 5.21008403  0.        ]", shape="box"] ;
93 -> 94 ;
95 [label="X[2] <= 5.4974\nentropy = 0.75247481899\nsamples = 14", shape="box"] ;
93 -> 95 ;
96 [label="X[8] <= 119.1490\nentropy = 0.532136227042\nsamples = 9", shape="box"] ;
95 -> 96 ;
97 [label="X[7] <= 3.0863\nentropy = 0.416234802387\nsamples = 7", shape="box"] ;
96 -> 97 ;
98 [label="entropy = 0.0000\nsamples = 1\nvalue = [ 0.33613445  0.        ]", shape="box"] ;
97 -> 98 ;
99 [label="X[1] <= 0.0472\nentropy = 0.259716927541\nsamples = 6", shape="box"] ;
97 -> 99 ;
100 [label="entropy = 0.0000\nsamples = 2\nvalue = [ 0.33613445  0.        ]", shape="box"] ;
99 -> 100 ;
101 [label="entropy = -0.0000\nsamples = 4\nvalue = [ 0.          7.32773109]", shape="box"] ;
99 -> 101 ;
102 [label="entropy = 0.0000\nsamples = 2\nvalue = [ 0.33613445  0.        ]", shape="box"] ;
96 -> 102 ;
103 [label="entropy = 0.0000\nsamples = 5\nvalue = [ 1.00840336  0.        ]", shape="box"] ;
95 -> 103 ;
104 [label="entropy = 0.0000\nsamples = 21\nvalue = [ 4.70588235  0.        ]", shape="box"] ;
72 -> 104 ;
105 [label="X[0] <= 0.7910\nentropy = 0.816661093613\nsamples = 31", shape="box"] ;
1 -> 105 ;
106 [label="entropy = 0.0000\nsamples = 7\nvalue = [ 1.68067227  0.        ]", shape="box"] ;
105 -> 106 ;
107 [label="X[2] <= 2.5297\nentropy = 0.718977150375\nsamples = 24", shape="box"] ;
105 -> 107 ;
108 [label="X[3] <= 4.5472\nentropy = 0.442008602228\nsamples = 13", shape="box"] ;
107 -> 108 ;
109 [label="X[6] <= 49.4945\nentropy = 0.328812237756\nsamples = 11", shape="box"] ;
108 -> 109 ;
110 [label="X[8] <= 82.3426\nentropy = 0.130162790668\nsamples = 9", shape="box"] ;
109 -> 110 ;
111 [label="X[1] <= 0.0439\nentropy = 0.416234802387\nsamples = 2", shape="box"] ;
110 -> 111 ;
112 [label="entropy = 0.0000\nsamples = 1\nvalue = [ 0.33613445  0.        ]", shape="box"] ;
111 -> 112 ;
113 [label="entropy = 0.0000\nsamples = 1\nvalue = [ 0.          3.66386555]", shape="box"] ;
111 -> 113 ;
114 [label="entropy = -0.0000\nsamples = 7\nvalue = [  0.          14.65546218]", shape="box"] ;
110 -> 114 ;
115 [label="entropy = 0.0000\nsamples = 2\nvalue = [ 0.84033613  0.        ]", shape="box"] ;
109 -> 115 ;
116 [label="entropy = 0.0000\nsamples = 2\nvalue = [ 0.67226891  0.        ]", shape="box"] ;
108 -> 116 ;
117 [label="entropy = 0.0000\nsamples = 11\nvalue = [ 2.68907563  0.        ]", shape="box"] ;
107 -> 117 ;
118 [label="X[6] <= 18.7608\nentropy = 0.921605273677\nsamples = 312", shape="box"] ;
0 -> 118 ;
119 [label="X[0] <= 0.4146\nentropy = 0.969572026287\nsamples = 290", shape="box"] ;
118 -> 119 ;
120 [label="entropy = 0.0000\nsamples = 22\nvalue = [ 5.88235294  0.        ]", shape="box"] ;
119 -> 120 ;
121 [label="X[2] <= 4.0214\nentropy = 0.955258673181\nsamples = 268", shape="box"] ;
119 -> 121 ;
122 [label="X[2] <= -7.0208\nentropy = 0.793575055074\nsamples = 132", shape="box"] ;
121 -> 122 ;
123 [label="entropy = 0.0000\nsamples = 3\nvalue = [  0.          14.65546218]", shape="box"] ;
122 -> 123 ;
124 [label="X[8] <= 119.3034\nentropy = 0.84812429662\nsamples = 129", shape="box"] ;
122 -> 124 ;
125 [label="X[9] <= 14.9767\nentropy = 0.75247481899\nsamples = 96", shape="box"] ;
124 -> 125 ;
126 [label="X[1] <= -0.0160\nentropy = 0.328812237756\nsamples = 23", shape="box"] ;
125 -> 126 ;
127 [label="entropy = 0.0000\nsamples = 5\nvalue = [  0.         20.1512605]", shape="box"] ;
126 -> 127 ;
128 [label="X[7] <= 42.8198\nentropy = 0.543251319814\nsamples = 18", shape="box"] ;
126 -> 128 ;
129 [label="X[3] <= 2.4438\nentropy = 0.416234802387\nsamples = 15", shape="box"] ;
128 -> 129 ;
130 [label="entropy = 0.0000\nsamples = 2\nvalue = [ 0.50420168  0.        ]", shape="box"] ;
129 -> 130 ;
131 [label="X[4] <= 12.1201\nentropy = 0.31799192798\nsamples = 13", shape="box"] ;
129 -> 131 ;
132 [label="X[0] <= 0.8953\nentropy = 0.532136227042\nsamples = 8", shape="box"] ;
131 -> 132 ;
133 [label="entropy = 0.0000\nsamples = 6\nvalue = [ 1.00840336  0.        ]", shape="box"] ;
132 -> 133 ;
134 [label="entropy = -0.0000\nsamples = 2\nvalue = [ 0.          7.32773109]", shape="box"] ;
132 -> 134 ;
135 [label="entropy = 0.0000\nsamples = 5\nvalue = [ 0.          9.15966387]", shape="box"] ;
131 -> 135 ;
136 [label="entropy = 0.0000\nsamples = 3\nvalue = [ 0.84033613  0.        ]", shape="box"] ;
128 -> 136 ;
137 [label="X[1] <= 0.3278\nentropy = 0.922512987171\nsamples = 73", shape="box"] ;
125 -> 137 ;
138 [label="X[0] <= 0.5807\nentropy = 0.868262466727\nsamples = 61", shape="box"] ;
137 -> 138 ;
139 [label="entropy = 0.0000\nsamples = 3\nvalue = [ 0.          9.15966387]", shape="box"] ;
138 -> 139 ;
140 [label="X[8] <= 80.5914\nentropy = 0.943384836268\nsamples = 58", shape="box"] ;
138 -> 140 ;
141 [label="X[3] <= 3.6590\nentropy = 0.741519568054\nsamples = 26", shape="box"] ;
140 -> 141 ;
142 [label="entropy = 0.0000\nsamples = 20\nvalue = [ 5.54621849  0.        ]", shape="box"] ;
141 -> 142 ;
143 [label="X[9] <= 25.6607\nentropy = 0.982949625323\nsamples = 6", shape="box"] ;
141 -> 143 ;
144 [label="entropy = 0.0000\nsamples = 1\nvalue = [ 0.          1.83193277]", shape="box"] ;
143 -> 144 ;
145 [label="entropy = -0.0000\nsamples = 5\nvalue = [ 1.34453782  0.        ]", shape="box"] ;
143 -> 145 ;
146 [label="X[8] <= 81.2444\nentropy = 0.777456509093\nsamples = 32", shape="box"] ;
140 -> 146 ;
147 [label="entropy = 0.0000\nsamples = 1\nvalue = [ 0.          5.49579832]", shape="box"] ;
146 -> 147 ;
148 [label="X[8] <= 92.7664\nentropy = 0.861462110788\nsamples = 31", shape="box"] ;
146 -> 148 ;
149 [label="entropy = 0.0000\nsamples = 11\nvalue = [ 3.52941176  0.        ]", shape="box"] ;
148 -> 149 ;
150 [label="X[6] <= 2.0617\nentropy = 0.622307462412\nsamples = 20", shape="box"] ;
148 -> 150 ;
151 [label="entropy = 0.0000\nsamples = 3\nvalue = [ 0.67226891  0.        ]", shape="box"] ;
150 -> 151 ;
152 [label="X[9] <= 21.1276\nentropy = 0.543251319814\nsamples = 17", shape="box"] ;
150 -> 152 ;
153 [label="entropy = 0.0000\nsamples = 2\nvalue = [ 1.00840336  0.        ]", shape="box"] ;
152 -> 153 ;
154 [label="X[5] <= -5.5129\nentropy = 0.385761724504\nsamples = 15", shape="box"] ;
152 -> 154 ;
155 [label="entropy = 0.0000\nsamples = 2\nvalue = [ 0.33613445  0.        ]", shape="box"] ;
154 -> 155 ;
156 [label="X[1] <= -0.0707\nentropy = 0.31799192798\nsamples = 13", shape="box"] ;
154 -> 156 ;
157 [label="entropy = 0.0000\nsamples = 3\nvalue = [ 0.          5.49579832]", shape="box"] ;
156 -> 157 ;
158 [label="X[7] <= 11.3767\nentropy = 0.416234802387\nsamples = 10", shape="box"] ;
156 -> 158 ;
159 [label="entropy = 0.0000\nsamples = 3\nvalue = [ 0.67226891  0.        ]", shape="box"] ;
158 -> 159 ;
160 [label="X[2] <= 3.6577\nentropy = 0.192752280034\nsamples = 7", shape="box"] ;
158 -> 160 ;
161 [label="X[6] <= 2.6130\nentropy = 0.112724213238\nsamples = 6", shape="box"] ;
160 -> 161 ;
162 [label="entropy = 0.0000\nsamples = 1\nvalue = [ 0.16806723  0.        ]", shape="box"] ;
161 -> 162 ;
163 [label="entropy = 0.0000\nsamples = 5\nvalue = [  0.          10.99159664]", shape="box"] ;
161 -> 163 ;
164 [label="entropy = -0.0000\nsamples = 1\nvalue = [ 0.16806723  0.        ]", shape="box"] ;
160 -> 164 ;
165 [label="entropy = 0.0000\nsamples = 12\nvalue = [ 3.36134454  0.        ]", shape="box"] ;
137 -> 165 ;
166 [label="X[5] <= 26.1682\nentropy = 0.697808041813\nsamples = 33", shape="box"] ;
124 -> 166 ;
167 [label="entropy = 0.0000\nsamples = 32\nvalue = [ 7.89915966  0.        ]", shape="box"] ;
166 -> 167 ;
168 [label="entropy = 0.0000\nsamples = 1\nvalue = [ 0.          1.83193277]", shape="box"] ;
166 -> 168 ;
169 [label="X[1] <= 0.0791\nentropy = 0.906041748924\nsamples = 136", shape="box"] ;
121 -> 169 ;
170 [label="X[0] <= 0.8379\nentropy = 0.99567089953\nsamples = 58", shape="box"] ;
169 -> 170 ;
171 [label="entropy = 0.0000\nsamples = 20\nvalue = [ 5.04201681  0.        ]", shape="box"] ;
170 -> 171 ;
172 [label="X[5] <= 8.4374\nentropy = 0.938479867423\nsamples = 38", shape="box"] ;
170 -> 172 ;
173 [label="X[8] <= 113.9581\nentropy = 0.703309079791\nsamples = 16", shape="box"] ;
172 -> 173 ;
174 [label="X[4] <= -1.1585\nentropy = 0.333373221259\nsamples = 9", shape="box"] ;
173 -> 174 ;
175 [label="entropy = 0.0000\nsamples = 2\nvalue = [ 0.          7.32773109]", shape="box"] ;
174 -> 175 ;
176 [label="X[3] <= 3.0617\nentropy = 0.564596253251\nsamples = 7", shape="box"] ;
174 -> 176 ;
177 [label="X[4] <= 2.9387\nentropy = 0.192752280034\nsamples = 3", shape="box"] ;
176 -> 177 ;
178 [label="entropy = 0.0000\nsamples = 1\nvalue = [ 0.16806723  0.        ]", shape="box"] ;
177 -> 178 ;
179 [label="entropy = -0.0000\nsamples = 2\nvalue = [ 0.          5.49579832]", shape="box"] ;
177 -> 179 ;
180 [label="entropy = 0.0000\nsamples = 4\nvalue = [ 0.67226891  0.        ]", shape="box"] ;
176 -> 180 ;
181 [label="entropy = 0.0000\nsamples = 7\nvalue = [ 2.18487395  0.        ]", shape="box"] ;
173 -> 181 ;
182 [label="X[9] <= 19.1996\nentropy = 0.956013403123\nsamples = 22", shape="box"] ;
172 -> 182 ;
183 [label="X[7] <= 13.5890\nentropy = 0.99341421818\nsamples = 14", shape="box"] ;
182 -> 183 ;
184 [label="X[6] <= 2.2052\nentropy = 0.416234802387\nsamples = 3", shape="box"] ;
183 -> 184 ;
185 [label="entropy = 0.0000\nsamples = 1\nvalue = [ 0.33613445  0.        ]", shape="box"] ;
184 -> 185 ;
186 [label="entropy = 0.0000\nsamples = 2\nvalue = [ 0.          3.66386555]", shape="box"] ;
184 -> 186 ;
187 [label="entropy = 0.0000\nsamples = 11\nvalue = [ 2.68907563  0.        ]", shape="box"] ;
183 -> 187 ;
188 [label="entropy = 0.0000\nsamples = 8\nvalue = [ 3.02521008  0.        ]", shape="box"] ;
182 -> 188 ;
189 [label="entropy = 0.0000\nsamples = 78\nvalue = [ 20.67226891   0.        ]", shape="box"] ;
169 -> 189 ;
190 [label="X[0] <= 0.2910\nentropy = 0.440814361926\nsamples = 22", shape="box"] ;
118 -> 190 ;
191 [label="X[3] <= 2.8268\nentropy = 0.099685889457\nsamples = 7", shape="box"] ;
190 -> 191 ;
192 [label="entropy = 0.0000\nsamples = 1\nvalue = [ 0.33613445  0.        ]", shape="box"] ;
191 -> 192 ;
193 [label="entropy = 0.0000\nsamples = 6\nvalue = [  0.          25.64705882]", shape="box"] ;
191 -> 193 ;
194 [label="X[1] <= -0.0373\nentropy = 0.75247481899\nsamples = 15", shape="box"] ;
190 -> 194 ;
195 [label="X[1] <= -0.0773\nentropy = 0.598659409882\nsamples = 11", shape="box"] ;
194 -> 195 ;
196 [label="X[0] <= 1.3004\nentropy = 0.777456509093\nsamples = 9", shape="box"] ;
195 -> 196 ;
197 [label="X[1] <= -0.6944\nentropy = 0.416234802387\nsamples = 5", shape="box"] ;
196 -> 197 ;
198 [label="entropy = 0.0000\nsamples = 2\nvalue = [ 0.33613445  0.        ]", shape="box"] ;
197 -> 198 ;
199 [label="X[9] <= 23.5775\nentropy = 0.259716927541\nsamples = 3", shape="box"] ;
197 -> 199 ;
200 [label="entropy = 0.0000\nsamples = 1\nvalue = [ 0.33613445  0.        ]", shape="box"] ;
199 -> 200 ;
201 [label="entropy = 0.0000\nsamples = 2\nvalue = [ 0.          7.32773109]", shape="box"] ;
199 -> 201 ;
202 [label="entropy = -0.0000\nsamples = 4\nvalue = [ 1.51260504  0.        ]", shape="box"] ;
196 -> 202 ;
203 [label="entropy = 0.0000\nsamples = 2\nvalue = [ 0.          5.49579832]", shape="box"] ;
195 -> 203 ;
204 [label="entropy = 0.0000\nsamples = 4\nvalue = [ 1.34453782  0.        ]", shape="box"] ;
194 -> 204 ;
}