digraph Tree {
0 [label="X[3] <= 4.1357\nentropy = 1.0\nsamples = 974", shape="box"] ;
1 [label="X[8] <= 35.9910\nentropy = 0.994243805566\nsamples = 768", shape="box"] ;
0 -> 1 ;
2 [label="entropy = 0.0000\nsamples = 40\nvalue = [ 11.22171946   0.        ]", shape="box"] ;
1 -> 2 ;
3 [label="X[4] <= 16.6091\nentropy = 0.989345027218\nsamples = 728", shape="box"] ;
1 -> 3 ;
4 [label="X[1] <= -0.0392\nentropy = 0.999922603569\nsamples = 604", shape="box"] ;
3 -> 4 ;
5 [label="X[7] <= -0.0424\nentropy = 0.702443930877\nsamples = 88", shape="box"] ;
4 -> 5 ;
6 [label="entropy = 0.0000\nsamples = 5\nvalue = [ 2.08403361  0.        ]", shape="box"] ;
5 -> 6 ;
7 [label="X[4] <= -2.4150\nentropy = 0.661056858218\nsamples = 83", shape="box"] ;
5 -> 7 ;
8 [label="entropy = 0.0000\nsamples = 5\nvalue = [ 1.4427925  0.       ]", shape="box"] ;
7 -> 8 ;
9 [label="X[5] <= 20.7438\nentropy = 0.62899338375\nsamples = 78", shape="box"] ;
7 -> 9 ;
10 [label="X[7] <= 8.6811\nentropy = 0.58957604019\nsamples = 72", shape="box"] ;
9 -> 10 ;
11 [label="X[4] <= 11.7697\nentropy = 0.849958685064\nsamples = 26", shape="box"] ;
10 -> 11 ;
12 [label="X[5] <= 13.7797\nentropy = 0.832661170576\nsamples = 22", shape="box"] ;
11 -> 12 ;
13 [label="entropy = 0.0000\nsamples = 17\nvalue = [ 4.3283775  0.       ]", shape="box"] ;
12 -> 13 ;
14 [label="X[7] <= 6.9515\nentropy = 0.885497661432\nsamples = 5", shape="box"] ;
12 -> 14 ;
15 [label="X[0] <= 0.6642\nentropy = 0.402725596255\nsamples = 2", shape="box"] ;
14 -> 15 ;
16 [label="entropy = 0.0000\nsamples = 1\nvalue = [ 0.16031028  0.        ]", shape="box"] ;
15 -> 16 ;
17 [label="entropy = -0.0000\nsamples = 1\nvalue = [ 0.          1.83968972]", shape="box"] ;
15 -> 17 ;
18 [label="entropy = 0.0000\nsamples = 3\nvalue = [ 0.64124111  0.        ]", shape="box"] ;
14 -> 18 ;
19 [label="X[2] <= 2.7931\nentropy = 0.223647172593\nsamples = 4", shape="box"] ;
11 -> 19 ;
20 [label="entropy = 0.0000\nsamples = 2\nvalue = [  0.          12.87782805]", shape="box"] ;
19 -> 20 ;
21 [label="entropy = 0.0000\nsamples = 2\nvalue = [ 0.48093083  0.        ]", shape="box"] ;
19 -> 21 ;
22 [label="X[5] <= -16.8330\nentropy = 0.470371765336\nsamples = 46", shape="box"] ;
10 -> 22 ;
23 [label="entropy = 0.0000\nsamples = 3\nvalue = [ 0.64124111  0.        ]", shape="box"] ;
22 -> 23 ;
24 [label="X[8] <= 182.8925\nentropy = 0.441566171351\nsamples = 43", shape="box"] ;
22 -> 24 ;
25 [label="X[7] <= 9.5817\nentropy = 0.402725596255\nsamples = 40", shape="box"] ;
24 -> 25 ;
26 [label="entropy = 0.0000\nsamples = 3\nvalue = [ 0.          9.19844861]", shape="box"] ;
25 -> 26 ;
27 [label="X[7] <= 10.1945\nentropy = 0.448403450055\nsamples = 37", shape="box"] ;
25 -> 27 ;
28 [label="entropy = 0.0000\nsamples = 3\nvalue = [ 0.64124111  0.        ]", shape="box"] ;
27 -> 28 ;
29 [label="X[9] <= 7.6606\nentropy = 0.412239027961\nsamples = 34", shape="box"] ;
27 -> 29 ;
30 [label="entropy = 0.0000\nsamples = 2\nvalue = [ 0.48093083  0.        ]", shape="box"] ;
29 -> 30 ;
31 [label="X[2] <= 0.3290\nentropy = 0.383081699279\nsamples = 32", shape="box"] ;
29 -> 31 ;
32 [label="X[9] <= 36.1836\nentropy = 0.0662429711163\nsamples = 7", shape="box"] ;
31 -> 32 ;
33 [label="entropy = 0.0000\nsamples = 4\nvalue = [  0.          11.03813833]", shape="box"] ;
32 -> 33 ;
34 [label="X[9] <= 44.6252\nentropy = 0.12500457286\nsamples = 3", shape="box"] ;
32 -> 34 ;
35 [label="entropy = 0.0000\nsamples = 1\nvalue = [ 0.16031028  0.        ]", shape="box"] ;
34 -> 35 ;
36 [label="entropy = 0.0000\nsamples = 2\nvalue = [ 0.          9.19844861]", shape="box"] ;
34 -> 36 ;
37 [label="X[9] <= 14.9935\nentropy = 0.516578801666\nsamples = 25", shape="box"] ;
31 -> 37 ;
38 [label="entropy = 0.0000\nsamples = 5\nvalue = [  0.          12.87782805]", shape="box"] ;
37 -> 38 ;
39 [label="X[9] <= 21.9395\nentropy = 0.69844368653\nsamples = 20", shape="box"] ;
37 -> 39 ;
40 [label="entropy = 0.0000\nsamples = 7\nvalue = [ 1.92372334  0.        ]", shape="box"] ;
39 -> 40 ;
41 [label="X[5] <= 10.4704\nentropy = 0.481835370308\nsamples = 13", shape="box"] ;
39 -> 41 ;
42 [label="X[7] <= 16.0903\nentropy = 0.824425679958\nsamples = 10", shape="box"] ;
41 -> 42 ;
43 [label="entropy = 0.0000\nsamples = 5\nvalue = [ 1.4427925  0.       ]", shape="box"] ;
42 -> 43 ;
44 [label="X[8] <= 81.3504\nentropy = 0.402725596255\nsamples = 5", shape="box"] ;
42 -> 44 ;
45 [label="entropy = 0.0000\nsamples = 1\nvalue = [ 0.16031028  0.        ]", shape="box"] ;
44 -> 45 ;
46 [label="X[6] <= 61.0597\nentropy = 0.306873118677\nsamples = 4", shape="box"] ;
44 -> 46 ;
47 [label="X[0] <= 0.9045\nentropy = 0.185419486622\nsamples = 3", shape="box"] ;
46 -> 47 ;
48 [label="entropy = 0.0000\nsamples = 2\nvalue = [ 0.          5.51906917]", shape="box"] ;
47 -> 48 ;
49 [label="entropy = -0.0000\nsamples = 1\nvalue = [ 0.16031028  0.        ]", shape="box"] ;
47 -> 49 ;
50 [label="entropy = -0.0000\nsamples = 1\nvalue = [ 0.16031028  0.        ]", shape="box"] ;
46 -> 50 ;
51 [label="entropy = 0.0000\nsamples = 3\nvalue = [  0.          11.03813833]", shape="box"] ;
41 -> 51 ;
52 [label="entropy = -0.0000\nsamples = 3\nvalue = [ 0.80155139  0.        ]", shape="box"] ;
24 -> 52 ;
53 [label="entropy = -0.0000\nsamples = 6\nvalue = [ 1.60310278  0.        ]", shape="box"] ;
9 -> 53 ;
54 [label="X[3] <= 3.9528\nentropy = 0.946428467657\nsamples = 516", shape="box"] ;
4 -> 54 ;
55 [label="X[8] <= 118.4372\nentropy = 0.860956180645\nsamples = 473", shape="box"] ;
54 -> 55 ;
56 [label="X[4] <= 0.7464\nentropy = 0.933612315585\nsamples = 362", shape="box"] ;
55 -> 56 ;
57 [label="X[0] <= 1.0819\nentropy = 0.817004724948\nsamples = 30", shape="box"] ;
56 -> 57 ;
58 [label="X[0] <= 0.6870\nentropy = 0.999064063136\nsamples = 25", shape="box"] ;
57 -> 58 ;
59 [label="X[9] <= 33.0374\nentropy = 0.605857377198\nsamples = 6", shape="box"] ;
58 -> 59 ;
60 [label="X[4] <= -1.2172\nentropy = 0.306873118677\nsamples = 4", shape="box"] ;
59 -> 60 ;
61 [label="entropy = 0.0000\nsamples = 1\nvalue = [ 0.16031028  0.        ]", shape="box"] ;
60 -> 61 ;
62 [label="X[7] <= 12.7368\nentropy = 0.185419486622\nsamples = 3", shape="box"] ;
60 -> 62 ;
63 [label="entropy = 0.0000\nsamples = 1\nvalue = [ 0.16031028  0.        ]", shape="box"] ;
62 -> 63 ;
64 [label="entropy = 0.0000\nsamples = 2\nvalue = [ 0.          5.51906917]", shape="box"] ;
62 -> 64 ;
65 [label="entropy = -0.0000\nsamples = 2\nvalue = [ 0.64124111  0.        ]", shape="box"] ;
59 -> 65 ;
66 [label="entropy = 0.0000\nsamples = 19\nvalue = [ 4.96961862  0.        ]", shape="box"] ;
58 -> 66 ;
67 [label="X[2] <= 4.3781\nentropy = 0.164905445067\nsamples = 5", shape="box"] ;
57 -> 67 ;
68 [label="entropy = 0.0000\nsamples = 2\nvalue = [ 0.32062056  0.        ]", shape="box"] ;
67 -> 68 ;
69 [label="entropy = 0.0000\nsamples = 3\nvalue = [  0.          12.87782805]", shape="box"] ;
67 -> 69 ;
70 [label="X[7] <= 4.3638\nentropy = 0.823749246195\nsamples = 332", shape="box"] ;
56 -> 70 ;
71 [label="entropy = 0.0000\nsamples = 80\nvalue = [ 19.87847447   0.        ]", shape="box"] ;
70 -> 71 ;
72 [label="X[1] <= 0.1407\nentropy = 0.90101298934\nsamples = 252", shape="box"] ;
70 -> 72 ;
73 [label="X[1] <= 0.0855\nentropy = 0.998350559779\nsamples = 108", shape="box"] ;
72 -> 73 ;
74 [label="X[8] <= 115.4984\nentropy = 0.862552012449\nsamples = 77", shape="box"] ;
73 -> 74 ;
75 [label="X[2] <= 3.8028\nentropy = 0.655002732103\nsamples = 74", shape="box"] ;
74 -> 75 ;
76 [label="X[5] <= 5.0095\nentropy = 0.976607814198\nsamples = 21", shape="box"] ;
75 -> 76 ;
77 [label="X[1] <= 0.0090\nentropy = 0.885497661432\nsamples = 9", shape="box"] ;
76 -> 77 ;
78 [label="X[6] <= 5.1430\nentropy = 0.250262936125\nsamples = 3", shape="box"] ;
77 -> 78 ;
79 [label="entropy = 0.0000\nsamples = 1\nvalue = [ 0.16031028  0.        ]", shape="box"] ;
78 -> 79 ;
80 [label="entropy = 0.0000\nsamples = 2\nvalue = [ 0.          3.67937944]", shape="box"] ;
78 -> 80 ;
81 [label="entropy = 0.0000\nsamples = 6\nvalue = [ 1.4427925  0.       ]", shape="box"] ;
77 -> 81 ;
82 [label="entropy = 0.0000\nsamples = 12\nvalue = [ 3.68713639  0.        ]", shape="box"] ;
76 -> 82 ;
83 [label="entropy = -0.0000\nsamples = 53\nvalue = [ 12.82482224   0.        ]", shape="box"] ;
75 -> 83 ;
84 [label="X[9] <= 27.8874\nentropy = 0.402725596255\nsamples = 3", shape="box"] ;
74 -> 84 ;
85 [label="entropy = 0.0000\nsamples = 1\nvalue = [ 0.          3.67937944]", shape="box"] ;
84 -> 85 ;
86 [label="entropy = -0.0000\nsamples = 2\nvalue = [ 0.32062056  0.        ]", shape="box"] ;
84 -> 86 ;
87 [label="X[7] <= 12.4554\nentropy = 0.7465765938\nsamples = 31", shape="box"] ;
73 -> 87 ;
88 [label="X[2] <= 5.2025\nentropy = 0.548638989953\nsamples = 20", shape="box"] ;
87 -> 88 ;
89 [label="X[3] <= 3.9061\nentropy = 0.372934800382\nsamples = 13", shape="box"] ;
88 -> 89 ;
90 [label="X[7] <= 11.1113\nentropy = 0.306873118677\nsamples = 12", shape="box"] ;
89 -> 90 ;
91 [label="X[4] <= 7.2299\nentropy = 0.451863721413\nsamples = 9", shape="box"] ;
90 -> 91 ;
92 [label="entropy = 0.0000\nsamples = 4\nvalue = [ 0.80155139  0.        ]", shape="box"] ;
91 -> 92 ;
93 [label="X[1] <= 0.1121\nentropy = 0.12500457286\nsamples = 5", shape="box"] ;
91 -> 93 ;
94 [label="entropy = 0.0000\nsamples = 3\nvalue = [ 0.          7.35875889]", shape="box"] ;
93 -> 94 ;
95 [label="X[7] <= 6.9038\nentropy = 0.402725596255\nsamples = 2", shape="box"] ;
93 -> 95 ;
96 [label="entropy = 0.0000\nsamples = 1\nvalue = [ 0.16031028  0.        ]", shape="box"] ;
95 -> 96 ;
97 [label="entropy = -0.0000\nsamples = 1\nvalue = [ 0.          1.83968972]", shape="box"] ;
95 -> 97 ;
98 [label="entropy = 0.0000\nsamples = 3\nvalue = [ 0.          7.35875889]", shape="box"] ;
90 -> 98 ;
99 [label="entropy = -0.0000\nsamples = 1\nvalue = [ 0.32062056  0.        ]", shape="box"] ;
89 -> 99 ;
100 [label="entropy = -0.0000\nsamples = 7\nvalue = [ 1.12217195  0.        ]", shape="box"] ;
88 -> 100 ;
101 [label="X[4] <= 11.0166\nentropy = 0.980352576765\nsamples = 11", shape="box"] ;
87 -> 101 ;
102 [label="entropy = 0.0000\nsamples = 10\nvalue = [ 2.56496445  0.        ]", shape="box"] ;
101 -> 102 ;
103 [label="entropy = 0.0000\nsamples = 1\nvalue = [ 0.          1.83968972]", shape="box"] ;
101 -> 103 ;
104 [label="X[5] <= -28.6698\nentropy = 0.280112762081\nsamples = 144", shape="box"] ;
72 -> 104 ;
105 [label="X[8] <= 43.8551\nentropy = 0.736178400778\nsamples = 2", shape="box"] ;
104 -> 105 ;
106 [label="entropy = 0.0000\nsamples = 1\nvalue = [ 0.          1.83968972]", shape="box"] ;
105 -> 106 ;
107 [label="entropy = 0.0000\nsamples = 1\nvalue = [ 0.48093083  0.        ]", shape="box"] ;
105 -> 107 ;
108 [label="entropy = -0.0000\nsamples = 142\nvalue = [ 35.58888171   0.        ]", shape="box"] ;
104 -> 108 ;
109 [label="entropy = -0.0000\nsamples = 111\nvalue = [ 30.29864253   0.        ]", shape="box"] ;
55 -> 109 ;
110 [label="X[6] <= 2.3752\nentropy = 0.829562266548\nsamples = 43", shape="box"] ;
54 -> 110 ;
111 [label="entropy = 0.0000\nsamples = 11\nvalue = [ 3.52682612  0.        ]", shape="box"] ;
110 -> 111 ;
112 [label="X[6] <= 5.3211\nentropy = 0.677621980971\nsamples = 32", shape="box"] ;
110 -> 112 ;
113 [label="X[9] <= 36.6778\nentropy = 0.422265669564\nsamples = 17", shape="box"] ;
112 -> 113 ;
114 [label="entropy = 0.0000\nsamples = 5\nvalue = [ 0.96186167  0.        ]", shape="box"] ;
113 -> 114 ;
115 [label="X[3] <= 4.0248\nentropy = 0.290187958805\nsamples = 12", shape="box"] ;
113 -> 115 ;
116 [label="X[7] <= 1.6039\nentropy = 0.0662429711163\nsamples = 7", shape="box"] ;
115 -> 116 ;
117 [label="entropy = 0.0000\nsamples = 1\nvalue = [ 0.16031028  0.        ]", shape="box"] ;
116 -> 117 ;
118 [label="entropy = 0.0000\nsamples = 6\nvalue = [  0.          20.23658694]", shape="box"] ;
116 -> 118 ;
119 [label="X[0] <= 0.6797\nentropy = 0.784423302527\nsamples = 5", shape="box"] ;
115 -> 119 ;
120 [label="entropy = 0.0000\nsamples = 1\nvalue = [ 0.          3.67937944]", shape="box"] ;
119 -> 120 ;
121 [label="entropy = 0.0000\nsamples = 4\nvalue = [ 1.12217195  0.        ]", shape="box"] ;
119 -> 121 ;
122 [label="X[3] <= 4.1334\nentropy = 0.937037250099\nsamples = 15", shape="box"] ;
112 -> 122 ;
123 [label="entropy = 0.0000\nsamples = 14\nvalue = [ 3.36651584  0.        ]", shape="box"] ;
122 -> 123 ;
124 [label="entropy = 0.0000\nsamples = 1\nvalue = [ 0.          1.83968972]", shape="box"] ;
122 -> 124 ;
125 [label="X[2] <= 7.1302\nentropy = 0.837743290745\nsamples = 124", shape="box"] ;
3 -> 125 ;
126 [label="X[4] <= 30.6641\nentropy = 0.775982366547\nsamples = 104", shape="box"] ;
125 -> 126 ;
127 [label="X[1] <= 36.5487\nentropy = 0.645994829429\nsamples = 63", shape="box"] ;
126 -> 127 ;
128 [label="X[2] <= 6.0382\nentropy = 0.704818776775\nsamples = 59", shape="box"] ;
127 -> 128 ;
129 [label="X[3] <= 2.4881\nentropy = 0.647885393392\nsamples = 52", shape="box"] ;
128 -> 129 ;
130 [label="entropy = 0.0000\nsamples = 7\nvalue = [ 1.92372334  0.        ]", shape="box"] ;
129 -> 130 ;
131 [label="X[0] <= 1.4670\nentropy = 0.572558453132\nsamples = 45", shape="box"] ;
129 -> 131 ;
132 [label="X[0] <= 1.3880\nentropy = 0.487588854363\nsamples = 39", shape="box"] ;
131 -> 132 ;
133 [label="X[1] <= 0.2187\nentropy = 0.570722376458\nsamples = 35", shape="box"] ;
132 -> 133 ;
134 [label="X[0] <= 1.3186\nentropy = 0.416185743781\nsamples = 27", shape="box"] ;
133 -> 134 ;
135 [label="X[3] <= 3.3099\nentropy = 0.374551899161\nsamples = 26", shape="box"] ;
134 -> 135 ;
136 [label="X[1] <= -0.9522\nentropy = 0.708345952301\nsamples = 12", shape="box"] ;
135 -> 136 ;
137 [label="entropy = 0.0000\nsamples = 3\nvalue = [ 0.          5.51906917]", shape="box"] ;
136 -> 137 ;
138 [label="X[4] <= 25.9861\nentropy = 0.999676698982\nsamples = 9", shape="box"] ;
136 -> 138 ;
139 [label="entropy = 0.0000\nsamples = 7\nvalue = [ 1.4427925  0.       ]", shape="box"] ;
138 -> 139 ;
140 [label="X[8] <= 95.5290\nentropy = 0.605857377198\nsamples = 2", shape="box"] ;
138 -> 140 ;
141 [label="entropy = 0.0000\nsamples = 1\nvalue = [ 0.          1.83968972]", shape="box"] ;
140 -> 141 ;
142 [label="entropy = 0.0000\nsamples = 1\nvalue = [ 0.32062056  0.        ]", shape="box"] ;
140 -> 142 ;
143 [label="X[9] <= 52.5359\nentropy = 0.21253303172\nsamples = 14", shape="box"] ;
135 -> 143 ;
144 [label="X[9] <= 21.9198\nentropy = 0.0904856946443\nsamples = 12", shape="box"] ;
143 -> 144 ;
145 [label="entropy = 0.0000\nsamples = 7\nvalue = [  0.          20.23658694]", shape="box"] ;
144 -> 145 ;
146 [label="X[7] <= 35.8537\nentropy = 0.250262936125\nsamples = 5", shape="box"] ;
144 -> 146 ;
147 [label="X[6] <= 1.6392\nentropy = 0.148791905\nsamples = 4", shape="box"] ;
146 -> 147 ;
148 [label="entropy = 0.0000\nsamples = 1\nvalue = [ 0.16031028  0.        ]", shape="box"] ;
147 -> 148 ;
149 [label="entropy = -0.0000\nsamples = 3\nvalue = [ 0.          7.35875889]", shape="box"] ;
147 -> 149 ;
150 [label="entropy = -0.0000\nsamples = 1\nvalue = [ 0.16031028  0.        ]", shape="box"] ;
146 -> 150 ;
151 [label="entropy = 0.0000\nsamples = 2\nvalue = [ 0.64124111  0.        ]", shape="box"] ;
143 -> 151 ;
152 [label="entropy = -0.0000\nsamples = 1\nvalue = [ 0.48093083  0.        ]", shape="box"] ;
134 -> 152 ;
153 [label="entropy = -0.0000\nsamples = 8\nvalue = [ 2.24434389  0.        ]", shape="box"] ;
133 -> 153 ;
154 [label="entropy = 0.0000\nsamples = 4\nvalue = [  0.          11.03813833]", shape="box"] ;
132 -> 154 ;
155 [label="entropy = 0.0000\nsamples = 6\nvalue = [ 1.76341306  0.        ]", shape="box"] ;
131 -> 155 ;
156 [label="entropy = -0.0000\nsamples = 7\nvalue = [ 1.76341306  0.        ]", shape="box"] ;
128 -> 156 ;
157 [label="entropy = -0.0000\nsamples = 4\nvalue = [ 0.          9.19844861]", shape="box"] ;
127 -> 157 ;
158 [label="X[7] <= 3.0569\nentropy = 0.981119551903\nsamples = 41", shape="box"] ;
126 -> 158 ;
159 [label="X[9] <= 8.7532\nentropy = 0.814981125891\nsamples = 23", shape="box"] ;
158 -> 159 ;
160 [label="X[0] <= 0.5811\nentropy = 0.736178400778\nsamples = 3", shape="box"] ;
159 -> 160 ;
161 [label="entropy = 0.0000\nsamples = 1\nvalue = [ 0.          1.83968972]", shape="box"] ;
160 -> 161 ;
162 [label="entropy = 0.0000\nsamples = 2\nvalue = [ 0.48093083  0.        ]", shape="box"] ;
160 -> 162 ;
163 [label="entropy = 0.0000\nsamples = 20\nvalue = [ 4.96961862  0.        ]", shape="box"] ;
159 -> 163 ;
164 [label="X[8] <= 75.2783\nentropy = 0.824425679958\nsamples = 18", shape="box"] ;
158 -> 164 ;
165 [label="entropy = 0.0000\nsamples = 10\nvalue = [ 2.885585  0.      ]", shape="box"] ;
164 -> 165 ;
166 [label="X[1] <= 0.0161\nentropy = 0.402725596255\nsamples = 8", shape="box"] ;
164 -> 166 ;
167 [label="X[3] <= 3.5653\nentropy = 0.108204489729\nsamples = 5", shape="box"] ;
166 -> 167 ;
168 [label="entropy = 0.0000\nsamples = 4\nvalue = [  0.          11.03813833]", shape="box"] ;
167 -> 168 ;
169 [label="entropy = -0.0000\nsamples = 1\nvalue = [ 0.16031028  0.        ]", shape="box"] ;
167 -> 169 ;
170 [label="entropy = -0.0000\nsamples = 3\nvalue = [ 0.80155139  0.        ]", shape="box"] ;
166 -> 170 ;
171 [label="entropy = -0.0000\nsamples = 20\nvalue = [ 4.64899806  0.        ]", shape="box"] ;
125 -> 171 ;
172 [label="X[9] <= 188.2281\nentropy = 0.775359664105\nsamples = 206", shape="box"] ;
0 -> 172 ;
173 [label="X[5] <= 3.1533\nentropy = 0.23218073435\nsamples = 192", shape="box"] ;
172 -> 173 ;
174 [label="X[6] <= 3.4065\nentropy = 0.515882787087\nsamples = 62", shape="box"] ;
173 -> 174 ;
175 [label="X[9] <= 63.4604\nentropy = 0.885497661432\nsamples = 6", shape="box"] ;
174 -> 175 ;
176 [label="X[7] <= 3.9768\nentropy = 0.402725596255\nsamples = 2", shape="box"] ;
175 -> 176 ;
177 [label="entropy = 0.0000\nsamples = 1\nvalue = [ 0.16031028  0.        ]", shape="box"] ;
176 -> 177 ;
178 [label="entropy = -0.0000\nsamples = 1\nvalue = [ 0.          1.83968972]", shape="box"] ;
176 -> 178 ;
179 [label="entropy = -0.0000\nsamples = 4\nvalue = [ 0.64124111  0.        ]", shape="box"] ;
175 -> 179 ;
180 [label="entropy = 0.0000\nsamples = 56\nvalue = [ 13.30575307   0.        ]", shape="box"] ;
174 -> 180 ;
181 [label="entropy = -0.0000\nsamples = 130\nvalue = [ 32.7032967   0.       ]", shape="box"] ;
173 -> 181 ;
182 [label="X[8] <= 91.5000\nentropy = 0.686716671643\nsamples = 14", shape="box"] ;
172 -> 182 ;
183 [label="X[2] <= 1.6443\nentropy = 0.402725596255\nsamples = 7", shape="box"] ;
182 -> 183 ;
184 [label="entropy = 0.0000\nsamples = 4\nvalue = [  0.          12.87782805]", shape="box"] ;
183 -> 184 ;
185 [label="entropy = -0.0000\nsamples = 3\nvalue = [ 1.12217195  0.        ]", shape="box"] ;
183 -> 185 ;
186 [label="entropy = -0.0000\nsamples = 7\nvalue = [ 1.76341306  0.        ]", shape="box"] ;
182 -> 186 ;
}