digraph Tree {
0 [label="X[3] <= 4.0398\nentropy = 1.0\nsamples = 978", shape="box"] ;
1 [label="X[1] <= -0.0266\nentropy = 0.990364599882\nsamples = 746", shape="box"] ;
0 -> 1 ;
2 [label="X[1] <= -181.2708\nentropy = 0.696814795368\nsamples = 145", shape="box"] ;
1 -> 2 ;
3 [label="entropy = 0.0000\nsamples = 10\nvalue = [ 2.02714932  0.        ]", shape="box"] ;
2 -> 3 ;
4 [label="X[2] <= 5.1073\nentropy = 0.666667518478\nsamples = 135", shape="box"] ;
2 -> 4 ;
5 [label="X[3] <= 2.4822\nentropy = 0.580706728277\nsamples = 102", shape="box"] ;
4 -> 5 ;
6 [label="entropy = 0.0000\nsamples = 8\nvalue = [ 1.73755656  0.        ]", shape="box"] ;
5 -> 6 ;
7 [label="X[8] <= 56.6266\nentropy = 0.540557586005\nsamples = 94", shape="box"] ;
5 -> 7 ;
8 [label="X[2] <= 1.1306\nentropy = 0.146144494991\nsamples = 10", shape="box"] ;
7 -> 8 ;
9 [label="X[4] <= 20.4299\nentropy = 0.70089230816\nsamples = 3", shape="box"] ;
8 -> 9 ;
10 [label="entropy = 0.0000\nsamples = 2\nvalue = [ 0.43438914  0.        ]", shape="box"] ;
9 -> 10 ;
11 [label="entropy = -0.0000\nsamples = 1\nvalue = [ 0.          1.85520362]", shape="box"] ;
9 -> 11 ;
12 [label="entropy = 0.0000\nsamples = 7\nvalue = [  0.         18.5520362]", shape="box"] ;
8 -> 12 ;
13 [label="X[4] <= 3.2055\nentropy = 0.611142011412\nsamples = 84", shape="box"] ;
7 -> 13 ;
14 [label="X[7] <= 12.4984\nentropy = 0.249392518085\nsamples = 20", shape="box"] ;
13 -> 14 ;
15 [label="entropy = 0.0000\nsamples = 3\nvalue = [ 0.57918552  0.        ]", shape="box"] ;
14 -> 15 ;
16 [label="X[1] <= -0.1205\nentropy = 0.170541838185\nsamples = 17", shape="box"] ;
14 -> 16 ;
17 [label="entropy = 0.0000\nsamples = 10\nvalue = [  0.          25.97285068]", shape="box"] ;
16 -> 17 ;
18 [label="X[5] <= -0.6399\nentropy = 0.484039943486\nsamples = 7", shape="box"] ;
16 -> 18 ;
19 [label="entropy = 0.0000\nsamples = 4\nvalue = [ 0.86877828  0.        ]", shape="box"] ;
18 -> 19 ;
20 [label="entropy = 0.0000\nsamples = 3\nvalue = [ 0.          7.42081448]", shape="box"] ;
18 -> 20 ;
21 [label="X[2] <= -0.3391\nentropy = 0.7834050655\nsamples = 64", shape="box"] ;
13 -> 21 ;
22 [label="X[5] <= -10.6989\nentropy = 0.414246341037\nsamples = 18", shape="box"] ;
21 -> 22 ;
23 [label="entropy = 0.0000\nsamples = 5\nvalue = [ 1.4479638  0.       ]", shape="box"] ;
22 -> 23 ;
24 [label="X[1] <= -0.1820\nentropy = 0.170541838185\nsamples = 13", shape="box"] ;
22 -> 24 ;
25 [label="X[1] <= -0.2871\nentropy = 0.374810159398\nsamples = 8", shape="box"] ;
24 -> 25 ;
26 [label="X[9] <= 23.2790\nentropy = 0.136577216298\nsamples = 5", shape="box"] ;
25 -> 26 ;
27 [label="entropy = 0.0000\nsamples = 1\nvalue = [ 0.14479638  0.        ]", shape="box"] ;
26 -> 27 ;
28 [label="entropy = 0.0000\nsamples = 4\nvalue = [ 0.          7.42081448]", shape="box"] ;
26 -> 28 ;
29 [label="entropy = 0.0000\nsamples = 3\nvalue = [ 0.43438914  0.        ]", shape="box"] ;
25 -> 29 ;
30 [label="entropy = 0.0000\nsamples = 5\nvalue = [  0.          14.84162896]", shape="box"] ;
24 -> 30 ;
31 [label="X[5] <= 6.6939\nentropy = 0.971436985414\nsamples = 46", shape="box"] ;
21 -> 31 ;
32 [label="entropy = 0.0000\nsamples = 22\nvalue = [ 4.77828054  0.        ]", shape="box"] ;
31 -> 32 ;
33 [label="X[9] <= 19.0943\nentropy = 0.780421768264\nsamples = 24", shape="box"] ;
31 -> 33 ;
34 [label="entropy = 0.0000\nsamples = 7\nvalue = [ 1.59276018  0.        ]", shape="box"] ;
33 -> 34 ;
35 [label="X[5] <= 21.5717\nentropy = 0.613307156153\nsamples = 17", shape="box"] ;
33 -> 35 ;
36 [label="X[9] <= 31.1628\nentropy = 0.4976462903\nsamples = 13", shape="box"] ;
35 -> 36 ;
37 [label="X[5] <= 12.5045\nentropy = 0.206125906071\nsamples = 7", shape="box"] ;
36 -> 37 ;
38 [label="X[8] <= 90.4411\nentropy = 0.484039943486\nsamples = 3", shape="box"] ;
37 -> 38 ;
39 [label="entropy = 0.0000\nsamples = 1\nvalue = [ 0.          3.71040724]", shape="box"] ;
38 -> 39 ;
40 [label="entropy = 0.0000\nsamples = 2\nvalue = [ 0.43438914  0.        ]", shape="box"] ;
38 -> 40 ;
41 [label="entropy = 0.0000\nsamples = 4\nvalue = [ 0.         9.2760181]", shape="box"] ;
37 -> 41 ;
42 [label="entropy = -0.0000\nsamples = 6\nvalue = [ 1.15837104  0.        ]", shape="box"] ;
36 -> 42 ;
43 [label="entropy = 0.0000\nsamples = 4\nvalue = [ 0.7239819  0.       ]", shape="box"] ;
35 -> 43 ;
44 [label="X[3] <= 2.8952\nentropy = 0.97499152393\nsamples = 33", shape="box"] ;
4 -> 44 ;
45 [label="X[1] <= -0.0500\nentropy = 0.67281955609\nsamples = 11", shape="box"] ;
44 -> 45 ;
46 [label="X[7] <= 15.4673\nentropy = 0.484039943486\nsamples = 9", shape="box"] ;
45 -> 46 ;
47 [label="entropy = 0.0000\nsamples = 4\nvalue = [ 0.57918552  0.        ]", shape="box"] ;
46 -> 47 ;
48 [label="X[0] <= 1.7128\nentropy = 0.230984641829\nsamples = 5", shape="box"] ;
46 -> 48 ;
49 [label="X[3] <= 2.4665\nentropy = 0.136577216298\nsamples = 4", shape="box"] ;
48 -> 49 ;
50 [label="entropy = 0.0000\nsamples = 1\nvalue = [ 0.14479638  0.        ]", shape="box"] ;
49 -> 50 ;
51 [label="entropy = 0.0000\nsamples = 3\nvalue = [ 0.          7.42081448]", shape="box"] ;
49 -> 51 ;
52 [label="entropy = -0.0000\nsamples = 1\nvalue = [ 0.14479638  0.        ]", shape="box"] ;
48 -> 52 ;
53 [label="entropy = 0.0000\nsamples = 2\nvalue = [ 0.7239819  0.       ]", shape="box"] ;
45 -> 53 ;
54 [label="X[1] <= -10.5840\nentropy = 0.855004292063\nsamples = 22", shape="box"] ;
44 -> 54 ;
55 [label="entropy = 0.0000\nsamples = 1\nvalue = [ 0.          1.85520362]", shape="box"] ;
54 -> 55 ;
56 [label="entropy = -0.0000\nsamples = 21\nvalue = [ 4.77828054  0.        ]", shape="box"] ;
54 -> 56 ;
57 [label="X[1] <= 0.4717\nentropy = 0.983560913079\nsamples = 601", shape="box"] ;
1 -> 57 ;
58 [label="X[3] <= 3.9557\nentropy = 0.996398288986\nsamples = 487", shape="box"] ;
57 -> 58 ;
59 [label="X[3] <= 3.7183\nentropy = 0.976334694232\nsamples = 468", shape="box"] ;
58 -> 59 ;
60 [label="X[9] <= 24.2549\nentropy = 0.99064064486\nsamples = 409", shape="box"] ;
59 -> 60 ;
61 [label="X[4] <= 9.7063\nentropy = 0.987041374865\nsamples = 210", shape="box"] ;
60 -> 61 ;
62 [label="X[5] <= 7.8593\nentropy = 0.873270680996\nsamples = 116", shape="box"] ;
61 -> 62 ;
63 [label="X[0] <= 1.0890\nentropy = 0.496144091934\nsamples = 67", shape="box"] ;
62 -> 63 ;
64 [label="entropy = 0.0000\nsamples = 42\nvalue = [ 10.85972851   0.        ]", shape="box"] ;
63 -> 64 ;
65 [label="X[6] <= 1.1589\nentropy = 0.880396811\nsamples = 25", shape="box"] ;
63 -> 65 ;
66 [label="entropy = 0.0000\nsamples = 1\nvalue = [ 0.          1.85520362]", shape="box"] ;
65 -> 66 ;
67 [label="entropy = 0.0000\nsamples = 24\nvalue = [ 4.3438914  0.       ]", shape="box"] ;
65 -> 67 ;
68 [label="X[4] <= 0.8704\nentropy = 0.991153481864\nsamples = 49", shape="box"] ;
62 -> 68 ;
69 [label="X[2] <= -1.6842\nentropy = 0.67281955609\nsamples = 11", shape="box"] ;
68 -> 69 ;
70 [label="entropy = 0.0000\nsamples = 1\nvalue = [ 0.28959276  0.        ]", shape="box"] ;
69 -> 70 ;
71 [label="X[4] <= 0.5007\nentropy = 0.60828053768\nsamples = 10", shape="box"] ;
69 -> 71 ;
72 [label="X[9] <= 13.2668\nentropy = 0.826637398892\nsamples = 8", shape="box"] ;
71 -> 72 ;
73 [label="X[4] <= -4.4928\nentropy = 0.374810159398\nsamples = 4", shape="box"] ;
72 -> 73 ;
74 [label="entropy = 0.0000\nsamples = 1\nvalue = [ 0.          1.85520362]", shape="box"] ;
73 -> 74 ;
75 [label="X[2] <= 2.6764\nentropy = 0.571049491942\nsamples = 3", shape="box"] ;
73 -> 75 ;
76 [label="entropy = 0.0000\nsamples = 1\nvalue = [ 0.          1.85520362]", shape="box"] ;
75 -> 76 ;
77 [label="entropy = -0.0000\nsamples = 2\nvalue = [ 0.28959276  0.        ]", shape="box"] ;
75 -> 77 ;
78 [label="entropy = -0.0000\nsamples = 4\nvalue = [ 1.01357466  0.        ]", shape="box"] ;
72 -> 78 ;
79 [label="entropy = 0.0000\nsamples = 2\nvalue = [ 0.          3.71040724]", shape="box"] ;
71 -> 79 ;
80 [label="X[8] <= 97.9875\nentropy = 0.626132941394\nsamples = 38", shape="box"] ;
68 -> 80 ;
81 [label="entropy = 0.0000\nsamples = 32\nvalue = [ 8.68778281  0.        ]", shape="box"] ;
80 -> 81 ;
82 [label="X[5] <= 14.1593\nentropy = 0.977849356278\nsamples = 6", shape="box"] ;
80 -> 82 ;
83 [label="X[6] <= 2.5664\nentropy = 0.70089230816\nsamples = 3", shape="box"] ;
82 -> 83 ;
84 [label="entropy = 0.0000\nsamples = 2\nvalue = [ 0.43438914  0.        ]", shape="box"] ;
83 -> 84 ;
85 [label="entropy = -0.0000\nsamples = 1\nvalue = [ 0.          1.85520362]", shape="box"] ;
83 -> 85 ;
86 [label="entropy = -0.0000\nsamples = 3\nvalue = [ 0.86877828  0.        ]", shape="box"] ;
82 -> 86 ;
87 [label="X[2] <= 6.8909\nentropy = 0.862387804278\nsamples = 94", shape="box"] ;
61 -> 87 ;
88 [label="X[1] <= 0.0056\nentropy = 0.745051986647\nsamples = 72", shape="box"] ;
87 -> 88 ;
89 [label="X[3] <= 3.0430\nentropy = 0.999226379669\nsamples = 16", shape="box"] ;
88 -> 89 ;
90 [label="entropy = 0.0000\nsamples = 11\nvalue = [ 2.75113122  0.        ]", shape="box"] ;
89 -> 90 ;
91 [label="X[3] <= 3.5277\nentropy = 0.642064289231\nsamples = 5", shape="box"] ;
89 -> 91 ;
92 [label="entropy = 0.0000\nsamples = 2\nvalue = [ 0.          3.71040724]", shape="box"] ;
91 -> 92 ;
93 [label="entropy = 0.0000\nsamples = 3\nvalue = [ 0.7239819  0.       ]", shape="box"] ;
91 -> 93 ;
94 [label="X[3] <= 2.3956\nentropy = 0.673991875413\nsamples = 56", shape="box"] ;
88 -> 94 ;
95 [label="entropy = 0.0000\nsamples = 6\nvalue = [ 1.88235294  0.        ]", shape="box"] ;
94 -> 95 ;
96 [label="X[4] <= 40.3071\nentropy = 0.606860563897\nsamples = 50", shape="box"] ;
94 -> 96 ;
97 [label="X[7] <= 4.1589\nentropy = 0.564739745692\nsamples = 46", shape="box"] ;
96 -> 97 ;
98 [label="X[3] <= 2.6992\nentropy = 0.889270461201\nsamples = 25", shape="box"] ;
97 -> 98 ;
99 [label="entropy = 0.0000\nsamples = 8\nvalue = [ 1.59276018  0.        ]", shape="box"] ;
98 -> 99 ;
100 [label="X[4] <= 16.2504\nentropy = 0.778512770458\nsamples = 17", shape="box"] ;
98 -> 100 ;
101 [label="entropy = 0.0000\nsamples = 9\nvalue = [ 2.31674208  0.        ]", shape="box"] ;
100 -> 101 ;
102 [label="X[6] <= 2.3525\nentropy = 0.414246341037\nsamples = 8", shape="box"] ;
100 -> 102 ;
103 [label="X[6] <= 1.1845\nentropy = 0.936991485442\nsamples = 5", shape="box"] ;
102 -> 103 ;
104 [label="entropy = 0.0000\nsamples = 1\nvalue = [ 0.          1.85520362]", shape="box"] ;
103 -> 104 ;
105 [label="entropy = 0.0000\nsamples = 4\nvalue = [ 1.01357466  0.        ]", shape="box"] ;
103 -> 105 ;
106 [label="entropy = 0.0000\nsamples = 3\nvalue = [ 0.         9.2760181]", shape="box"] ;
102 -> 106 ;
107 [label="X[1] <= 0.0915\nentropy = 0.319619281439\nsamples = 21", shape="box"] ;
97 -> 107 ;
108 [label="X[7] <= 18.1803\nentropy = 0.0654382859584\nsamples = 7", shape="box"] ;
107 -> 108 ;
109 [label="entropy = 0.0000\nsamples = 5\nvalue = [  0.          14.84162896]", shape="box"] ;
108 -> 109 ;
110 [label="X[0] <= 0.4447\nentropy = 0.230984641829\nsamples = 2", shape="box"] ;
108 -> 110 ;
111 [label="entropy = 0.0000\nsamples = 1\nvalue = [ 0.          3.71040724]", shape="box"] ;
110 -> 111 ;
112 [label="entropy = -0.0000\nsamples = 1\nvalue = [ 0.14479638  0.        ]", shape="box"] ;
110 -> 112 ;
113 [label="X[7] <= 11.1582\nentropy = 0.494659972494\nsamples = 14", shape="box"] ;
107 -> 113 ;
114 [label="entropy = 0.0000\nsamples = 3\nvalue = [ 0.7239819  0.       ]", shape="box"] ;
113 -> 114 ;
115 [label="X[3] <= 2.6910\nentropy = 0.374810159398\nsamples = 11", shape="box"] ;
113 -> 115 ;
116 [label="entropy = 0.0000\nsamples = 3\nvalue = [ 0.43438914  0.        ]", shape="box"] ;
115 -> 116 ;
117 [label="X[8] <= 75.1292\nentropy = 0.28409454629\nsamples = 8", shape="box"] ;
115 -> 117 ;
118 [label="entropy = 0.0000\nsamples = 4\nvalue = [  0.          11.13122172]", shape="box"] ;
117 -> 118 ;
119 [label="X[0] <= 0.7963\nentropy = 0.571049491942\nsamples = 4", shape="box"] ;
117 -> 119 ;
120 [label="entropy = 0.0000\nsamples = 3\nvalue = [ 0.86877828  0.        ]", shape="box"] ;
119 -> 120 ;
121 [label="entropy = 0.0000\nsamples = 1\nvalue = [ 0.          5.56561086]", shape="box"] ;
119 -> 121 ;
122 [label="entropy = 0.0000\nsamples = 4\nvalue = [ 1.01357466  0.        ]", shape="box"] ;
96 -> 122 ;
123 [label="entropy = -0.0000\nsamples = 22\nvalue = [ 6.5158371  0.       ]", shape="box"] ;
87 -> 123 ;
124 [label="X[7] <= 11.1702\nentropy = 0.724539036451\nsamples = 199", shape="box"] ;
60 -> 124 ;
125 [label="X[0] <= 1.1239\nentropy = 0.852232246296\nsamples = 135", shape="box"] ;
124 -> 125 ;
126 [label="X[3] <= 3.1008\nentropy = 0.920823473128\nsamples = 102", shape="box"] ;
125 -> 126 ;
127 [label="X[9] <= 39.6528\nentropy = 0.998219826958\nsamples = 38", shape="box"] ;
126 -> 127 ;
128 [label="entropy = 0.0000\nsamples = 24\nvalue = [ 5.50226244  0.        ]", shape="box"] ;
127 -> 128 ;
129 [label="X[6] <= 6.7785\nentropy = 0.791561171484\nsamples = 14", shape="box"] ;
127 -> 129 ;
130 [label="X[3] <= 3.0873\nentropy = 0.965106163482\nsamples = 12", shape="box"] ;
129 -> 130 ;
131 [label="entropy = 0.0000\nsamples = 11\nvalue = [ 2.8959276  0.       ]", shape="box"] ;
130 -> 131 ;
132 [label="entropy = -0.0000\nsamples = 1\nvalue = [ 0.          1.85520362]", shape="box"] ;
130 -> 132 ;
133 [label="entropy = 0.0000\nsamples = 2\nvalue = [ 0.          7.42081448]", shape="box"] ;
129 -> 133 ;
134 [label="X[9] <= 150.0695\nentropy = 0.529226293542\nsamples = 64", shape="box"] ;
126 -> 134 ;
135 [label="entropy = 0.0000\nsamples = 63\nvalue = [ 13.61085973   0.        ]", shape="box"] ;
134 -> 135 ;
136 [label="entropy = 0.0000\nsamples = 1\nvalue = [ 0.          1.85520362]", shape="box"] ;
134 -> 136 ;
137 [label="entropy = 0.0000\nsamples = 33\nvalue = [ 6.95022624  0.        ]", shape="box"] ;
125 -> 137 ;
138 [label="entropy = 0.0000\nsamples = 64\nvalue = [ 15.20361991   0.        ]", shape="box"] ;
124 -> 138 ;
139 [label="entropy = -0.0000\nsamples = 59\nvalue = [ 13.32126697   0.        ]", shape="box"] ;
59 -> 139 ;
140 [label="X[1] <= 0.1009\nentropy = 0.509647903659\nsamples = 19", shape="box"] ;
58 -> 140 ;
141 [label="entropy = 0.0000\nsamples = 11\nvalue = [ 2.46153846  0.        ]", shape="box"] ;
140 -> 141 ;
142 [label="X[5] <= 16.6020\nentropy = 0.0604964361442\nsamples = 8", shape="box"] ;
140 -> 142 ;
143 [label="entropy = 0.0000\nsamples = 7\nvalue = [  0.          20.40723982]", shape="box"] ;
142 -> 143 ;
144 [label="entropy = -0.0000\nsamples = 1\nvalue = [ 0.14479638  0.        ]", shape="box"] ;
142 -> 144 ;
145 [label="X[9] <= 7.8212\nentropy = 0.667602613645\nsamples = 114", shape="box"] ;
57 -> 145 ;
146 [label="X[3] <= 2.7765\nentropy = 0.815582568766\nsamples = 11", shape="box"] ;
145 -> 146 ;
147 [label="entropy = 0.0000\nsamples = 2\nvalue = [ 0.          5.56561086]", shape="box"] ;
146 -> 147 ;
148 [label="entropy = 0.0000\nsamples = 9\nvalue = [ 1.88235294  0.        ]", shape="box"] ;
146 -> 148 ;
149 [label="entropy = 0.0000\nsamples = 103\nvalue = [ 24.47058824   0.        ]", shape="box"] ;
145 -> 149 ;
150 [label="X[3] <= 4.5173\nentropy = 0.672970736191\nsamples = 232", shape="box"] ;
0 -> 150 ;
151 [label="entropy = 0.0000\nsamples = 172\nvalue = [ 40.54298643   0.        ]", shape="box"] ;
150 -> 151 ;
152 [label="X[6] <= 35.8033\nentropy = 0.999961938073\nsamples = 60", shape="box"] ;
150 -> 152 ;
153 [label="X[9] <= 56.4341\nentropy = 0.915041498244\nsamples = 57", shape="box"] ;
152 -> 153 ;
154 [label="X[9] <= 53.3398\nentropy = 0.972956530185\nsamples = 21", shape="box"] ;
153 -> 154 ;
155 [label="entropy = 0.0000\nsamples = 16\nvalue = [ 3.47511312  0.        ]", shape="box"] ;
154 -> 155 ;
156 [label="X[2] <= 3.8642\nentropy = 0.28409454629\nsamples = 5", shape="box"] ;
154 -> 156 ;
157 [label="entropy = 0.0000\nsamples = 3\nvalue = [ 0.          5.56561086]", shape="box"] ;
156 -> 157 ;
158 [label="entropy = -0.0000\nsamples = 2\nvalue = [ 0.28959276  0.        ]", shape="box"] ;
156 -> 158 ;
159 [label="entropy = -0.0000\nsamples = 36\nvalue = [ 7.52941176  0.        ]", shape="box"] ;
153 -> 159 ;
160 [label="entropy = 0.0000\nsamples = 3\nvalue = [ 0.          5.56561086]", shape="box"] ;
152 -> 160 ;
}