digraph Tree {
0 [label="X[4] <= 16.5066\nentropy = 1.0\nsamples = 986", shape="box"] ;
1 [label="X[7] <= 3.3409\nentropy = 0.983217846811\nsamples = 820", shape="box"] ;
0 -> 1 ;
2 [label="X[9] <= 202.5628\nentropy = 0.340873472007\nsamples = 200", shape="box"] ;
1 -> 2 ;
3 [label="X[5] <= 2.6219\nentropy = 0.208454482331\nsamples = 198", shape="box"] ;
2 -> 3 ;
4 [label="X[7] <= 2.1774\nentropy = 0.490620846664\nsamples = 54", shape="box"] ;
3 -> 4 ;
5 [label="entropy = 0.0000\nsamples = 46\nvalue = [ 13.08985133   0.        ]", shape="box"] ;
4 -> 5 ;
6 [label="X[7] <= 2.3355\nentropy = 0.99227315037\nsamples = 8", shape="box"] ;
4 -> 6 ;
7 [label="entropy = 0.0000\nsamples = 1\nvalue = [ 0.         1.8383969]", shape="box"] ;
6 -> 7 ;
8 [label="entropy = 0.0000\nsamples = 7\nvalue = [ 2.26244344  0.        ]", shape="box"] ;
6 -> 8 ;
9 [label="entropy = 0.0000\nsamples = 144\nvalue = [ 38.78474467   0.        ]", shape="box"] ;
3 -> 9 ;
10 [label="X[9] <= 263.3006\nentropy = 0.404997228352\nsamples = 2", shape="box"] ;
2 -> 10 ;
11 [label="entropy = 0.0000\nsamples = 1\nvalue = [ 0.         1.8383969]", shape="box"] ;
10 -> 11 ;
12 [label="entropy = 0.0000\nsamples = 1\nvalue = [ 0.1616031  0.       ]", shape="box"] ;
10 -> 12 ;
13 [label="X[1] <= 0.4811\nentropy = 0.999992946609\nsamples = 620", shape="box"] ;
1 -> 13 ;
14 [label="X[2] <= 5.3160\nentropy = 0.996364367655\nsamples = 539", shape="box"] ;
13 -> 14 ;
15 [label="X[4] <= -0.5807\nentropy = 0.95313152665\nsamples = 357", shape="box"] ;
14 -> 15 ;
16 [label="X[1] <= 0.0580\nentropy = 0.619119423779\nsamples = 27", shape="box"] ;
15 -> 16 ;
17 [label="X[2] <= -1.6551\nentropy = 0.387288287438\nsamples = 16", shape="box"] ;
16 -> 17 ;
18 [label="entropy = 0.0000\nsamples = 4\nvalue = [ 0.80801551  0.        ]", shape="box"] ;
17 -> 18 ;
19 [label="X[4] <= -1.6320\nentropy = 0.28682244878\nsamples = 12", shape="box"] ;
17 -> 19 ;
20 [label="entropy = 0.0000\nsamples = 2\nvalue = [ 0.80801551  0.        ]", shape="box"] ;
19 -> 20 ;
21 [label="X[6] <= 9.8622\nentropy = 0.157450428978\nsamples = 10", shape="box"] ;
19 -> 21 ;
22 [label="entropy = 0.0000\nsamples = 1\nvalue = [ 0.32320621  0.        ]", shape="box"] ;
21 -> 22 ;
23 [label="X[8] <= 52.0192\nentropy = 0.0911252186628\nsamples = 9", shape="box"] ;
21 -> 23 ;
24 [label="entropy = 0.0000\nsamples = 1\nvalue = [ 0.1616031  0.       ]", shape="box"] ;
23 -> 24 ;
25 [label="X[4] <= -1.4417\nentropy = 0.0516297260194\nsamples = 8", shape="box"] ;
23 -> 25 ;
26 [label="X[9] <= 15.8765\nentropy = 0.251846865524\nsamples = 2", shape="box"] ;
25 -> 26 ;
27 [label="entropy = 0.0000\nsamples = 1\nvalue = [ 0.          3.67679379]", shape="box"] ;
26 -> 27 ;
28 [label="entropy = -0.0000\nsamples = 1\nvalue = [ 0.1616031  0.       ]", shape="box"] ;
26 -> 28 ;
29 [label="entropy = 0.0000\nsamples = 6\nvalue = [  0.          23.89915966]", shape="box"] ;
25 -> 29 ;
30 [label="entropy = 0.0000\nsamples = 11\nvalue = [ 2.74725275  0.        ]", shape="box"] ;
16 -> 30 ;
31 [label="X[3] <= 4.0199\nentropy = 0.978534172281\nsamples = 330", shape="box"] ;
15 -> 31 ;
32 [label="X[0] <= 0.4604\nentropy = 0.923585700055\nsamples = 233", shape="box"] ;
31 -> 32 ;
33 [label="entropy = 0.0000\nsamples = 24\nvalue = [ 5.9793148  0.       ]", shape="box"] ;
32 -> 33 ;
34 [label="X[0] <= 0.5768\nentropy = 0.893387206813\nsamples = 209", shape="box"] ;
32 -> 34 ;
35 [label="X[1] <= 0.0950\nentropy = 0.430329427874\nsamples = 13", shape="box"] ;
34 -> 35 ;
36 [label="entropy = 0.0000\nsamples = 3\nvalue = [ 0.80801551  0.        ]", shape="box"] ;
35 -> 36 ;
37 [label="X[7] <= 12.2775\nentropy = 0.28682244878\nsamples = 10", shape="box"] ;
35 -> 37 ;
38 [label="X[5] <= 4.1264\nentropy = 0.125866496993\nsamples = 8", shape="box"] ;
37 -> 38 ;
39 [label="X[5] <= -24.4829\nentropy = 0.404997228352\nsamples = 3", shape="box"] ;
38 -> 39 ;
40 [label="entropy = 0.0000\nsamples = 1\nvalue = [ 0.          3.67679379]", shape="box"] ;
39 -> 40 ;
41 [label="entropy = -0.0000\nsamples = 2\nvalue = [ 0.32320621  0.        ]", shape="box"] ;
39 -> 41 ;
42 [label="entropy = 0.0000\nsamples = 5\nvalue = [  0.          14.70717518]", shape="box"] ;
38 -> 42 ;
43 [label="entropy = 0.0000\nsamples = 2\nvalue = [ 0.64641241  0.        ]", shape="box"] ;
37 -> 43 ;
44 [label="X[3] <= 3.3165\nentropy = 0.932254832521\nsamples = 196", shape="box"] ;
34 -> 44 ;
45 [label="X[2] <= 1.8565\nentropy = 0.997303566735\nsamples = 121", shape="box"] ;
44 -> 45 ;
46 [label="entropy = 0.0000\nsamples = 35\nvalue = [ 8.72656755  0.        ]", shape="box"] ;
45 -> 46 ;
47 [label="X[7] <= 5.4073\nentropy = 0.990169218822\nsamples = 86", shape="box"] ;
45 -> 47 ;
48 [label="X[1] <= 0.1579\nentropy = 0.689535178147\nsamples = 15", shape="box"] ;
47 -> 48 ;
49 [label="X[5] <= -0.1498\nentropy = 0.404997228352\nsamples = 9", shape="box"] ;
48 -> 49 ;
50 [label="entropy = 0.0000\nsamples = 2\nvalue = [ 0.48480931  0.        ]", shape="box"] ;
49 -> 50 ;
51 [label="X[3] <= 2.4095\nentropy = 0.277100324369\nsamples = 7", shape="box"] ;
49 -> 51 ;
52 [label="entropy = 0.0000\nsamples = 1\nvalue = [ 0.32320621  0.        ]", shape="box"] ;
51 -> 52 ;
53 [label="X[9] <= 15.9303\nentropy = 0.16601182521\nsamples = 6", shape="box"] ;
51 -> 53 ;
54 [label="entropy = 0.0000\nsamples = 1\nvalue = [ 0.          5.51519069]", shape="box"] ;
53 -> 54 ;
55 [label="X[9] <= 18.9901\nentropy = 0.251846865524\nsamples = 5", shape="box"] ;
53 -> 55 ;
56 [label="entropy = 0.0000\nsamples = 1\nvalue = [ 0.1616031  0.       ]", shape="box"] ;
55 -> 56 ;
57 [label="X[6] <= 2.8832\nentropy = 0.149801179226\nsamples = 4", shape="box"] ;
55 -> 57 ;
58 [label="entropy = 0.0000\nsamples = 1\nvalue = [ 0.1616031  0.       ]", shape="box"] ;
57 -> 58 ;
59 [label="entropy = -0.0000\nsamples = 3\nvalue = [ 0.          7.35358759]", shape="box"] ;
57 -> 59 ;
60 [label="entropy = 0.0000\nsamples = 6\nvalue = [ 1.77763413  0.        ]", shape="box"] ;
48 -> 60 ;
61 [label="X[5] <= 4.6510\nentropy = 0.983447834664\nsamples = 71", shape="box"] ;
47 -> 61 ;
62 [label="entropy = 0.0000\nsamples = 33\nvalue = [ 9.37297996  0.        ]", shape="box"] ;
61 -> 62 ;
63 [label="X[4] <= 7.4068\nentropy = 0.961973324321\nsamples = 38", shape="box"] ;
61 -> 63 ;
64 [label="X[3] <= 2.5172\nentropy = 0.753664147084\nsamples = 22", shape="box"] ;
63 -> 64 ;
65 [label="entropy = 0.0000\nsamples = 4\nvalue = [ 1.13122172  0.        ]", shape="box"] ;
64 -> 65 ;
66 [label="X[0] <= 0.6885\nentropy = 0.630730044702\nsamples = 18", shape="box"] ;
64 -> 66 ;
67 [label="entropy = 0.0000\nsamples = 3\nvalue = [ 0.48480931  0.        ]", shape="box"] ;
66 -> 67 ;
68 [label="X[8] <= 106.7859\nentropy = 0.560061347183\nsamples = 15", shape="box"] ;
66 -> 68 ;
69 [label="X[4] <= 2.8844\nentropy = 0.366174618979\nsamples = 10", shape="box"] ;
68 -> 69 ;
70 [label="entropy = 0.0000\nsamples = 2\nvalue = [ 0.48480931  0.        ]", shape="box"] ;
69 -> 70 ;
71 [label="X[7] <= 8.4343\nentropy = 0.225088930044\nsamples = 8", shape="box"] ;
69 -> 71 ;
72 [label="entropy = 0.0000\nsamples = 2\nvalue = [ 0.32320621  0.        ]", shape="box"] ;
71 -> 72 ;
73 [label="X[5] <= 12.7511\nentropy = 0.0963264244859\nsamples = 6", shape="box"] ;
71 -> 73 ;
74 [label="entropy = 0.0000\nsamples = 3\nvalue = [ 0.          9.19198449]", shape="box"] ;
73 -> 74 ;
75 [label="X[2] <= 5.2393\nentropy = 0.251846865524\nsamples = 3", shape="box"] ;
73 -> 75 ;
76 [label="entropy = 0.0000\nsamples = 2\nvalue = [ 0.          3.67679379]", shape="box"] ;
75 -> 76 ;
77 [label="entropy = -0.0000\nsamples = 1\nvalue = [ 0.1616031  0.       ]", shape="box"] ;
75 -> 77 ;
78 [label="entropy = 0.0000\nsamples = 5\nvalue = [ 0.96961862  0.        ]", shape="box"] ;
68 -> 78 ;
79 [label="entropy = 0.0000\nsamples = 16\nvalue = [ 4.52488688  0.        ]", shape="box"] ;
63 -> 79 ;
80 [label="X[3] <= 3.3445\nentropy = 0.702690801164\nsamples = 75", shape="box"] ;
44 -> 80 ;
81 [label="X[4] <= 5.5023\nentropy = 0.0721407028691\nsamples = 5", shape="box"] ;
80 -> 81 ;
82 [label="entropy = 0.0000\nsamples = 2\nvalue = [  0.          11.03038138]", shape="box"] ;
81 -> 82 ;
83 [label="X[4] <= 6.5199\nentropy = 0.149801179226\nsamples = 3", shape="box"] ;
81 -> 83 ;
84 [label="entropy = 0.0000\nsamples = 1\nvalue = [ 0.1616031  0.       ]", shape="box"] ;
83 -> 84 ;
85 [label="entropy = 0.0000\nsamples = 2\nvalue = [ 0.          7.35358759]", shape="box"] ;
83 -> 85 ;
86 [label="X[6] <= 2.5507\nentropy = 0.834865083214\nsamples = 70", shape="box"] ;
80 -> 86 ;
87 [label="entropy = 0.0000\nsamples = 13\nvalue = [ 2.74725275  0.        ]", shape="box"] ;
86 -> 87 ;
88 [label="X[4] <= 3.7119\nentropy = 0.75603786258\nsamples = 57", shape="box"] ;
86 -> 88 ;
89 [label="X[3] <= 3.4789\nentropy = 0.944795919929\nsamples = 17", shape="box"] ;
88 -> 89 ;
90 [label="entropy = 0.0000\nsamples = 1\nvalue = [ 0.         1.8383969]", shape="box"] ;
89 -> 90 ;
91 [label="entropy = 0.0000\nsamples = 16\nvalue = [ 3.23206206  0.        ]", shape="box"] ;
89 -> 91 ;
92 [label="X[6] <= 3.1970\nentropy = 0.635733122941\nsamples = 40", shape="box"] ;
88 -> 92 ;
93 [label="X[3] <= 3.9506\nentropy = 0.0963264244859\nsamples = 5", shape="box"] ;
92 -> 93 ;
94 [label="entropy = 0.0000\nsamples = 4\nvalue = [  0.          12.86877828]", shape="box"] ;
93 -> 94 ;
95 [label="entropy = -0.0000\nsamples = 1\nvalue = [ 0.1616031  0.       ]", shape="box"] ;
93 -> 95 ;
96 [label="X[1] <= -0.0971\nentropy = 0.795679296503\nsamples = 35", shape="box"] ;
92 -> 96 ;
97 [label="entropy = 0.0000\nsamples = 2\nvalue = [  0.          11.03038138]", shape="box"] ;
96 -> 97 ;
98 [label="X[4] <= 8.5770\nentropy = 0.990169218822\nsamples = 33", shape="box"] ;
96 -> 98 ;
99 [label="X[6] <= 8.3185\nentropy = 0.860104795656\nsamples = 21", shape="box"] ;
98 -> 99 ;
100 [label="X[7] <= 53.5623\nentropy = 0.680442669785\nsamples = 13", shape="box"] ;
99 -> 100 ;
101 [label="X[9] <= 64.9882\nentropy = 0.887702903791\nsamples = 11", shape="box"] ;
100 -> 101 ;
102 [label="entropy = 0.0000\nsamples = 9\nvalue = [ 1.61603103  0.        ]", shape="box"] ;
101 -> 102 ;
103 [label="entropy = -0.0000\nsamples = 2\nvalue = [ 0.          3.67679379]", shape="box"] ;
101 -> 103 ;
104 [label="entropy = 0.0000\nsamples = 2\nvalue = [ 0.          3.67679379]", shape="box"] ;
100 -> 104 ;
105 [label="entropy = 0.0000\nsamples = 8\nvalue = [ 1.29282482  0.        ]", shape="box"] ;
99 -> 105 ;
106 [label="entropy = 0.0000\nsamples = 12\nvalue = [ 2.90885585  0.        ]", shape="box"] ;
98 -> 106 ;
107 [label="X[6] <= 5.0585\nentropy = 0.788967502056\nsamples = 97", shape="box"] ;
31 -> 107 ;
108 [label="X[0] <= 0.9239\nentropy = 0.93810048235\nsamples = 20", shape="box"] ;
107 -> 108 ;
109 [label="X[2] <= 3.9349\nentropy = 0.680442669785\nsamples = 9", shape="box"] ;
108 -> 109 ;
110 [label="X[8] <= 111.2375\nentropy = 0.465824190515\nsamples = 6", shape="box"] ;
109 -> 110 ;
111 [label="X[5] <= 1.6396\nentropy = 0.149801179226\nsamples = 3", shape="box"] ;
110 -> 111 ;
112 [label="entropy = 0.0000\nsamples = 1\nvalue = [ 0.1616031  0.       ]", shape="box"] ;
111 -> 112 ;
113 [label="entropy = 0.0000\nsamples = 2\nvalue = [ 0.          7.35358759]", shape="box"] ;
111 -> 113 ;
114 [label="entropy = -0.0000\nsamples = 3\nvalue = [ 0.64641241  0.        ]", shape="box"] ;
110 -> 114 ;
115 [label="entropy = 0.0000\nsamples = 3\nvalue = [ 0.80801551  0.        ]", shape="box"] ;
109 -> 115 ;
116 [label="entropy = -0.0000\nsamples = 11\nvalue = [ 2.42404654  0.        ]", shape="box"] ;
108 -> 116 ;
117 [label="entropy = 0.0000\nsamples = 77\nvalue = [ 19.71557854   0.        ]", shape="box"] ;
107 -> 117 ;
118 [label="X[4] <= 3.8547\nentropy = 0.667991962905\nsamples = 182", shape="box"] ;
14 -> 118 ;
119 [label="X[1] <= 0.0302\nentropy = 0.980798364694\nsamples = 59", shape="box"] ;
118 -> 119 ;
120 [label="X[5] <= 7.3283\nentropy = 0.826966128427\nsamples = 16", shape="box"] ;
119 -> 120 ;
121 [label="entropy = 0.0000\nsamples = 9\nvalue = [ 1.77763413  0.        ]", shape="box"] ;
120 -> 121 ;
122 [label="X[6] <= 21.4693\nentropy = 0.465824190515\nsamples = 7", shape="box"] ;
120 -> 122 ;
123 [label="X[6] <= 6.8517\nentropy = 0.251846865524\nsamples = 5", shape="box"] ;
122 -> 123 ;
124 [label="entropy = 0.0000\nsamples = 2\nvalue = [ 0.32320621  0.        ]", shape="box"] ;
123 -> 124 ;
125 [label="entropy = 0.0000\nsamples = 3\nvalue = [ 0.          7.35358759]", shape="box"] ;
123 -> 125 ;
126 [label="entropy = -0.0000\nsamples = 2\nvalue = [ 0.48480931  0.        ]", shape="box"] ;
122 -> 126 ;
127 [label="X[1] <= 0.1835\nentropy = 0.617180043133\nsamples = 43", shape="box"] ;
119 -> 127 ;
128 [label="entropy = 0.0000\nsamples = 26\nvalue = [ 6.46412411  0.        ]", shape="box"] ;
127 -> 128 ;
129 [label="X[1] <= 0.1858\nentropy = 0.915872260977\nsamples = 17", shape="box"] ;
127 -> 129 ;
130 [label="entropy = 0.0000\nsamples = 1\nvalue = [ 0.         1.8383969]", shape="box"] ;
129 -> 130 ;
131 [label="entropy = 0.0000\nsamples = 16\nvalue = [ 3.71687136  0.        ]", shape="box"] ;
129 -> 131 ;
132 [label="entropy = 0.0000\nsamples = 123\nvalue = [ 30.70458953   0.        ]", shape="box"] ;
118 -> 132 ;
133 [label="entropy = 0.0000\nsamples = 81\nvalue = [ 19.39237233   0.        ]", shape="box"] ;
13 -> 133 ;
134 [label="X[4] <= 54.4935\nentropy = 0.865786787923\nsamples = 166", shape="box"] ;
0 -> 134 ;
135 [label="X[3] <= 3.8889\nentropy = 0.810540837463\nsamples = 138", shape="box"] ;
134 -> 135 ;
136 [label="X[3] <= 2.4719\nentropy = 0.738954203539\nsamples = 119", shape="box"] ;
135 -> 136 ;
137 [label="entropy = 0.0000\nsamples = 12\nvalue = [ 2.74725275  0.        ]", shape="box"] ;
136 -> 137 ;
138 [label="X[3] <= 2.7916\nentropy = 0.696850448807\nsamples = 107", shape="box"] ;
136 -> 138 ;
139 [label="X[7] <= -1.6040\nentropy = 0.404997228352\nsamples = 18", shape="box"] ;
138 -> 139 ;
140 [label="entropy = 0.0000\nsamples = 5\nvalue = [ 1.29282482  0.        ]", shape="box"] ;
139 -> 140 ;
141 [label="X[7] <= 18.9382\nentropy = 0.225088930044\nsamples = 13", shape="box"] ;
139 -> 141 ;
142 [label="X[3] <= 2.6394\nentropy = 0.0621098542932\nsamples = 9", shape="box"] ;
141 -> 142 ;
143 [label="X[5] <= -11.2613\nentropy = 0.251846865524\nsamples = 3", shape="box"] ;
142 -> 143 ;
144 [label="entropy = 0.0000\nsamples = 2\nvalue = [ 0.          3.67679379]", shape="box"] ;
143 -> 144 ;
145 [label="entropy = -0.0000\nsamples = 1\nvalue = [ 0.1616031  0.       ]", shape="box"] ;
143 -> 145 ;
146 [label="entropy = 0.0000\nsamples = 6\nvalue = [  0.          18.38396897]", shape="box"] ;
142 -> 146 ;
147 [label="X[0] <= 0.8243\nentropy = 0.680442669785\nsamples = 4", shape="box"] ;
141 -> 147 ;
148 [label="entropy = 0.0000\nsamples = 3\nvalue = [ 0.80801551  0.        ]", shape="box"] ;
147 -> 148 ;
149 [label="entropy = 0.0000\nsamples = 1\nvalue = [ 0.          3.67679379]", shape="box"] ;
147 -> 149 ;
150 [label="X[0] <= 1.4556\nentropy = 0.773028989039\nsamples = 89", shape="box"] ;
138 -> 150 ;
151 [label="X[9] <= 10.4651\nentropy = 0.745490029888\nsamples = 83", shape="box"] ;
150 -> 151 ;
152 [label="X[7] <= -13.8778\nentropy = 0.979321255102\nsamples = 12", shape="box"] ;
151 -> 152 ;
153 [label="X[8] <= 72.1977\nentropy = 0.404997228352\nsamples = 2", shape="box"] ;
152 -> 153 ;
154 [label="entropy = 0.0000\nsamples = 1\nvalue = [ 0.1616031  0.       ]", shape="box"] ;
153 -> 154 ;
155 [label="entropy = 0.0000\nsamples = 1\nvalue = [ 0.         1.8383969]", shape="box"] ;
153 -> 155 ;
156 [label="entropy = -0.0000\nsamples = 10\nvalue = [ 2.42404654  0.        ]", shape="box"] ;
152 -> 156 ;
157 [label="X[1] <= 0.2636\nentropy = 0.698649195624\nsamples = 71", shape="box"] ;
151 -> 157 ;
158 [label="X[2] <= 5.2082\nentropy = 0.618786142\nsamples = 58", shape="box"] ;
157 -> 158 ;
159 [label="X[5] <= -0.0731\nentropy = 0.404997228352\nsamples = 34", shape="box"] ;
158 -> 159 ;
160 [label="X[0] <= 0.9064\nentropy = 0.977988987588\nsamples = 10", shape="box"] ;
159 -> 160 ;
161 [label="entropy = 0.0000\nsamples = 6\nvalue = [ 2.10084034  0.        ]", shape="box"] ;
160 -> 161 ;
162 [label="X[3] <= 3.3254\nentropy = 0.519203572743\nsamples = 4", shape="box"] ;
160 -> 162 ;
163 [label="entropy = 0.0000\nsamples = 2\nvalue = [ 0.48480931  0.        ]", shape="box"] ;
162 -> 163 ;
164 [label="entropy = -0.0000\nsamples = 2\nvalue = [ 0.          3.67679379]", shape="box"] ;
162 -> 164 ;
165 [label="X[9] <= 16.2805\nentropy = 0.229480271765\nsamples = 24", shape="box"] ;
159 -> 165 ;
166 [label="entropy = 0.0000\nsamples = 7\nvalue = [  0.          22.06076277]", shape="box"] ;
165 -> 166 ;
167 [label="X[5] <= 3.6950\nentropy = 0.363047905608\nsamples = 17", shape="box"] ;
165 -> 167 ;
168 [label="entropy = 0.0000\nsamples = 2\nvalue = [ 0.80801551  0.        ]", shape="box"] ;
167 -> 168 ;
169 [label="X[3] <= 3.5457\nentropy = 0.237639260051\nsamples = 15", shape="box"] ;
167 -> 169 ;
170 [label="entropy = 0.0000\nsamples = 5\nvalue = [  0.          11.03038138]", shape="box"] ;
169 -> 170 ;
171 [label="X[9] <= 18.3354\nentropy = 0.366174618979\nsamples = 10", shape="box"] ;
169 -> 171 ;
172 [label="entropy = 0.0000\nsamples = 1\nvalue = [ 0.32320621  0.        ]", shape="box"] ;
171 -> 172 ;
173 [label="X[7] <= 4.3298\nentropy = 0.277100324369\nsamples = 9", shape="box"] ;
171 -> 173 ;
174 [label="entropy = 0.0000\nsamples = 2\nvalue = [ 0.32320621  0.        ]", shape="box"] ;
173 -> 174 ;
175 [label="X[6] <= 1.6536\nentropy = 0.16601182521\nsamples = 7", shape="box"] ;
173 -> 175 ;
176 [label="entropy = 0.0000\nsamples = 1\nvalue = [ 0.1616031  0.       ]", shape="box"] ;
175 -> 176 ;
177 [label="X[2] <= 2.5863\nentropy = 0.0963264244859\nsamples = 6", shape="box"] ;
175 -> 177 ;
178 [label="entropy = 0.0000\nsamples = 5\nvalue = [  0.          12.86877828]", shape="box"] ;
177 -> 178 ;
179 [label="entropy = 0.0000\nsamples = 1\nvalue = [ 0.1616031  0.       ]", shape="box"] ;
177 -> 179 ;
180 [label="X[5] <= 7.2883\nentropy = 0.992322626958\nsamples = 24", shape="box"] ;
158 -> 180 ;
181 [label="X[1] <= 0.1320\nentropy = 0.56648207496\nsamples = 7", shape="box"] ;
180 -> 181 ;
182 [label="entropy = 0.0000\nsamples = 5\nvalue = [ 1.13122172  0.        ]", shape="box"] ;
181 -> 182 ;
183 [label="entropy = 0.0000\nsamples = 2\nvalue = [ 0.          7.35358759]", shape="box"] ;
181 -> 183 ;
184 [label="entropy = 0.0000\nsamples = 17\nvalue = [ 4.84809308  0.        ]", shape="box"] ;
180 -> 184 ;
185 [label="entropy = 0.0000\nsamples = 13\nvalue = [ 2.90885585  0.        ]", shape="box"] ;
157 -> 185 ;
186 [label="entropy = -0.0000\nsamples = 6\nvalue = [ 1.45442793  0.        ]", shape="box"] ;
150 -> 186 ;
187 [label="entropy = 0.0000\nsamples = 19\nvalue = [ 5.8177117  0.       ]", shape="box"] ;
135 -> 187 ;
188 [label="X[5] <= 16.4169\nentropy = 0.747422227518\nsamples = 28", shape="box"] ;
134 -> 188 ;
189 [label="entropy = 0.0000\nsamples = 23\nvalue = [ 5.17129929  0.        ]", shape="box"] ;
188 -> 189 ;
190 [label="X[5] <= 20.8681\nentropy = 0.997008914332\nsamples = 5", shape="box"] ;
188 -> 190 ;
191 [label="entropy = 0.0000\nsamples = 1\nvalue = [ 0.         1.8383969]", shape="box"] ;
190 -> 191 ;
192 [label="entropy = 0.0000\nsamples = 4\nvalue = [ 1.61603103  0.        ]", shape="box"] ;
190 -> 192 ;
}