digraph Tree {
0 [label="X[7] <= 21.8464\nentropy = 1.0\nsamples = 990", shape="box"] ;
1 [label="X[1] <= -0.0266\nentropy = 0.996140674777\nsamples = 938", shape="box"] ;
0 -> 1 ;
2 [label="X[8] <= 48.8948\nentropy = 0.918658570734\nsamples = 210", shape="box"] ;
1 -> 2 ;
3 [label="entropy = 0.0000\nsamples = 19\nvalue = [ 4.18875242  0.        ]", shape="box"] ;
2 -> 3 ;
4 [label="X[3] <= 3.9471\nentropy = 0.893769335087\nsamples = 191", shape="box"] ;
2 -> 4 ;
5 [label="X[3] <= 2.4831\nentropy = 0.762373631618\nsamples = 121", shape="box"] ;
4 -> 5 ;
6 [label="entropy = 0.0000\nsamples = 6\nvalue = [ 1.39625081  0.        ]", shape="box"] ;
5 -> 6 ;
7 [label="X[8] <= 104.4421\nentropy = 0.74315304142\nsamples = 115", shape="box"] ;
5 -> 7 ;
8 [label="X[9] <= 19.3002\nentropy = 0.557588638502\nsamples = 42", shape="box"] ;
7 -> 8 ;
9 [label="X[9] <= 15.3602\nentropy = 0.888822287287\nsamples = 27", shape="box"] ;
8 -> 9 ;
10 [label="X[5] <= 3.4885\nentropy = 0.649570135892\nsamples = 15", shape="box"] ;
9 -> 10 ;
11 [label="entropy = 0.0000\nsamples = 5\nvalue = [ 1.55138979  0.        ]", shape="box"] ;
10 -> 11 ;
12 [label="X[2] <= 2.7401\nentropy = 0.424432033536\nsamples = 10", shape="box"] ;
10 -> 12 ;
13 [label="entropy = 0.0000\nsamples = 1\nvalue = [ 0.46541694  0.        ]", shape="box"] ;
12 -> 13 ;
14 [label="X[2] <= 7.4017\nentropy = 0.324770020437\nsamples = 9", shape="box"] ;
12 -> 14 ;
15 [label="X[0] <= 1.1754\nentropy = 0.243893247635\nsamples = 8", shape="box"] ;
14 -> 15 ;
16 [label="X[0] <= 0.7558\nentropy = 0.393556693818\nsamples = 5", shape="box"] ;
15 -> 16 ;
17 [label="entropy = 0.0000\nsamples = 3\nvalue = [ 0.          7.37944409]", shape="box"] ;
16 -> 17 ;
18 [label="entropy = -0.0000\nsamples = 2\nvalue = [ 0.62055591  0.        ]", shape="box"] ;
16 -> 18 ;
19 [label="entropy = 0.0000\nsamples = 3\nvalue = [ 0.          7.37944409]", shape="box"] ;
15 -> 19 ;
20 [label="entropy = -0.0000\nsamples = 1\nvalue = [ 0.31027796  0.        ]", shape="box"] ;
14 -> 20 ;
21 [label="entropy = -0.0000\nsamples = 12\nvalue = [ 3.56819651  0.        ]", shape="box"] ;
9 -> 21 ;
22 [label="X[2] <= 1.6538\nentropy = 0.173229612158\nsamples = 15", shape="box"] ;
8 -> 22 ;
23 [label="entropy = 0.0000\nsamples = 7\nvalue = [  0.          23.98319328]", shape="box"] ;
22 -> 23 ;
24 [label="X[3] <= 2.8586\nentropy = 0.393556693818\nsamples = 8", shape="box"] ;
22 -> 24 ;
25 [label="entropy = 0.0000\nsamples = 1\nvalue = [ 0.          9.22430511]", shape="box"] ;
24 -> 25 ;
26 [label="X[5] <= 13.6457\nentropy = 0.920300944257\nsamples = 7", shape="box"] ;
24 -> 26 ;
27 [label="entropy = 0.0000\nsamples = 5\nvalue = [ 0.77569489  0.        ]", shape="box"] ;
26 -> 27 ;
28 [label="X[1] <= -0.3548\nentropy = 0.393556693818\nsamples = 2", shape="box"] ;
26 -> 28 ;
29 [label="entropy = 0.0000\nsamples = 1\nvalue = [ 0.          1.84486102]", shape="box"] ;
28 -> 29 ;
30 [label="entropy = -0.0000\nsamples = 1\nvalue = [ 0.15513898  0.        ]", shape="box"] ;
28 -> 30 ;
31 [label="X[5] <= 20.5982\nentropy = 0.890141902452\nsamples = 73", shape="box"] ;
7 -> 31 ;
32 [label="X[8] <= 130.9717\nentropy = 0.833548855012\nsamples = 63", shape="box"] ;
31 -> 32 ;
33 [label="entropy = 0.0000\nsamples = 26\nvalue = [ 6.20555915  0.        ]", shape="box"] ;
32 -> 33 ;
34 [label="X[1] <= -1.1505\nentropy = 0.603247261541\nsamples = 37", shape="box"] ;
32 -> 34 ;
35 [label="entropy = 0.0000\nsamples = 6\nvalue = [ 1.39625081  0.        ]", shape="box"] ;
34 -> 35 ;
36 [label="X[2] <= 4.0830\nentropy = 0.516810160507\nsamples = 31", shape="box"] ;
34 -> 36 ;
37 [label="X[6] <= 43.7828\nentropy = 0.407538936409\nsamples = 25", shape="box"] ;
36 -> 37 ;
38 [label="X[2] <= -1.7173\nentropy = 0.316455004545\nsamples = 21", shape="box"] ;
37 -> 38 ;
39 [label="entropy = 0.0000\nsamples = 6\nvalue = [  0.          14.75888817]", shape="box"] ;
38 -> 39 ;
40 [label="X[5] <= -18.4732\nentropy = 0.464372897601\nsamples = 15", shape="box"] ;
38 -> 40 ;
41 [label="entropy = 0.0000\nsamples = 2\nvalue = [ 0.62055591  0.        ]", shape="box"] ;
40 -> 41 ;
42 [label="X[7] <= -0.1323\nentropy = 0.367259359003\nsamples = 13", shape="box"] ;
40 -> 42 ;
43 [label="entropy = 0.0000\nsamples = 2\nvalue = [ 0.          7.37944409]", shape="box"] ;
42 -> 43 ;
44 [label="X[1] <= -0.0673\nentropy = 0.505948983849\nsamples = 11", shape="box"] ;
42 -> 44 ;
45 [label="X[2] <= -0.5318\nentropy = 0.393556693818\nsamples = 9", shape="box"] ;
44 -> 45 ;
46 [label="entropy = 0.0000\nsamples = 3\nvalue = [ 0.46541694  0.        ]", shape="box"] ;
45 -> 46 ;
47 [label="X[6] <= 11.2928\nentropy = 0.243893247635\nsamples = 6", shape="box"] ;
45 -> 47 ;
48 [label="entropy = 0.0000\nsamples = 1\nvalue = [ 0.15513898  0.        ]", shape="box"] ;
47 -> 48 ;
49 [label="X[0] <= 1.6314\nentropy = 0.180492712056\nsamples = 5", shape="box"] ;
47 -> 49 ;
50 [label="entropy = 0.0000\nsamples = 3\nvalue = [ 0.          9.22430511]", shape="box"] ;
49 -> 50 ;
51 [label="X[3] <= 2.5817\nentropy = 0.594545293643\nsamples = 2", shape="box"] ;
49 -> 51 ;
52 [label="entropy = 0.0000\nsamples = 1\nvalue = [ 0.31027796  0.        ]", shape="box"] ;
51 -> 52 ;
53 [label="entropy = 0.0000\nsamples = 1\nvalue = [ 0.          1.84486102]", shape="box"] ;
51 -> 53 ;
54 [label="entropy = 0.0000\nsamples = 2\nvalue = [ 0.46541694  0.        ]", shape="box"] ;
44 -> 54 ;
55 [label="entropy = -0.0000\nsamples = 4\nvalue = [ 0.93083387  0.        ]", shape="box"] ;
37 -> 55 ;
56 [label="entropy = -0.0000\nsamples = 6\nvalue = [ 1.39625081  0.        ]", shape="box"] ;
36 -> 56 ;
57 [label="entropy = 0.0000\nsamples = 10\nvalue = [ 2.79250162  0.        ]", shape="box"] ;
31 -> 57 ;
58 [label="entropy = -0.0000\nsamples = 70\nvalue = [ 13.8073691   0.       ]", shape="box"] ;
4 -> 58 ;
59 [label="X[2] <= 5.7776\nentropy = 0.950408515839\nsamples = 728", shape="box"] ;
1 -> 59 ;
60 [label="X[8] <= 118.9395\nentropy = 0.993482399214\nsamples = 475", shape="box"] ;
59 -> 60 ;
61 [label="X[9] <= 20.6207\nentropy = 0.999885109292\nsamples = 390", shape="box"] ;
60 -> 61 ;
62 [label="X[0] <= 1.1991\nentropy = 0.913004479476\nsamples = 119", shape="box"] ;
61 -> 62 ;
63 [label="X[2] <= 3.8475\nentropy = 0.976061155121\nsamples = 105", shape="box"] ;
62 -> 63 ;
64 [label="X[2] <= 3.6350\nentropy = 0.883137827421\nsamples = 57", shape="box"] ;
63 -> 64 ;
65 [label="X[9] <= 11.1467\nentropy = 0.999905748491\nsamples = 49", shape="box"] ;
64 -> 65 ;
66 [label="X[3] <= 2.4389\nentropy = 0.594545293643\nsamples = 12", shape="box"] ;
65 -> 66 ;
67 [label="entropy = 0.0000\nsamples = 4\nvalue = [ 0.93083387  0.        ]", shape="box"] ;
66 -> 67 ;
68 [label="X[6] <= 1.0018\nentropy = 0.33937084562\nsamples = 8", shape="box"] ;
66 -> 68 ;
69 [label="entropy = 0.0000\nsamples = 1\nvalue = [ 0.31027796  0.        ]", shape="box"] ;
68 -> 69 ;
70 [label="X[2] <= -7.1744\nentropy = 0.206985715729\nsamples = 7", shape="box"] ;
68 -> 70 ;
71 [label="entropy = 0.0000\nsamples = 1\nvalue = [ 0.15513898  0.        ]", shape="box"] ;
70 -> 71 ;
72 [label="X[1] <= 0.0071\nentropy = 0.121547622806\nsamples = 6", shape="box"] ;
70 -> 72 ;
73 [label="entropy = 0.0000\nsamples = 1\nvalue = [ 0.15513898  0.        ]", shape="box"] ;
72 -> 73 ;
74 [label="entropy = 0.0000\nsamples = 5\nvalue = [ 0.          9.22430511]", shape="box"] ;
72 -> 74 ;
75 [label="X[9] <= 20.4111\nentropy = 0.631394736738\nsamples = 37", shape="box"] ;
65 -> 75 ;
76 [label="entropy = 0.0000\nsamples = 36\nvalue = [ 9.77375566  0.        ]", shape="box"] ;
75 -> 76 ;
77 [label="entropy = -0.0000\nsamples = 1\nvalue = [ 0.          1.84486102]", shape="box"] ;
75 -> 77 ;
78 [label="X[0] <= 0.6927\nentropy = 0.223774079623\nsamples = 8", shape="box"] ;
64 -> 78 ;
79 [label="X[3] <= 2.7825\nentropy = 0.813968135715\nsamples = 3", shape="box"] ;
78 -> 79 ;
80 [label="entropy = 0.0000\nsamples = 1\nvalue = [ 0.          1.84486102]", shape="box"] ;
79 -> 80 ;
81 [label="entropy = 0.0000\nsamples = 2\nvalue = [ 0.62055591  0.        ]", shape="box"] ;
79 -> 81 ;
82 [label="entropy = -0.0000\nsamples = 5\nvalue = [  0.          14.75888817]", shape="box"] ;
78 -> 82 ;
83 [label="X[7] <= 3.6380\nentropy = 0.847222132293\nsamples = 48", shape="box"] ;
63 -> 83 ;
84 [label="X[5] <= 11.6695\nentropy = 0.990964233746\nsamples = 19", shape="box"] ;
83 -> 84 ;
85 [label="entropy = 0.0000\nsamples = 12\nvalue = [ 2.1719457  0.       ]", shape="box"] ;
84 -> 85 ;
86 [label="X[0] <= 0.5202\nentropy = 0.666125410875\nsamples = 7", shape="box"] ;
84 -> 86 ;
87 [label="entropy = 0.0000\nsamples = 3\nvalue = [ 0.46541694  0.        ]", shape="box"] ;
86 -> 87 ;
88 [label="X[8] <= 64.9240\nentropy = 0.393556693818\nsamples = 4", shape="box"] ;
86 -> 88 ;
89 [label="entropy = 0.0000\nsamples = 2\nvalue = [ 0.          3.68972204]", shape="box"] ;
88 -> 89 ;
90 [label="entropy = -0.0000\nsamples = 2\nvalue = [ 0.31027796  0.        ]", shape="box"] ;
88 -> 90 ;
91 [label="entropy = -0.0000\nsamples = 29\nvalue = [ 6.82611506  0.        ]", shape="box"] ;
83 -> 91 ;
92 [label="X[1] <= 0.0504\nentropy = 0.447063702467\nsamples = 14", shape="box"] ;
62 -> 92 ;
93 [label="entropy = 0.0000\nsamples = 6\nvalue = [ 1.39625081  0.        ]", shape="box"] ;
92 -> 93 ;
94 [label="X[9] <= 12.7090\nentropy = 0.132041198917\nsamples = 8", shape="box"] ;
92 -> 94 ;
95 [label="entropy = 0.0000\nsamples = 2\nvalue = [ 0.31027796  0.        ]", shape="box"] ;
94 -> 95 ;
96 [label="entropy = 0.0000\nsamples = 6\nvalue = [  0.          16.60374919]", shape="box"] ;
94 -> 96 ;
97 [label="X[4] <= 12.5723\nentropy = 0.948435978511\nsamples = 271", shape="box"] ;
61 -> 97 ;
98 [label="X[1] <= 0.2965\nentropy = 0.974718039595\nsamples = 231", shape="box"] ;
97 -> 98 ;
99 [label="X[9] <= 44.7578\nentropy = 0.999999911502\nsamples = 166", shape="box"] ;
98 -> 99 ;
100 [label="X[1] <= 0.0855\nentropy = 0.744342841836\nsamples = 83", shape="box"] ;
99 -> 100 ;
101 [label="entropy = 0.0000\nsamples = 38\nvalue = [ 10.39431157   0.        ]", shape="box"] ;
100 -> 101 ;
102 [label="X[4] <= 3.7115\nentropy = 0.934845195649\nsamples = 45", shape="box"] ;
100 -> 102 ;
103 [label="entropy = 0.0000\nsamples = 21\nvalue = [ 5.1195863  0.       ]", shape="box"] ;
102 -> 103 ;
104 [label="X[1] <= 0.1065\nentropy = 0.998905275965\nsamples = 24", shape="box"] ;
102 -> 104 ;
105 [label="X[3] <= 3.9069\nentropy = 0.180492712056\nsamples = 4", shape="box"] ;
104 -> 105 ;
106 [label="entropy = 0.0000\nsamples = 3\nvalue = [ 0.          5.53458306]", shape="box"] ;
105 -> 106 ;
107 [label="entropy = -0.0000\nsamples = 1\nvalue = [ 0.15513898  0.        ]", shape="box"] ;
105 -> 107 ;
108 [label="entropy = -0.0000\nsamples = 20\nvalue = [ 4.96444732  0.        ]", shape="box"] ;
104 -> 108 ;
109 [label="X[0] <= 0.5732\nentropy = 0.926571647363\nsamples = 83", shape="box"] ;
99 -> 109 ;
110 [label="entropy = 0.0000\nsamples = 2\nvalue = [ 0.          7.37944409]", shape="box"] ;
109 -> 110 ;
111 [label="X[3] <= 4.5236\nentropy = 0.973511756333\nsamples = 81", shape="box"] ;
109 -> 111 ;
112 [label="X[1] <= -0.0008\nentropy = 0.996518023428\nsamples = 59", shape="box"] ;
111 -> 112 ;
113 [label="entropy = 0.0000\nsamples = 15\nvalue = [ 3.72333549  0.        ]", shape="box"] ;
112 -> 113 ;
114 [label="X[0] <= 0.8478\nentropy = 0.99230253296\nsamples = 44", shape="box"] ;
112 -> 114 ;
115 [label="entropy = 0.0000\nsamples = 18\nvalue = [ 3.56819651  0.        ]", shape="box"] ;
114 -> 115 ;
116 [label="X[5] <= -5.7082\nentropy = 0.91400628069\nsamples = 26", shape="box"] ;
114 -> 116 ;
117 [label="entropy = 0.0000\nsamples = 1\nvalue = [ 0.          3.68972204]", shape="box"] ;
116 -> 117 ;
118 [label="X[7] <= 6.9786\nentropy = 0.9832249275\nsamples = 25", shape="box"] ;
116 -> 118 ;
119 [label="X[3] <= 4.0456\nentropy = 0.724828473227\nsamples = 14", shape="box"] ;
118 -> 119 ;
120 [label="X[6] <= 4.5357\nentropy = 0.324770020437\nsamples = 7", shape="box"] ;
119 -> 120 ;
121 [label="entropy = 0.0000\nsamples = 4\nvalue = [ 0.          7.37944409]", shape="box"] ;
120 -> 121 ;
122 [label="entropy = -0.0000\nsamples = 3\nvalue = [ 0.46541694  0.        ]", shape="box"] ;
120 -> 122 ;
123 [label="entropy = -0.0000\nsamples = 7\nvalue = [ 1.39625081  0.        ]", shape="box"] ;
119 -> 123 ;
124 [label="entropy = -0.0000\nsamples = 11\nvalue = [ 3.56819651  0.        ]", shape="box"] ;
118 -> 124 ;
125 [label="X[4] <= 0.9112\nentropy = 0.753701843558\nsamples = 22", shape="box"] ;
111 -> 125 ;
126 [label="X[8] <= 57.1544\nentropy = 0.546352015666\nsamples = 13", shape="box"] ;
125 -> 126 ;
127 [label="entropy = 0.0000\nsamples = 5\nvalue = [ 1.24111183  0.        ]", shape="box"] ;
126 -> 127 ;
128 [label="X[2] <= 3.8084\nentropy = 0.268497830089\nsamples = 8", shape="box"] ;
126 -> 128 ;
129 [label="X[3] <= 4.5294\nentropy = 0.0929535288788\nsamples = 6", shape="box"] ;
128 -> 129 ;
130 [label="X[5] <= 1.5781\nentropy = 0.393556693818\nsamples = 2", shape="box"] ;
129 -> 130 ;
131 [label="entropy = 0.0000\nsamples = 1\nvalue = [ 0.          1.84486102]", shape="box"] ;
130 -> 131 ;
132 [label="entropy = -0.0000\nsamples = 1\nvalue = [ 0.15513898  0.        ]", shape="box"] ;
130 -> 132 ;
133 [label="entropy = 0.0000\nsamples = 4\nvalue = [  0.          11.06916613]", shape="box"] ;
129 -> 133 ;
134 [label="entropy = -0.0000\nsamples = 2\nvalue = [ 0.46541694  0.        ]", shape="box"] ;
128 -> 134 ;
135 [label="entropy = -0.0000\nsamples = 9\nvalue = [ 1.70652877  0.        ]", shape="box"] ;
125 -> 135 ;
136 [label="entropy = -0.0000\nsamples = 65\nvalue = [ 16.91014867   0.        ]", shape="box"] ;
98 -> 136 ;
137 [label="entropy = 0.0000\nsamples = 40\nvalue = [ 9.77375566  0.        ]", shape="box"] ;
97 -> 137 ;
138 [label="X[2] <= 5.7660\nentropy = 0.71902452285\nsamples = 85", shape="box"] ;
60 -> 138 ;
139 [label="X[3] <= 4.1022\nentropy = 0.3889397228\nsamples = 84", shape="box"] ;
138 -> 139 ;
140 [label="entropy = 0.0000\nsamples = 61\nvalue = [ 16.7550097   0.       ]", shape="box"] ;
139 -> 140 ;
141 [label="X[2] <= -3.9325\nentropy = 0.808578086532\nsamples = 23", shape="box"] ;
139 -> 141 ;
142 [label="entropy = 0.0000\nsamples = 1\nvalue = [ 0.          1.84486102]", shape="box"] ;
141 -> 142 ;
143 [label="entropy = 0.0000\nsamples = 22\nvalue = [ 5.58500323  0.        ]", shape="box"] ;
141 -> 143 ;
144 [label="entropy = 0.0000\nsamples = 1\nvalue = [ 0.          3.68972204]", shape="box"] ;
138 -> 144 ;
145 [label="X[4] <= 0.6997\nentropy = 0.563682161051\nsamples = 253", shape="box"] ;
59 -> 145 ;
146 [label="X[4] <= -0.0256\nentropy = 0.95108103488\nsamples = 16", shape="box"] ;
145 -> 146 ;
147 [label="entropy = 0.0000\nsamples = 10\nvalue = [ 2.48222366  0.        ]", shape="box"] ;
146 -> 147 ;
148 [label="X[3] <= 3.6083\nentropy = 0.537712435521\nsamples = 6", shape="box"] ;
146 -> 148 ;
149 [label="entropy = 0.0000\nsamples = 4\nvalue = [ 0.77569489  0.        ]", shape="box"] ;
148 -> 149 ;
150 [label="entropy = 0.0000\nsamples = 2\nvalue = [ 0.          5.53458306]", shape="box"] ;
148 -> 150 ;
151 [label="X[4] <= 11.0713\nentropy = 0.329627402125\nsamples = 237", shape="box"] ;
145 -> 151 ;
152 [label="entropy = 0.0000\nsamples = 172\nvalue = [ 42.1978022   0.       ]", shape="box"] ;
151 -> 152 ;
153 [label="X[9] <= 23.7063\nentropy = 0.715702985807\nsamples = 65", shape="box"] ;
151 -> 153 ;
154 [label="entropy = 0.0000\nsamples = 37\nvalue = [ 9.61861668  0.        ]", shape="box"] ;
153 -> 154 ;
155 [label="X[3] <= 3.3228\nentropy = 0.973574078925\nsamples = 28", shape="box"] ;
153 -> 155 ;
156 [label="X[6] <= 3.5782\nentropy = 0.773443860559\nsamples = 9", shape="box"] ;
155 -> 156 ;
157 [label="X[1] <= 0.2535\nentropy = 0.393556693818\nsamples = 4", shape="box"] ;
156 -> 157 ;
158 [label="entropy = 0.0000\nsamples = 2\nvalue = [ 0.          3.68972204]", shape="box"] ;
157 -> 158 ;
159 [label="entropy = -0.0000\nsamples = 2\nvalue = [ 0.31027796  0.        ]", shape="box"] ;
157 -> 159 ;
160 [label="entropy = -0.0000\nsamples = 5\nvalue = [ 0.77569489  0.        ]", shape="box"] ;
156 -> 160 ;
161 [label="entropy = 0.0000\nsamples = 19\nvalue = [ 4.3438914  0.       ]", shape="box"] ;
155 -> 161 ;
162 [label="X[8] <= 80.7559\nentropy = 0.729856943036\nsamples = 52", shape="box"] ;
0 -> 162 ;
163 [label="X[7] <= 23.7199\nentropy = 0.842799134295\nsamples = 21", shape="box"] ;
162 -> 163 ;
164 [label="X[1] <= 53.0392\nentropy = 0.920300944257\nsamples = 6", shape="box"] ;
163 -> 164 ;
165 [label="entropy = 0.0000\nsamples = 5\nvalue = [ 0.93083387  0.        ]", shape="box"] ;
164 -> 165 ;
166 [label="entropy = 0.0000\nsamples = 1\nvalue = [ 0.          1.84486102]", shape="box"] ;
164 -> 166 ;
167 [label="entropy = 0.0000\nsamples = 15\nvalue = [ 4.03361345  0.        ]", shape="box"] ;
163 -> 167 ;
168 [label="X[0] <= 1.2009\nentropy = 0.525299223897\nsamples = 31", shape="box"] ;
162 -> 168 ;
169 [label="X[0] <= 0.7581\nentropy = 0.348855095998\nsamples = 22", shape="box"] ;
168 -> 169 ;
170 [label="X[9] <= 37.4331\nentropy = 0.837239783118\nsamples = 11", shape="box"] ;
169 -> 170 ;
171 [label="X[7] <= 22.3040\nentropy = 0.998569390928\nsamples = 9", shape="box"] ;
170 -> 171 ;
172 [label="entropy = 0.0000\nsamples = 1\nvalue = [ 0.          1.84486102]", shape="box"] ;
171 -> 172 ;
173 [label="entropy = -0.0000\nsamples = 8\nvalue = [ 2.01680672  0.        ]", shape="box"] ;
171 -> 173 ;
174 [label="entropy = 0.0000\nsamples = 2\nvalue = [ 0.          3.68972204]", shape="box"] ;
170 -> 174 ;
175 [label="X[3] <= 3.9350\nentropy = 0.0879226343929\nsamples = 11", shape="box"] ;
169 -> 175 ;
176 [label="X[1] <= -1.6406\nentropy = 0.0497588912551\nsamples = 10", shape="box"] ;
175 -> 176 ;
177 [label="entropy = 0.0000\nsamples = 1\nvalue = [ 0.15513898  0.        ]", shape="box"] ;
176 -> 177 ;
178 [label="entropy = 0.0000\nsamples = 9\nvalue = [  0.          27.67291532]", shape="box"] ;
176 -> 178 ;
179 [label="entropy = -0.0000\nsamples = 1\nvalue = [ 0.15513898  0.        ]", shape="box"] ;
175 -> 179 ;
180 [label="X[8] <= 107.2171\nentropy = 0.9799513274\nsamples = 9", shape="box"] ;
168 -> 180 ;
181 [label="entropy = 0.0000\nsamples = 1\nvalue = [ 0.          3.68972204]", shape="box"] ;
180 -> 181 ;
182 [label="entropy = 0.0000\nsamples = 8\nvalue = [ 2.63736264  0.        ]", shape="box"] ;
180 -> 182 ;
}