digraph Tree {
0 [label="X[6] <= 36.1368\nentropy = 1.0\nsamples = 971", shape="box"] ;
1 [label="X[3] <= 4.0251\nentropy = 0.997485918131\nsamples = 936", shape="box"] ;
0 -> 1 ;
2 [label="X[3] <= 3.9528\nentropy = 0.999100847042\nsamples = 732", shape="box"] ;
1 -> 2 ;
3 [label="X[1] <= 0.1690\nentropy = 0.999033070286\nsamples = 713", shape="box"] ;
2 -> 3 ;
4 [label="X[1] <= -0.0451\nentropy = 0.984782146131\nsamples = 467", shape="box"] ;
3 -> 4 ;
5 [label="X[3] <= 3.5493\nentropy = 0.793727923453\nsamples = 102", shape="box"] ;
4 -> 5 ;
6 [label="X[3] <= 2.4822\nentropy = 0.912543980393\nsamples = 91", shape="box"] ;
5 -> 6 ;
7 [label="entropy = 0.0000\nsamples = 11\nvalue = [ 2.75113122  0.        ]", shape="box"] ;
6 -> 7 ;
8 [label="X[3] <= 2.4962\nentropy = 0.87543734838\nsamples = 80", shape="box"] ;
6 -> 8 ;
9 [label="X[0] <= 0.6554\nentropy = 0.174809111335\nsamples = 5", shape="box"] ;
8 -> 9 ;
10 [label="entropy = 0.0000\nsamples = 1\nvalue = [ 0.3438914  0.       ]", shape="box"] ;
9 -> 10 ;
11 [label="entropy = 0.0000\nsamples = 4\nvalue = [  0.          12.79638009]", shape="box"] ;
9 -> 11 ;
12 [label="X[1] <= -1.2380\nentropy = 0.955001515675\nsamples = 75", shape="box"] ;
8 -> 12 ;
13 [label="X[7] <= 12.2741\nentropy = 0.74144299869\nsamples = 26", shape="box"] ;
12 -> 13 ;
14 [label="entropy = 0.0000\nsamples = 16\nvalue = [ 4.64253394  0.        ]", shape="box"] ;
13 -> 14 ;
15 [label="X[6] <= 6.2177\nentropy = 0.992742178801\nsamples = 10", shape="box"] ;
13 -> 15 ;
16 [label="X[6] <= 4.5198\nentropy = 0.760308479489\nsamples = 3", shape="box"] ;
15 -> 16 ;
17 [label="entropy = 0.0000\nsamples = 2\nvalue = [ 0.5158371  0.       ]", shape="box"] ;
16 -> 17 ;
18 [label="entropy = -0.0000\nsamples = 1\nvalue = [ 0.         1.8280543]", shape="box"] ;
16 -> 18 ;
19 [label="entropy = 0.0000\nsamples = 7\nvalue = [ 1.71945701  0.        ]", shape="box"] ;
15 -> 19 ;
20 [label="X[7] <= -75.4509\nentropy = 0.846274847768\nsamples = 49", shape="box"] ;
12 -> 20 ;
21 [label="entropy = 0.0000\nsamples = 1\nvalue = [ 0.         3.6561086]", shape="box"] ;
20 -> 21 ;
22 [label="X[9] <= 19.8772\nentropy = 0.887371753873\nsamples = 48", shape="box"] ;
20 -> 22 ;
23 [label="X[8] <= 71.1036\nentropy = 0.965984676729\nsamples = 24", shape="box"] ;
22 -> 23 ;
24 [label="X[7] <= 9.8952\nentropy = 0.760308479489\nsamples = 7", shape="box"] ;
23 -> 24 ;
25 [label="entropy = 0.0000\nsamples = 4\nvalue = [ 0.85972851  0.        ]", shape="box"] ;
24 -> 25 ;
26 [label="X[6] <= 3.3610\nentropy = 0.264400231874\nsamples = 3", shape="box"] ;
24 -> 26 ;
27 [label="entropy = 0.0000\nsamples = 2\nvalue = [ 0.         3.6561086]", shape="box"] ;
26 -> 27 ;
28 [label="entropy = -0.0000\nsamples = 1\nvalue = [ 0.1719457  0.       ]", shape="box"] ;
26 -> 28 ;
29 [label="entropy = -0.0000\nsamples = 17\nvalue = [ 4.64253394  0.        ]", shape="box"] ;
23 -> 29 ;
30 [label="X[0] <= 0.8501\nentropy = 0.675371257135\nsamples = 24", shape="box"] ;
22 -> 30 ;
31 [label="X[2] <= 5.9304\nentropy = 0.196393888765\nsamples = 6", shape="box"] ;
30 -> 31 ;
32 [label="X[0] <= 0.6331\nentropy = 0.114975330217\nsamples = 5", shape="box"] ;
31 -> 32 ;
33 [label="entropy = 0.0000\nsamples = 1\nvalue = [ 0.1719457  0.       ]", shape="box"] ;
32 -> 33 ;
34 [label="entropy = 0.0000\nsamples = 4\nvalue = [  0.          10.96832579]", shape="box"] ;
32 -> 34 ;
35 [label="entropy = 0.0000\nsamples = 1\nvalue = [ 0.1719457  0.       ]", shape="box"] ;
31 -> 35 ;
36 [label="X[9] <= 35.1656\nentropy = 0.915509374495\nsamples = 18", shape="box"] ;
30 -> 36 ;
37 [label="entropy = 0.0000\nsamples = 11\nvalue = [ 2.57918552  0.        ]", shape="box"] ;
36 -> 37 ;
38 [label="X[8] <= 130.9717\nentropy = 0.539746216266\nsamples = 7", shape="box"] ;
36 -> 38 ;
39 [label="entropy = 0.0000\nsamples = 3\nvalue = [ 0.85972851  0.        ]", shape="box"] ;
38 -> 39 ;
40 [label="X[2] <= 4.9974\nentropy = 0.157831184445\nsamples = 4", shape="box"] ;
38 -> 40 ;
41 [label="entropy = 0.0000\nsamples = 3\nvalue = [ 0.          7.31221719]", shape="box"] ;
40 -> 41 ;
42 [label="entropy = -0.0000\nsamples = 1\nvalue = [ 0.1719457  0.       ]", shape="box"] ;
40 -> 42 ;
43 [label="X[2] <= 8.8885\nentropy = 0.148374244832\nsamples = 11", shape="box"] ;
5 -> 43 ;
44 [label="X[0] <= 1.2971\nentropy = 0.107892143702\nsamples = 10", shape="box"] ;
43 -> 44 ;
45 [label="entropy = 0.0000\nsamples = 8\nvalue = [  0.          23.76470588]", shape="box"] ;
44 -> 45 ;
46 [label="entropy = -0.0000\nsamples = 2\nvalue = [ 0.3438914  0.       ]", shape="box"] ;
44 -> 46 ;
47 [label="entropy = -0.0000\nsamples = 1\nvalue = [ 0.1719457  0.       ]", shape="box"] ;
43 -> 47 ;
48 [label="X[3] <= 3.6565\nentropy = 0.99920487288\nsamples = 365", shape="box"] ;
4 -> 48 ;
49 [label="X[6] <= 1.2235\nentropy = 0.992627666334\nsamples = 286", shape="box"] ;
48 -> 49 ;
50 [label="X[0] <= 0.4498\nentropy = 0.522372603702\nsamples = 16", shape="box"] ;
49 -> 50 ;
51 [label="entropy = 0.0000\nsamples = 4\nvalue = [ 1.54751131  0.        ]", shape="box"] ;
50 -> 51 ;
52 [label="X[2] <= 5.0736\nentropy = 0.323487251569\nsamples = 12", shape="box"] ;
50 -> 52 ;
53 [label="X[7] <= 18.8962\nentropy = 0.196393888765\nsamples = 9", shape="box"] ;
52 -> 53 ;
54 [label="X[3] <= 3.3422\nentropy = 0.114975330217\nsamples = 8", shape="box"] ;
53 -> 54 ;
55 [label="X[8] <= 126.6897\nentropy = 0.0656684558015\nsamples = 7", shape="box"] ;
54 -> 55 ;
56 [label="entropy = 0.0000\nsamples = 5\nvalue = [  0.          20.10859729]", shape="box"] ;
55 -> 56 ;
57 [label="X[9] <= 9.5046\nentropy = 0.422882911105\nsamples = 2", shape="box"] ;
55 -> 57 ;
58 [label="entropy = 0.0000\nsamples = 1\nvalue = [ 0.1719457  0.       ]", shape="box"] ;
57 -> 58 ;
59 [label="entropy = 0.0000\nsamples = 1\nvalue = [ 0.         1.8280543]", shape="box"] ;
57 -> 59 ;
60 [label="entropy = -0.0000\nsamples = 1\nvalue = [ 0.1719457  0.       ]", shape="box"] ;
54 -> 60 ;
61 [label="entropy = 0.0000\nsamples = 1\nvalue = [ 0.3438914  0.       ]", shape="box"] ;
53 -> 61 ;
62 [label="entropy = 0.0000\nsamples = 3\nvalue = [ 0.68778281  0.        ]", shape="box"] ;
52 -> 62 ;
63 [label="X[2] <= 3.7730\nentropy = 0.999557715494\nsamples = 270", shape="box"] ;
49 -> 63 ;
64 [label="X[0] <= 1.5459\nentropy = 0.893648578225\nsamples = 99", shape="box"] ;
63 -> 64 ;
65 [label="X[3] <= 3.6347\nentropy = 0.860669628225\nsamples = 88", shape="box"] ;
64 -> 65 ;
66 [label="X[5] <= -3.3862\nentropy = 0.94657944915\nsamples = 83", shape="box"] ;
65 -> 66 ;
67 [label="entropy = 0.0000\nsamples = 17\nvalue = [ 4.64253394  0.        ]", shape="box"] ;
66 -> 67 ;
68 [label="X[3] <= 3.5362\nentropy = 0.888315223074\nsamples = 66", shape="box"] ;
66 -> 68 ;
69 [label="X[7] <= 13.3872\nentropy = 0.80980178532\nsamples = 55", shape="box"] ;
68 -> 69 ;
70 [label="X[2] <= 3.5637\nentropy = 0.969177633293\nsamples = 40", shape="box"] ;
69 -> 70 ;
71 [label="X[0] <= 0.3269\nentropy = 0.853828359051\nsamples = 36", shape="box"] ;
70 -> 71 ;
72 [label="entropy = 0.0000\nsamples = 1\nvalue = [ 0.         3.6561086]", shape="box"] ;
71 -> 72 ;
73 [label="entropy = -0.0000\nsamples = 35\nvalue = [ 9.45701357  0.        ]", shape="box"] ;
71 -> 73 ;
74 [label="X[4] <= 10.5623\nentropy = 0.114975330217\nsamples = 4", shape="box"] ;
70 -> 74 ;
75 [label="entropy = 0.0000\nsamples = 1\nvalue = [ 0.1719457  0.       ]", shape="box"] ;
74 -> 75 ;
76 [label="entropy = 0.0000\nsamples = 3\nvalue = [  0.          10.96832579]", shape="box"] ;
74 -> 76 ;
77 [label="X[0] <= 1.3670\nentropy = 0.422882911105\nsamples = 15", shape="box"] ;
69 -> 77 ;
78 [label="X[4] <= 15.1453\nentropy = 0.602483290633\nsamples = 13", shape="box"] ;
77 -> 78 ;
79 [label="entropy = 0.0000\nsamples = 7\nvalue = [ 1.71945701  0.        ]", shape="box"] ;
78 -> 79 ;
80 [label="X[9] <= 13.3322\nentropy = 0.114975330217\nsamples = 6", shape="box"] ;
78 -> 80 ;
81 [label="entropy = 0.0000\nsamples = 1\nvalue = [ 0.1719457  0.       ]", shape="box"] ;
80 -> 81 ;
82 [label="entropy = 0.0000\nsamples = 5\nvalue = [  0.          10.96832579]", shape="box"] ;
80 -> 82 ;
83 [label="entropy = 0.0000\nsamples = 2\nvalue = [ 0.          9.14027149]", shape="box"] ;
77 -> 83 ;
84 [label="entropy = 0.0000\nsamples = 11\nvalue = [ 3.78280543  0.        ]", shape="box"] ;
68 -> 84 ;
85 [label="X[7] <= 55.9279\nentropy = 0.144094479085\nsamples = 5", shape="box"] ;
65 -> 85 ;
86 [label="X[0] <= 0.9830\nentropy = 0.264400231874\nsamples = 3", shape="box"] ;
85 -> 86 ;
87 [label="entropy = 0.0000\nsamples = 2\nvalue = [ 0.3438914  0.       ]", shape="box"] ;
86 -> 87 ;
88 [label="entropy = -0.0000\nsamples = 1\nvalue = [ 0.          7.31221719]", shape="box"] ;
86 -> 88 ;
89 [label="entropy = 0.0000\nsamples = 2\nvalue = [ 0.          9.14027149]", shape="box"] ;
85 -> 89 ;
90 [label="entropy = 0.0000\nsamples = 11\nvalue = [ 2.75113122  0.        ]", shape="box"] ;
64 -> 90 ;
91 [label="X[4] <= 0.7988\nentropy = 0.768391524943\nsamples = 171", shape="box"] ;
63 -> 91 ;
92 [label="X[6] <= 2.8879\nentropy = 0.827876368981\nsamples = 12", shape="box"] ;
91 -> 92 ;
93 [label="X[1] <= 0.1029\nentropy = 0.264400231874\nsamples = 3", shape="box"] ;
92 -> 93 ;
94 [label="entropy = 0.0000\nsamples = 2\nvalue = [ 0.          7.31221719]", shape="box"] ;
93 -> 94 ;
95 [label="entropy = -0.0000\nsamples = 1\nvalue = [ 0.3438914  0.       ]", shape="box"] ;
93 -> 95 ;
96 [label="entropy = 0.0000\nsamples = 9\nvalue = [ 2.23529412  0.        ]", shape="box"] ;
92 -> 96 ;
97 [label="X[3] <= 3.0966\nentropy = 0.519066410095\nsamples = 159", shape="box"] ;
91 -> 97 ;
98 [label="entropy = 0.0000\nsamples = 98\nvalue = [ 25.9638009   0.       ]", shape="box"] ;
97 -> 98 ;
99 [label="X[5] <= 15.2455\nentropy = 0.82603465574\nsamples = 61", shape="box"] ;
97 -> 99 ;
100 [label="X[1] <= 0.1658\nentropy = 0.517826669647\nsamples = 52", shape="box"] ;
99 -> 100 ;
101 [label="entropy = 0.0000\nsamples = 51\nvalue = [ 13.92760181   0.        ]", shape="box"] ;
100 -> 101 ;
102 [label="entropy = 0.0000\nsamples = 1\nvalue = [ 0.         1.8280543]", shape="box"] ;
100 -> 102 ;
103 [label="X[4] <= 10.7321\nentropy = 0.904234937948\nsamples = 9", shape="box"] ;
99 -> 103 ;
104 [label="entropy = 0.0000\nsamples = 4\nvalue = [ 1.20361991  0.        ]", shape="box"] ;
103 -> 104 ;
105 [label="X[8] <= 131.1358\nentropy = 0.539746216266\nsamples = 5", shape="box"] ;
103 -> 105 ;
106 [label="X[2] <= 5.0432\nentropy = 0.264400231874\nsamples = 3", shape="box"] ;
105 -> 106 ;
107 [label="entropy = 0.0000\nsamples = 1\nvalue = [ 0.1719457  0.       ]", shape="box"] ;
106 -> 107 ;
108 [label="entropy = 0.0000\nsamples = 2\nvalue = [ 0.         3.6561086]", shape="box"] ;
106 -> 108 ;
109 [label="entropy = -0.0000\nsamples = 2\nvalue = [ 0.3438914  0.       ]", shape="box"] ;
105 -> 109 ;
110 [label="entropy = 0.0000\nsamples = 79\nvalue = [ 21.66515837   0.        ]", shape="box"] ;
48 -> 110 ;
111 [label="X[1] <= 62.9562\nentropy = 0.715905818401\nsamples = 246", shape="box"] ;
3 -> 111 ;
112 [label="X[2] <= -6.6649\nentropy = 0.540371235131\nsamples = 234", shape="box"] ;
111 -> 112 ;
113 [label="X[6] <= 3.1904\nentropy = 0.630307407997\nsamples = 3", shape="box"] ;
112 -> 113 ;
114 [label="entropy = 0.0000\nsamples = 2\nvalue = [ 0.68778281  0.        ]", shape="box"] ;
113 -> 114 ;
115 [label="entropy = -0.0000\nsamples = 1\nvalue = [ 0.         3.6561086]", shape="box"] ;
113 -> 115 ;
116 [label="X[4] <= 25.2481\nentropy = 0.398532195301\nsamples = 231", shape="box"] ;
112 -> 116 ;
117 [label="X[8] <= 101.5332\nentropy = 0.19136847207\nsamples = 216", shape="box"] ;
116 -> 117 ;
118 [label="entropy = 0.0000\nsamples = 180\nvalue = [ 51.58371041   0.        ]", shape="box"] ;
117 -> 118 ;
119 [label="X[0] <= 1.2062\nentropy = 0.663396721378\nsamples = 36", shape="box"] ;
117 -> 119 ;
120 [label="entropy = 0.0000\nsamples = 31\nvalue = [ 7.90950226  0.        ]", shape="box"] ;
119 -> 120 ;
121 [label="X[0] <= 1.2332\nentropy = 0.904234937948\nsamples = 5", shape="box"] ;
119 -> 121 ;
122 [label="entropy = 0.0000\nsamples = 1\nvalue = [ 0.         1.8280543]", shape="box"] ;
121 -> 122 ;
123 [label="entropy = -0.0000\nsamples = 4\nvalue = [ 0.85972851  0.        ]", shape="box"] ;
121 -> 123 ;
124 [label="X[7] <= 4.0576\nentropy = 0.999972032331\nsamples = 15", shape="box"] ;
116 -> 124 ;
125 [label="X[7] <= -12.1611\nentropy = 0.925721244708\nsamples = 9", shape="box"] ;
124 -> 125 ;
126 [label="entropy = 0.0000\nsamples = 4\nvalue = [ 1.03167421  0.        ]", shape="box"] ;
125 -> 126 ;
127 [label="X[2] <= 8.3444\nentropy = 0.702267304289\nsamples = 5", shape="box"] ;
125 -> 127 ;
128 [label="X[9] <= 24.7849\nentropy = 0.539746216266\nsamples = 4", shape="box"] ;
127 -> 128 ;
129 [label="entropy = 0.0000\nsamples = 2\nvalue = [ 0.         3.6561086]", shape="box"] ;
128 -> 129 ;
130 [label="entropy = 0.0000\nsamples = 2\nvalue = [ 0.5158371  0.       ]", shape="box"] ;
128 -> 130 ;
131 [label="entropy = -0.0000\nsamples = 1\nvalue = [ 0.3438914  0.       ]", shape="box"] ;
127 -> 131 ;
132 [label="entropy = -0.0000\nsamples = 6\nvalue = [ 1.71945701  0.        ]", shape="box"] ;
124 -> 132 ;
133 [label="X[9] <= 8.7126\nentropy = 0.80756784418\nsamples = 12", shape="box"] ;
111 -> 133 ;
134 [label="X[2] <= 3.8557\nentropy = 0.264400231874\nsamples = 4", shape="box"] ;
133 -> 134 ;
135 [label="entropy = 0.0000\nsamples = 3\nvalue = [ 0.          7.31221719]", shape="box"] ;
134 -> 135 ;
136 [label="entropy = 0.0000\nsamples = 1\nvalue = [ 0.3438914  0.       ]", shape="box"] ;
134 -> 136 ;
137 [label="entropy = 0.0000\nsamples = 8\nvalue = [ 2.06334842  0.        ]", shape="box"] ;
133 -> 137 ;
138 [label="X[1] <= 0.1009\nentropy = 0.470493627194\nsamples = 19", shape="box"] ;
2 -> 138 ;
139 [label="entropy = 0.0000\nsamples = 8\nvalue = [ 2.40723982  0.        ]", shape="box"] ;
138 -> 139 ;
140 [label="X[2] <= 4.9708\nentropy = 0.187088869535\nsamples = 11", shape="box"] ;
138 -> 140 ;
141 [label="X[7] <= 1.5004\nentropy = 0.0913560342189\nsamples = 10", shape="box"] ;
140 -> 141 ;
142 [label="entropy = 0.0000\nsamples = 2\nvalue = [ 0.3438914  0.       ]", shape="box"] ;
141 -> 142 ;
143 [label="entropy = 0.0000\nsamples = 8\nvalue = [  0.          29.24886878]", shape="box"] ;
141 -> 143 ;
144 [label="entropy = 0.0000\nsamples = 1\nvalue = [ 0.5158371  0.       ]", shape="box"] ;
140 -> 144 ;
145 [label="X[1] <= 0.0187\nentropy = 0.745427492499\nsamples = 204", shape="box"] ;
1 -> 145 ;
146 [label="entropy = 0.0000\nsamples = 82\nvalue = [ 23.90045249   0.        ]", shape="box"] ;
145 -> 146 ;
147 [label="X[9] <= 52.9853\nentropy = 0.90927487553\nsamples = 122", shape="box"] ;
145 -> 147 ;
148 [label="entropy = 0.0000\nsamples = 57\nvalue = [ 15.64705882   0.        ]", shape="box"] ;
147 -> 148 ;
149 [label="X[1] <= 0.0854\nentropy = 0.999977872872\nsamples = 65", shape="box"] ;
147 -> 149 ;
150 [label="X[1] <= 0.0466\nentropy = 0.485280781185\nsamples = 14", shape="box"] ;
149 -> 150 ;
151 [label="entropy = 0.0000\nsamples = 3\nvalue = [ 0.          7.31221719]", shape="box"] ;
150 -> 151 ;
152 [label="X[7] <= 2.7931\nentropy = 0.702267304289\nsamples = 11", shape="box"] ;
150 -> 152 ;
153 [label="entropy = 0.0000\nsamples = 3\nvalue = [ 0.68778281  0.        ]", shape="box"] ;
152 -> 153 ;
154 [label="X[1] <= 0.0665\nentropy = 0.539746216266\nsamples = 8", shape="box"] ;
152 -> 154 ;
155 [label="entropy = 0.0000\nsamples = 4\nvalue = [ 0.85972851  0.        ]", shape="box"] ;
154 -> 155 ;
156 [label="X[4] <= -1.3741\nentropy = 0.157831184445\nsamples = 4", shape="box"] ;
154 -> 156 ;
157 [label="entropy = 0.0000\nsamples = 1\nvalue = [ 0.1719457  0.       ]", shape="box"] ;
156 -> 157 ;
158 [label="entropy = -0.0000\nsamples = 3\nvalue = [ 0.          7.31221719]", shape="box"] ;
156 -> 158 ;
159 [label="entropy = -0.0000\nsamples = 51\nvalue = [ 13.0678733   0.       ]", shape="box"] ;
149 -> 159 ;
160 [label="X[3] <= 2.8498\nentropy = 0.647708492602\nsamples = 35", shape="box"] ;
0 -> 160 ;
161 [label="X[0] <= 0.1964\nentropy = 0.181404096108\nsamples = 9", shape="box"] ;
160 -> 161 ;
162 [label="entropy = 0.0000\nsamples = 1\nvalue = [ 0.1719457  0.       ]", shape="box"] ;
161 -> 162 ;
163 [label="X[3] <= 2.7005\nentropy = 0.132730283249\nsamples = 8", shape="box"] ;
161 -> 163 ;
164 [label="X[8] <= 183.8466\nentropy = 0.630307407997\nsamples = 3", shape="box"] ;
163 -> 164 ;
165 [label="entropy = 0.0000\nsamples = 1\nvalue = [ 0.1719457  0.       ]", shape="box"] ;
164 -> 165 ;
166 [label="X[7] <= 13.3497\nentropy = 0.422882911105\nsamples = 2", shape="box"] ;
164 -> 166 ;
167 [label="entropy = 0.0000\nsamples = 1\nvalue = [ 0.1719457  0.       ]", shape="box"] ;
166 -> 167 ;
168 [label="entropy = 0.0000\nsamples = 1\nvalue = [ 0.         1.8280543]", shape="box"] ;
166 -> 168 ;
169 [label="entropy = 0.0000\nsamples = 5\nvalue = [  0.          16.45248869]", shape="box"] ;
163 -> 169 ;
170 [label="X[1] <= -0.0121\nentropy = 0.870700727439\nsamples = 26", shape="box"] ;
160 -> 170 ;
171 [label="X[0] <= 0.6760\nentropy = 0.989783875571\nsamples = 17", shape="box"] ;
170 -> 171 ;
172 [label="entropy = 0.0000\nsamples = 10\nvalue = [ 3.43891403  0.        ]", shape="box"] ;
171 -> 172 ;
173 [label="X[1] <= -0.0373\nentropy = 0.80756784418\nsamples = 7", shape="box"] ;
171 -> 173 ;
174 [label="X[9] <= 100.0700\nentropy = 0.264400231874\nsamples = 3", shape="box"] ;
173 -> 174 ;
175 [label="entropy = 0.0000\nsamples = 2\nvalue = [ 0.         3.6561086]", shape="box"] ;
174 -> 175 ;
176 [label="entropy = -0.0000\nsamples = 1\nvalue = [ 0.1719457  0.       ]", shape="box"] ;
174 -> 176 ;
177 [label="entropy = -0.0000\nsamples = 4\nvalue = [ 1.03167421  0.        ]", shape="box"] ;
173 -> 177 ;
178 [label="X[8] <= 95.9012\nentropy = 0.504235077109\nsamples = 9", shape="box"] ;
170 -> 178 ;
179 [label="X[9] <= 213.5464\nentropy = 0.323487251569\nsamples = 7", shape="box"] ;
178 -> 179 ;
180 [label="X[5] <= 6.9169\nentropy = 0.630307407997\nsamples = 5", shape="box"] ;
179 -> 180 ;
181 [label="entropy = 0.0000\nsamples = 4\nvalue = [ 0.68778281  0.        ]", shape="box"] ;
180 -> 181 ;
182 [label="entropy = 0.0000\nsamples = 1\nvalue = [ 0.         3.6561086]", shape="box"] ;
180 -> 182 ;
183 [label="entropy = -0.0000\nsamples = 2\nvalue = [ 0.          7.31221719]", shape="box"] ;
179 -> 183 ;
184 [label="entropy = 0.0000\nsamples = 2\nvalue = [ 0.68778281  0.        ]", shape="box"] ;
178 -> 184 ;
}