digraph Tree {
0 [label="X[3] <= 4.1367\nentropy = 1.0\nsamples = 970", shape="box"] ;
1 [label="X[2] <= 1.6289\nentropy = 0.99365688462\nsamples = 771", shape="box"] ;
0 -> 1 ;
2 [label="X[7] <= 11.7962\nentropy = 0.790755508906\nsamples = 170", shape="box"] ;
1 -> 2 ;
3 [label="X[5] <= 1.3709\nentropy = 0.926769101761\nsamples = 113", shape="box"] ;
2 -> 3 ;
4 [label="X[9] <= 7.9009\nentropy = 0.988790230169\nsamples = 59", shape="box"] ;
3 -> 4 ;
5 [label="X[4] <= 21.1279\nentropy = 0.532136227042\nsamples = 5", shape="box"] ;
4 -> 5 ;
6 [label="entropy = 0.0000\nsamples = 2\nvalue = [ 0.84033613  0.        ]", shape="box"] ;
5 -> 6 ;
7 [label="X[5] <= -29.9633\nentropy = 0.154828943527\nsamples = 3", shape="box"] ;
5 -> 7 ;
8 [label="entropy = 0.0000\nsamples = 1\nvalue = [ 0.16806723  0.        ]", shape="box"] ;
7 -> 8 ;
9 [label="entropy = 0.0000\nsamples = 2\nvalue = [ 0.          7.32773109]", shape="box"] ;
7 -> 9 ;
10 [label="X[9] <= 119.7281\nentropy = 0.830091893529\nsamples = 54", shape="box"] ;
4 -> 10 ;
11 [label="X[6] <= 8.0452\nentropy = 0.704732092157\nsamples = 53", shape="box"] ;
10 -> 11 ;
12 [label="entropy = 0.0000\nsamples = 40\nvalue = [ 11.93277311   0.        ]", shape="box"] ;
11 -> 12 ;
13 [label="X[8] <= 88.5929\nentropy = 0.999747964179\nsamples = 13", shape="box"] ;
11 -> 13 ;
14 [label="X[8] <= 57.8882\nentropy = 0.694234741614\nsamples = 5", shape="box"] ;
13 -> 14 ;
15 [label="entropy = 0.0000\nsamples = 2\nvalue = [ 0.67226891  0.        ]", shape="box"] ;
14 -> 15 ;
16 [label="X[0] <= 1.4795\nentropy = 0.259716927541\nsamples = 3", shape="box"] ;
14 -> 16 ;
17 [label="entropy = 0.0000\nsamples = 2\nvalue = [ 0.          3.66386555]", shape="box"] ;
16 -> 17 ;
18 [label="entropy = -0.0000\nsamples = 1\nvalue = [ 0.16806723  0.        ]", shape="box"] ;
16 -> 18 ;
19 [label="entropy = 0.0000\nsamples = 8\nvalue = [ 2.68907563  0.        ]", shape="box"] ;
13 -> 19 ;
20 [label="entropy = 0.0000\nsamples = 1\nvalue = [ 0.          1.83193277]", shape="box"] ;
10 -> 20 ;
21 [label="X[6] <= 5.7782\nentropy = 0.765819153033\nsamples = 54", shape="box"] ;
3 -> 21 ;
22 [label="X[8] <= 104.7780\nentropy = 0.585691416922\nsamples = 35", shape="box"] ;
21 -> 22 ;
23 [label="X[4] <= 8.9586\nentropy = 0.943780113021\nsamples = 22", shape="box"] ;
22 -> 23 ;
24 [label="entropy = 0.0000\nsamples = 7\nvalue = [ 2.85714286  0.        ]", shape="box"] ;
23 -> 24 ;
25 [label="X[3] <= 3.3784\nentropy = 0.785247690732\nsamples = 15", shape="box"] ;
23 -> 25 ;
26 [label="entropy = 0.0000\nsamples = 6\nvalue = [ 1.8487395  0.       ]", shape="box"] ;
25 -> 26 ;
27 [label="X[7] <= 4.4425\nentropy = 0.532136227042\nsamples = 9", shape="box"] ;
25 -> 27 ;
28 [label="X[9] <= 15.0392\nentropy = 0.871556146308\nsamples = 6", shape="box"] ;
27 -> 28 ;
29 [label="entropy = 0.0000\nsamples = 1\nvalue = [ 0.          3.66386555]", shape="box"] ;
28 -> 29 ;
30 [label="entropy = 0.0000\nsamples = 5\nvalue = [ 1.51260504  0.        ]", shape="box"] ;
28 -> 30 ;
31 [label="entropy = 0.0000\nsamples = 3\nvalue = [ 0.          7.32773109]", shape="box"] ;
27 -> 31 ;
32 [label="X[9] <= 21.4184\nentropy = 0.14774167381\nsamples = 13", shape="box"] ;
22 -> 32 ;
33 [label="X[0] <= 1.5460\nentropy = 0.75247481899\nsamples = 3", shape="box"] ;
32 -> 33 ;
34 [label="entropy = 0.0000\nsamples = 2\nvalue = [ 0.50420168  0.        ]", shape="box"] ;
33 -> 34 ;
35 [label="entropy = 0.0000\nsamples = 1\nvalue = [ 0.          1.83193277]", shape="box"] ;
33 -> 35 ;
36 [label="X[5] <= 20.8365\nentropy = 0.0507017078382\nsamples = 10", shape="box"] ;
32 -> 36 ;
37 [label="entropy = 0.0000\nsamples = 9\nvalue = [  0.          29.31092437]", shape="box"] ;
36 -> 37 ;
38 [label="entropy = 0.0000\nsamples = 1\nvalue = [ 0.16806723  0.        ]", shape="box"] ;
36 -> 38 ;
39 [label="entropy = 0.0000\nsamples = 19\nvalue = [ 5.21008403  0.        ]", shape="box"] ;
21 -> 39 ;
40 [label="X[9] <= 39.3698\nentropy = 0.532136227042\nsamples = 57", shape="box"] ;
2 -> 40 ;
41 [label="X[0] <= 0.8036\nentropy = 0.758955971592\nsamples = 44", shape="box"] ;
40 -> 41 ;
42 [label="X[2] <= 0.9576\nentropy = 0.965481125941\nsamples = 22", shape="box"] ;
41 -> 42 ;
43 [label="X[2] <= 0.7725\nentropy = 0.82060810156\nsamples = 16", shape="box"] ;
42 -> 43 ;
44 [label="X[8] <= 85.9694\nentropy = 0.975227753949\nsamples = 15", shape="box"] ;
43 -> 44 ;
45 [label="entropy = 0.0000\nsamples = 9\nvalue = [ 1.8487395  0.       ]", shape="box"] ;
44 -> 45 ;
46 [label="X[5] <= -7.1452\nentropy = 0.622307462412\nsamples = 6", shape="box"] ;
44 -> 46 ;
47 [label="entropy = 0.0000\nsamples = 2\nvalue = [ 0.33613445  0.        ]", shape="box"] ;
46 -> 47 ;
48 [label="X[9] <= 24.3928\nentropy = 0.416234802387\nsamples = 4", shape="box"] ;
46 -> 48 ;
49 [label="entropy = 0.0000\nsamples = 2\nvalue = [ 0.          3.66386555]", shape="box"] ;
48 -> 49 ;
50 [label="entropy = -0.0000\nsamples = 2\nvalue = [ 0.33613445  0.        ]", shape="box"] ;
48 -> 50 ;
51 [label="entropy = 0.0000\nsamples = 1\nvalue = [ 0.          3.66386555]", shape="box"] ;
43 -> 51 ;
52 [label="entropy = 0.0000\nsamples = 6\nvalue = [ 2.18487395  0.        ]", shape="box"] ;
42 -> 52 ;
53 [label="X[7] <= 12.3457\nentropy = 0.579874648234\nsamples = 22", shape="box"] ;
41 -> 53 ;
54 [label="entropy = 0.0000\nsamples = 3\nvalue = [ 0.84033613  0.        ]", shape="box"] ;
53 -> 54 ;
55 [label="X[0] <= 0.9872\nentropy = 0.496867490627\nsamples = 19", shape="box"] ;
53 -> 55 ;
56 [label="X[3] <= 2.7273\nentropy = 0.238507236268\nsamples = 8", shape="box"] ;
55 -> 56 ;
57 [label="X[6] <= 1.5321\nentropy = 0.75247481899\nsamples = 3", shape="box"] ;
56 -> 57 ;
58 [label="entropy = 0.0000\nsamples = 1\nvalue = [ 0.          1.83193277]", shape="box"] ;
57 -> 58 ;
59 [label="entropy = 0.0000\nsamples = 2\nvalue = [ 0.50420168  0.        ]", shape="box"] ;
57 -> 59 ;
60 [label="X[4] <= 46.4932\nentropy = 0.0895373261081\nsamples = 5", shape="box"] ;
56 -> 60 ;
61 [label="entropy = 0.0000\nsamples = 4\nvalue = [  0.          14.65546218]", shape="box"] ;
60 -> 61 ;
62 [label="entropy = 0.0000\nsamples = 1\nvalue = [ 0.16806723  0.        ]", shape="box"] ;
60 -> 62 ;
63 [label="X[9] <= 22.9684\nentropy = 0.839240901696\nsamples = 11", shape="box"] ;
55 -> 63 ;
64 [label="X[1] <= -3.0228\nentropy = 0.192752280034\nsamples = 4", shape="box"] ;
63 -> 64 ;
65 [label="entropy = 0.0000\nsamples = 1\nvalue = [ 0.16806723  0.        ]", shape="box"] ;
64 -> 65 ;
66 [label="entropy = -0.0000\nsamples = 3\nvalue = [ 0.          5.49579832]", shape="box"] ;
64 -> 66 ;
67 [label="entropy = 0.0000\nsamples = 7\nvalue = [ 1.8487395  0.       ]", shape="box"] ;
63 -> 67 ;
68 [label="X[3] <= 3.6723\nentropy = 0.154828943527\nsamples = 13", shape="box"] ;
40 -> 68 ;
69 [label="X[1] <= 0.1400\nentropy = 0.0459561188368\nsamples = 9", shape="box"] ;
68 -> 69 ;
70 [label="entropy = 0.0000\nsamples = 7\nvalue = [  0.          25.64705882]", shape="box"] ;
69 -> 70 ;
71 [label="X[1] <= 0.2254\nentropy = 0.154828943527\nsamples = 2", shape="box"] ;
69 -> 71 ;
72 [label="entropy = 0.0000\nsamples = 1\nvalue = [ 0.16806723  0.        ]", shape="box"] ;
71 -> 72 ;
73 [label="entropy = 0.0000\nsamples = 1\nvalue = [ 0.          7.32773109]", shape="box"] ;
71 -> 73 ;
74 [label="X[1] <= 0.1314\nentropy = 0.622307462412\nsamples = 4", shape="box"] ;
68 -> 74 ;
75 [label="entropy = 0.0000\nsamples = 2\nvalue = [ 0.50420168  0.        ]", shape="box"] ;
74 -> 75 ;
76 [label="X[7] <= 14.4739\nentropy = 0.259716927541\nsamples = 2", shape="box"] ;
74 -> 76 ;
77 [label="entropy = 0.0000\nsamples = 1\nvalue = [ 0.          3.66386555]", shape="box"] ;
76 -> 77 ;
78 [label="entropy = -0.0000\nsamples = 1\nvalue = [ 0.16806723  0.        ]", shape="box"] ;
76 -> 78 ;
79 [label="X[0] <= 1.2997\nentropy = 0.978397139822\nsamples = 601", shape="box"] ;
1 -> 79 ;
80 [label="X[2] <= 5.8818\nentropy = 0.991591154388\nsamples = 517", shape="box"] ;
79 -> 80 ;
81 [label="X[1] <= 0.0020\nentropy = 0.996438851612\nsamples = 323", shape="box"] ;
80 -> 81 ;
82 [label="X[6] <= 2.6101\nentropy = 0.813986997131\nsamples = 73", shape="box"] ;
81 -> 82 ;
83 [label="entropy = 0.0000\nsamples = 12\nvalue = [ 3.69747899  0.        ]", shape="box"] ;
82 -> 83 ;
84 [label="X[7] <= 4.1074\nentropy = 0.736443756579\nsamples = 61", shape="box"] ;
82 -> 84 ;
85 [label="entropy = 0.0000\nsamples = 17\nvalue = [ 4.87394958  0.        ]", shape="box"] ;
84 -> 85 ;
86 [label="X[8] <= 171.1115\nentropy = 0.58483527243\nsamples = 44", shape="box"] ;
84 -> 86 ;
87 [label="X[7] <= 18.2213\nentropy = 0.550494541942\nsamples = 41", shape="box"] ;
86 -> 87 ;
88 [label="X[2] <= 5.0071\nentropy = 0.444782752232\nsamples = 33", shape="box"] ;
87 -> 88 ;
89 [label="X[6] <= 30.6759\nentropy = 0.600284426382\nsamples = 26", shape="box"] ;
88 -> 89 ;
90 [label="X[4] <= 13.5966\nentropy = 0.839240901696\nsamples = 21", shape="box"] ;
89 -> 90 ;
91 [label="X[3] <= 3.0301\nentropy = 0.916256149492\nsamples = 15", shape="box"] ;
90 -> 91 ;
92 [label="X[7] <= 9.3442\nentropy = 0.839240901696\nsamples = 4", shape="box"] ;
91 -> 92 ;
93 [label="entropy = 0.0000\nsamples = 1\nvalue = [ 0.          1.83193277]", shape="box"] ;
92 -> 93 ;
94 [label="entropy = 0.0000\nsamples = 3\nvalue = [ 0.67226891  0.        ]", shape="box"] ;
92 -> 94 ;
95 [label="entropy = 0.0000\nsamples = 11\nvalue = [ 3.02521008  0.        ]", shape="box"] ;
91 -> 95 ;
96 [label="X[3] <= 2.7471\nentropy = 0.220779923471\nsamples = 6", shape="box"] ;
90 -> 96 ;
97 [label="entropy = 0.0000\nsamples = 1\nvalue = [ 0.16806723  0.        ]", shape="box"] ;
96 -> 97 ;
98 [label="X[7] <= 6.0822\nentropy = 0.130162790668\nsamples = 5", shape="box"] ;
96 -> 98 ;
99 [label="X[5] <= 5.7552\nentropy = 0.259716927541\nsamples = 2", shape="box"] ;
98 -> 99 ;
100 [label="entropy = 0.0000\nsamples = 1\nvalue = [ 0.          3.66386555]", shape="box"] ;
99 -> 100 ;
101 [label="entropy = -0.0000\nsamples = 1\nvalue = [ 0.16806723  0.        ]", shape="box"] ;
99 -> 101 ;
102 [label="entropy = 0.0000\nsamples = 3\nvalue = [ 0.          5.49579832]", shape="box"] ;
98 -> 102 ;
103 [label="X[3] <= 2.9121\nentropy = 0.238507236268\nsamples = 5", shape="box"] ;
89 -> 103 ;
104 [label="X[1] <= -0.0653\nentropy = 0.14132834583\nsamples = 4", shape="box"] ;
103 -> 104 ;
105 [label="entropy = 0.0000\nsamples = 3\nvalue = [  0.          16.48739496]", shape="box"] ;
104 -> 105 ;
106 [label="entropy = 0.0000\nsamples = 1\nvalue = [ 0.33613445  0.        ]", shape="box"] ;
104 -> 106 ;
107 [label="entropy = 0.0000\nsamples = 1\nvalue = [ 0.33613445  0.        ]", shape="box"] ;
103 -> 107 ;
108 [label="X[1] <= -591.7755\nentropy = 0.112724213238\nsamples = 7", shape="box"] ;
88 -> 108 ;
109 [label="entropy = 0.0000\nsamples = 1\nvalue = [ 0.16806723  0.        ]", shape="box"] ;
108 -> 109 ;
110 [label="X[0] <= 1.0074\nentropy = 0.0643354678302\nsamples = 6", shape="box"] ;
108 -> 110 ;
111 [label="entropy = 0.0000\nsamples = 4\nvalue = [  0.          18.31932773]", shape="box"] ;
110 -> 111 ;
112 [label="X[1] <= -4.5504\nentropy = 0.259716927541\nsamples = 2", shape="box"] ;
110 -> 112 ;
113 [label="entropy = 0.0000\nsamples = 1\nvalue = [ 0.          3.66386555]", shape="box"] ;
112 -> 113 ;
114 [label="entropy = -0.0000\nsamples = 1\nvalue = [ 0.16806723  0.        ]", shape="box"] ;
112 -> 114 ;
115 [label="entropy = -0.0000\nsamples = 8\nvalue = [ 2.18487395  0.        ]", shape="box"] ;
87 -> 115 ;
116 [label="entropy = 0.0000\nsamples = 3\nvalue = [ 0.84033613  0.        ]", shape="box"] ;
86 -> 116 ;
117 [label="X[0] <= 0.4953\nentropy = 0.968863164152\nsamples = 250", shape="box"] ;
81 -> 117 ;
118 [label="entropy = 0.0000\nsamples = 37\nvalue = [ 9.57983193  0.        ]", shape="box"] ;
117 -> 118 ;
119 [label="X[1] <= 0.3864\nentropy = 0.988790230169\nsamples = 213", shape="box"] ;
117 -> 119 ;
120 [label="X[0] <= 0.5375\nentropy = 0.999912437265\nsamples = 162", shape="box"] ;
119 -> 120 ;
121 [label="entropy = 0.0000\nsamples = 3\nvalue = [  0.          10.99159664]", shape="box"] ;
120 -> 121 ;
122 [label="X[3] <= 3.8949\nentropy = 0.977188785137\nsamples = 159", shape="box"] ;
120 -> 122 ;
123 [label="X[0] <= 1.2045\nentropy = 0.918295834054\nsamples = 143", shape="box"] ;
122 -> 123 ;
124 [label="X[8] <= 73.7367\nentropy = 0.739975822163\nsamples = 132", shape="box"] ;
123 -> 124 ;
125 [label="X[1] <= 0.1451\nentropy = 0.997714207722\nsamples = 44", shape="box"] ;
124 -> 125 ;
126 [label="X[1] <= 0.1259\nentropy = 0.982949625323\nsamples = 30", shape="box"] ;
125 -> 126 ;
127 [label="X[0] <= 0.5649\nentropy = 0.951244924441\nsamples = 26", shape="box"] ;
126 -> 127 ;
128 [label="entropy = 0.0000\nsamples = 1\nvalue = [ 0.          1.83193277]", shape="box"] ;
127 -> 128 ;
129 [label="X[7] <= 4.7843\nentropy = 0.773728960994\nsamples = 25", shape="box"] ;
127 -> 129 ;
130 [label="X[4] <= 9.8037\nentropy = 0.99341421818\nsamples = 6", shape="box"] ;
129 -> 130 ;
131 [label="entropy = 0.0000\nsamples = 4\nvalue = [ 1.34453782  0.        ]", shape="box"] ;
130 -> 131 ;
132 [label="X[6] <= 5.1089\nentropy = 0.416234802387\nsamples = 2", shape="box"] ;
130 -> 132 ;
133 [label="entropy = 0.0000\nsamples = 1\nvalue = [ 0.16806723  0.        ]", shape="box"] ;
132 -> 133 ;
134 [label="entropy = 0.0000\nsamples = 1\nvalue = [ 0.          1.83193277]", shape="box"] ;
132 -> 134 ;
135 [label="entropy = 0.0000\nsamples = 19\nvalue = [ 4.70588235  0.        ]", shape="box"] ;
129 -> 135 ;
136 [label="X[6] <= 0.9623\nentropy = 0.416234802387\nsamples = 4", shape="box"] ;
126 -> 136 ;
137 [label="entropy = 0.0000\nsamples = 1\nvalue = [ 0.33613445  0.        ]", shape="box"] ;
136 -> 137 ;
138 [label="X[8] <= 62.0323\nentropy = 0.192752280034\nsamples = 3", shape="box"] ;
136 -> 138 ;
139 [label="entropy = 0.0000\nsamples = 2\nvalue = [ 0.          5.49579832]", shape="box"] ;
138 -> 139 ;
140 [label="entropy = 0.0000\nsamples = 1\nvalue = [ 0.16806723  0.        ]", shape="box"] ;
138 -> 140 ;
141 [label="entropy = -0.0000\nsamples = 14\nvalue = [ 3.52941176  0.        ]", shape="box"] ;
125 -> 141 ;
142 [label="entropy = 0.0000\nsamples = 88\nvalue = [ 24.3697479   0.       ]", shape="box"] ;
124 -> 142 ;
143 [label="X[2] <= 2.5559\nentropy = 0.681062951155\nsamples = 11", shape="box"] ;
123 -> 143 ;
144 [label="entropy = 0.0000\nsamples = 4\nvalue = [ 1.51260504  0.        ]", shape="box"] ;
143 -> 144 ;
145 [label="X[3] <= 3.4528\nentropy = 0.295560777857\nsamples = 7", shape="box"] ;
143 -> 145 ;
146 [label="X[3] <= 3.0125\nentropy = 0.130162790668\nsamples = 5", shape="box"] ;
145 -> 146 ;
147 [label="X[5] <= 10.4958\nentropy = 0.416234802387\nsamples = 2", shape="box"] ;
146 -> 147 ;
148 [label="entropy = 0.0000\nsamples = 1\nvalue = [ 0.16806723  0.        ]", shape="box"] ;
147 -> 148 ;
149 [label="entropy = 0.0000\nsamples = 1\nvalue = [ 0.          1.83193277]", shape="box"] ;
147 -> 149 ;
150 [label="entropy = -0.0000\nsamples = 3\nvalue = [ 0.          7.32773109]", shape="box"] ;
146 -> 150 ;
151 [label="entropy = -0.0000\nsamples = 2\nvalue = [ 0.33613445  0.        ]", shape="box"] ;
145 -> 151 ;
152 [label="X[6] <= 2.7966\nentropy = 0.772657087146\nsamples = 16", shape="box"] ;
122 -> 152 ;
153 [label="entropy = 0.0000\nsamples = 6\nvalue = [ 1.17647059  0.        ]", shape="box"] ;
152 -> 153 ;
154 [label="X[3] <= 4.1285\nentropy = 0.588757588925\nsamples = 10", shape="box"] ;
152 -> 154 ;
155 [label="X[0] <= 0.9208\nentropy = 0.75247481899\nsamples = 9", shape="box"] ;
154 -> 155 ;
156 [label="entropy = 0.0000\nsamples = 5\nvalue = [ 1.34453782  0.        ]", shape="box"] ;
155 -> 156 ;
157 [label="X[4] <= 0.0750\nentropy = 0.192752280034\nsamples = 4", shape="box"] ;
155 -> 157 ;
158 [label="entropy = 0.0000\nsamples = 1\nvalue = [ 0.16806723  0.        ]", shape="box"] ;
157 -> 158 ;
159 [label="entropy = -0.0000\nsamples = 3\nvalue = [ 0.          5.49579832]", shape="box"] ;
157 -> 159 ;
160 [label="entropy = 0.0000\nsamples = 1\nvalue = [ 0.          3.66386555]", shape="box"] ;
154 -> 160 ;
161 [label="X[9] <= 7.4787\nentropy = 0.552996041335\nsamples = 51", shape="box"] ;
119 -> 161 ;
162 [label="X[6] <= 1.7165\nentropy = 0.416234802387\nsamples = 2", shape="box"] ;
161 -> 162 ;
163 [label="entropy = 0.0000\nsamples = 1\nvalue = [ 0.16806723  0.        ]", shape="box"] ;
162 -> 163 ;
164 [label="entropy = 0.0000\nsamples = 1\nvalue = [ 0.          1.83193277]", shape="box"] ;
162 -> 164 ;
165 [label="entropy = 0.0000\nsamples = 49\nvalue = [ 12.26890756   0.        ]", shape="box"] ;
161 -> 165 ;
166 [label="X[4] <= 21.0531\nentropy = 0.733862647803\nsamples = 194", shape="box"] ;
80 -> 166 ;
167 [label="X[6] <= 3.3933\nentropy = 0.578218420947\nsamples = 176", shape="box"] ;
166 -> 167 ;
168 [label="X[4] <= 0.7040\nentropy = 0.813099017068\nsamples = 85", shape="box"] ;
167 -> 168 ;
169 [label="X[4] <= -0.8477\nentropy = 0.714994911714\nsamples = 8", shape="box"] ;
168 -> 169 ;
170 [label="X[1] <= 0.0844\nentropy = 0.965481125941\nsamples = 5", shape="box"] ;
169 -> 170 ;
171 [label="entropy = 0.0000\nsamples = 1\nvalue = [ 0.          1.83193277]", shape="box"] ;
170 -> 171 ;
172 [label="entropy = -0.0000\nsamples = 4\nvalue = [ 1.17647059  0.        ]", shape="box"] ;
170 -> 172 ;
173 [label="X[1] <= 0.4490\nentropy = 0.259716927541\nsamples = 3", shape="box"] ;
169 -> 173 ;
174 [label="X[1] <= 0.2453\nentropy = 0.416234802387\nsamples = 2", shape="box"] ;
173 -> 174 ;
175 [label="entropy = 0.0000\nsamples = 1\nvalue = [ 0.          1.83193277]", shape="box"] ;
174 -> 175 ;
176 [label="entropy = 0.0000\nsamples = 1\nvalue = [ 0.16806723  0.        ]", shape="box"] ;
174 -> 176 ;
177 [label="entropy = -0.0000\nsamples = 1\nvalue = [ 0.          1.83193277]", shape="box"] ;
173 -> 177 ;
178 [label="X[8] <= 115.4269\nentropy = 0.409245089058\nsamples = 77", shape="box"] ;
168 -> 178 ;
179 [label="entropy = 0.0000\nsamples = 64\nvalue = [ 16.47058824   0.        ]", shape="box"] ;
178 -> 179 ;
180 [label="X[7] <= 20.1225\nentropy = 0.895834417193\nsamples = 13", shape="box"] ;
178 -> 180 ;
181 [label="entropy = 0.0000\nsamples = 12\nvalue = [ 4.03361345  0.        ]", shape="box"] ;
180 -> 181 ;
182 [label="entropy = -0.0000\nsamples = 1\nvalue = [ 0.          1.83193277]", shape="box"] ;
180 -> 182 ;
183 [label="entropy = 0.0000\nsamples = 91\nvalue = [ 24.03361345   0.        ]", shape="box"] ;
167 -> 183 ;
184 [label="X[6] <= 3.1191\nentropy = 0.965481125941\nsamples = 18", shape="box"] ;
166 -> 184 ;
185 [label="X[4] <= 55.6020\nentropy = 0.839240901696\nsamples = 13", shape="box"] ;
184 -> 185 ;
186 [label="X[4] <= 31.9557\nentropy = 0.671965415974\nsamples = 9", shape="box"] ;
185 -> 186 ;
187 [label="X[9] <= 35.3414\nentropy = 0.938479867423\nsamples = 6", shape="box"] ;
186 -> 187 ;
188 [label="entropy = 0.0000\nsamples = 4\nvalue = [ 0.84033613  0.        ]", shape="box"] ;
187 -> 188 ;
189 [label="X[1] <= 0.1102\nentropy = 0.416234802387\nsamples = 2", shape="box"] ;
187 -> 189 ;
190 [label="entropy = 0.0000\nsamples = 1\nvalue = [ 0.16806723  0.        ]", shape="box"] ;
189 -> 190 ;
191 [label="entropy = 0.0000\nsamples = 1\nvalue = [ 0.          1.83193277]", shape="box"] ;
189 -> 191 ;
192 [label="X[2] <= 8.5423\nentropy = 0.259716927541\nsamples = 3", shape="box"] ;
186 -> 192 ;
193 [label="entropy = 0.0000\nsamples = 2\nvalue = [ 0.          3.66386555]", shape="box"] ;
192 -> 193 ;
194 [label="entropy = -0.0000\nsamples = 1\nvalue = [ 0.16806723  0.        ]", shape="box"] ;
192 -> 194 ;
195 [label="entropy = 0.0000\nsamples = 4\nvalue = [ 0.84033613  0.        ]", shape="box"] ;
185 -> 195 ;
196 [label="entropy = 0.0000\nsamples = 5\nvalue = [ 1.51260504  0.        ]", shape="box"] ;
184 -> 196 ;
197 [label="X[4] <= 3.5880\nentropy = 0.574787172215\nsamples = 84", shape="box"] ;
79 -> 197 ;
198 [label="X[5] <= 10.9240\nentropy = 0.99948238965\nsamples = 19", shape="box"] ;
197 -> 198 ;
199 [label="entropy = 0.0000\nsamples = 13\nvalue = [ 2.85714286  0.        ]", shape="box"] ;
198 -> 199 ;
200 [label="X[3] <= 2.6097\nentropy = 0.75247481899\nsamples = 6", shape="box"] ;
198 -> 200 ;
201 [label="entropy = 0.0000\nsamples = 2\nvalue = [ 0.          3.66386555]", shape="box"] ;
200 -> 201 ;
202 [label="entropy = -0.0000\nsamples = 4\nvalue = [ 1.00840336  0.        ]", shape="box"] ;
200 -> 202 ;
203 [label="entropy = 0.0000\nsamples = 65\nvalue = [ 19.32773109   0.        ]", shape="box"] ;
197 -> 203 ;
204 [label="X[0] <= 0.8739\nentropy = 0.681090127886\nsamples = 199", shape="box"] ;
0 -> 204 ;
205 [label="X[3] <= 4.5300\nentropy = 0.873914225327\nsamples = 109", shape="box"] ;
204 -> 205 ;
206 [label="entropy = 0.0000\nsamples = 69\nvalue = [ 17.4789916   0.       ]", shape="box"] ;
205 -> 206 ;
207 [label="X[8] <= 108.7173\nentropy = 0.992073504916\nsamples = 40", shape="box"] ;
205 -> 207 ;
208 [label="X[1] <= 0.0335\nentropy = 0.594565487246\nsamples = 12", shape="box"] ;
207 -> 208 ;
209 [label="entropy = 0.0000\nsamples = 3\nvalue = [ 0.84033613  0.        ]", shape="box"] ;
208 -> 209 ;
210 [label="X[8] <= 56.0721\nentropy = 0.416234802387\nsamples = 9", shape="box"] ;
208 -> 210 ;
211 [label="entropy = 0.0000\nsamples = 3\nvalue = [ 0.84033613  0.        ]", shape="box"] ;
210 -> 211 ;
212 [label="X[0] <= 0.7521\nentropy = 0.112724213238\nsamples = 6", shape="box"] ;
210 -> 212 ;
213 [label="entropy = 0.0000\nsamples = 1\nvalue = [ 0.16806723  0.        ]", shape="box"] ;
212 -> 213 ;
214 [label="entropy = 0.0000\nsamples = 5\nvalue = [  0.          10.99159664]", shape="box"] ;
212 -> 214 ;
215 [label="entropy = 0.0000\nsamples = 28\nvalue = [ 7.05882353  0.        ]", shape="box"] ;
207 -> 215 ;
216 [label="entropy = 0.0000\nsamples = 90\nvalue = [ 23.52941176   0.        ]", shape="box"] ;
204 -> 216 ;
}