digraph Tree {
0 [label="X[8] <= 35.9910\nentropy = 1.0\nsamples = 962", shape="box"] ;
1 [label="entropy = 0.0000\nsamples = 47\nvalue = [ 12.56625727   0.        ]", shape="box"] ;
0 -> 1 ;
2 [label="X[1] <= 0.1998\nentropy = 0.999506187325\nsamples = 915", shape="box"] ;
0 -> 2 ;
3 [label="X[9] <= 15.3914\nentropy = 0.97993990572\nsamples = 642", shape="box"] ;
2 -> 3 ;
4 [label="X[3] <= 2.4429\nentropy = 0.747067495087\nsamples = 113", shape="box"] ;
3 -> 4 ;
5 [label="entropy = 0.0000\nsamples = 24\nvalue = [ 6.45765999  0.        ]", shape="box"] ;
4 -> 5 ;
6 [label="X[8] <= 115.3845\nentropy = 0.642335949734\nsamples = 89", shape="box"] ;
4 -> 6 ;
7 [label="X[4] <= 0.2923\nentropy = 0.538165948064\nsamples = 71", shape="box"] ;
6 -> 7 ;
8 [label="entropy = 0.0000\nsamples = 5\nvalue = [  0.          18.25468649]", shape="box"] ;
7 -> 8 ;
9 [label="X[3] <= 3.8101\nentropy = 0.61312941154\nsamples = 66", shape="box"] ;
7 -> 9 ;
10 [label="X[2] <= 6.9102\nentropy = 0.579206591354\nsamples = 62", shape="box"] ;
9 -> 10 ;
11 [label="X[2] <= 2.3956\nentropy = 0.494757058019\nsamples = 52", shape="box"] ;
10 -> 11 ;
12 [label="X[9] <= 8.9327\nentropy = 0.86201822704\nsamples = 18", shape="box"] ;
11 -> 12 ;
13 [label="X[2] <= -2.7737\nentropy = 0.159826878252\nsamples = 3", shape="box"] ;
12 -> 13 ;
14 [label="entropy = 0.0000\nsamples = 1\nvalue = [ 0.17453135  0.        ]", shape="box"] ;
13 -> 14 ;
15 [label="entropy = 0.0000\nsamples = 2\nvalue = [ 0.         7.3018746]", shape="box"] ;
13 -> 15 ;
16 [label="X[6] <= 1.5067\nentropy = 0.99660254297\nsamples = 15", shape="box"] ;
12 -> 16 ;
17 [label="X[9] <= 13.0157\nentropy = 0.544758699998\nsamples = 3", shape="box"] ;
16 -> 17 ;
18 [label="entropy = 0.0000\nsamples = 2\nvalue = [ 0.52359405  0.        ]", shape="box"] ;
17 -> 18 ;
19 [label="entropy = -0.0000\nsamples = 1\nvalue = [ 0.         3.6509373]", shape="box"] ;
17 -> 19 ;
20 [label="entropy = 0.0000\nsamples = 12\nvalue = [ 3.66515837  0.        ]", shape="box"] ;
16 -> 20 ;
21 [label="X[4] <= 39.4757\nentropy = 0.341341091723\nsamples = 34", shape="box"] ;
11 -> 21 ;
22 [label="X[1] <= 0.0155\nentropy = 0.285626487896\nsamples = 30", shape="box"] ;
21 -> 22 ;
23 [label="X[7] <= 10.0621\nentropy = 0.124753308991\nsamples = 14", shape="box"] ;
22 -> 23 ;
24 [label="X[6] <= 42.0025\nentropy = 0.544758699998\nsamples = 3", shape="box"] ;
23 -> 24 ;
25 [label="entropy = 0.0000\nsamples = 2\nvalue = [ 0.52359405  0.        ]", shape="box"] ;
24 -> 25 ;
26 [label="entropy = 0.0000\nsamples = 1\nvalue = [ 0.         3.6509373]", shape="box"] ;
24 -> 26 ;
27 [label="X[4] <= 2.6131\nentropy = 0.0435557567495\nsamples = 11", shape="box"] ;
23 -> 27 ;
28 [label="entropy = 0.0000\nsamples = 1\nvalue = [ 0.17453135  0.        ]", shape="box"] ;
27 -> 28 ;
29 [label="entropy = 0.0000\nsamples = 10\nvalue = [  0.          36.50937298]", shape="box"] ;
27 -> 29 ;
30 [label="X[9] <= 10.3692\nentropy = 0.533212193613\nsamples = 16", shape="box"] ;
22 -> 30 ;
31 [label="X[9] <= 5.3381\nentropy = 0.882287343482\nsamples = 8", shape="box"] ;
30 -> 31 ;
32 [label="X[0] <= 0.5248\nentropy = 0.267506709913\nsamples = 2", shape="box"] ;
31 -> 32 ;
33 [label="entropy = 0.0000\nsamples = 1\nvalue = [ 0.         3.6509373]", shape="box"] ;
32 -> 33 ;
34 [label="entropy = -0.0000\nsamples = 1\nvalue = [ 0.17453135  0.        ]", shape="box"] ;
32 -> 34 ;
35 [label="entropy = 0.0000\nsamples = 6\nvalue = [ 1.39625081  0.        ]", shape="box"] ;
31 -> 35 ;
36 [label="X[2] <= 6.4478\nentropy = 0.294009379175\nsamples = 8", shape="box"] ;
30 -> 36 ;
37 [label="X[6] <= 3.2131\nentropy = 0.176994032396\nsamples = 7", shape="box"] ;
36 -> 37 ;
38 [label="X[0] <= 0.5058\nentropy = 0.103032887516\nsamples = 6", shape="box"] ;
37 -> 38 ;
39 [label="X[4] <= 10.2359\nentropy = 0.42727653726\nsamples = 2", shape="box"] ;
38 -> 39 ;
40 [label="entropy = 0.0000\nsamples = 1\nvalue = [ 0.17453135  0.        ]", shape="box"] ;
39 -> 40 ;
41 [label="entropy = 0.0000\nsamples = 1\nvalue = [ 0.          1.82546865]", shape="box"] ;
39 -> 41 ;
42 [label="entropy = 0.0000\nsamples = 4\nvalue = [  0.          10.95281189]", shape="box"] ;
38 -> 42 ;
43 [label="entropy = 0.0000\nsamples = 1\nvalue = [ 0.17453135  0.        ]", shape="box"] ;
37 -> 43 ;
44 [label="entropy = -0.0000\nsamples = 1\nvalue = [ 0.3490627  0.       ]", shape="box"] ;
36 -> 44 ;
45 [label="entropy = -0.0000\nsamples = 4\nvalue = [ 0.87265676  0.        ]", shape="box"] ;
21 -> 45 ;
46 [label="entropy = -0.0000\nsamples = 10\nvalue = [ 2.61797027  0.        ]", shape="box"] ;
10 -> 46 ;
47 [label="entropy = 0.0000\nsamples = 4\nvalue = [ 1.22171946  0.        ]", shape="box"] ;
9 -> 47 ;
48 [label="entropy = 0.0000\nsamples = 18\nvalue = [ 4.71234648  0.        ]", shape="box"] ;
6 -> 48 ;
49 [label="X[2] <= 4.7637\nentropy = 0.999991252425\nsamples = 529", shape="box"] ;
3 -> 49 ;
50 [label="X[3] <= 4.0307\nentropy = 0.967780675254\nsamples = 325", shape="box"] ;
49 -> 50 ;
51 [label="X[5] <= -3.6766\nentropy = 0.889337247465\nsamples = 207", shape="box"] ;
50 -> 51 ;
52 [label="X[2] <= -9.1016\nentropy = 0.769420347346\nsamples = 38", shape="box"] ;
51 -> 52 ;
53 [label="entropy = 0.0000\nsamples = 1\nvalue = [ 0.          1.82546865]", shape="box"] ;
52 -> 53 ;
54 [label="X[0] <= 1.9942\nentropy = 0.548712021178\nsamples = 37", shape="box"] ;
52 -> 54 ;
55 [label="entropy = 0.0000\nsamples = 33\nvalue = [ 11.69360052   0.        ]", shape="box"] ;
54 -> 55 ;
56 [label="X[0] <= 2.0232\nentropy = 0.908073338865\nsamples = 4", shape="box"] ;
54 -> 56 ;
57 [label="entropy = 0.0000\nsamples = 1\nvalue = [ 0.          1.82546865]", shape="box"] ;
56 -> 57 ;
58 [label="entropy = 0.0000\nsamples = 3\nvalue = [ 0.87265676  0.        ]", shape="box"] ;
56 -> 58 ;
59 [label="X[1] <= -0.0980\nentropy = 0.814651562313\nsamples = 169", shape="box"] ;
51 -> 59 ;
60 [label="X[2] <= 1.6901\nentropy = 0.521852609441\nsamples = 33", shape="box"] ;
59 -> 60 ;
61 [label="X[1] <= -2.5480\nentropy = 0.222922211757\nsamples = 13", shape="box"] ;
60 -> 61 ;
62 [label="entropy = 0.0000\nsamples = 2\nvalue = [ 0.52359405  0.        ]", shape="box"] ;
61 -> 62 ;
63 [label="X[0] <= 1.1039\nentropy = 0.145933720443\nsamples = 11", shape="box"] ;
61 -> 63 ;
64 [label="entropy = 0.0000\nsamples = 7\nvalue = [  0.          20.08015514]", shape="box"] ;
63 -> 64 ;
65 [label="X[6] <= 7.5379\nentropy = 0.294009379175\nsamples = 4", shape="box"] ;
63 -> 65 ;
66 [label="entropy = 0.0000\nsamples = 2\nvalue = [  0.          12.77828054]", shape="box"] ;
65 -> 66 ;
67 [label="entropy = 0.0000\nsamples = 2\nvalue = [ 0.6981254  0.       ]", shape="box"] ;
65 -> 67 ;
68 [label="X[1] <= -0.9335\nentropy = 0.908073338865\nsamples = 20", shape="box"] ;
60 -> 68 ;
69 [label="entropy = 0.0000\nsamples = 4\nvalue = [ 1.57078216  0.        ]", shape="box"] ;
68 -> 69 ;
70 [label="X[5] <= 12.5045\nentropy = 0.7853865977\nsamples = 16", shape="box"] ;
68 -> 70 ;
71 [label="entropy = 0.0000\nsamples = 9\nvalue = [ 2.09437621  0.        ]", shape="box"] ;
70 -> 71 ;
72 [label="X[7] <= 5.6046\nentropy = 0.369839644323\nsamples = 7", shape="box"] ;
70 -> 72 ;
73 [label="entropy = 0.0000\nsamples = 2\nvalue = [ 0.52359405  0.        ]", shape="box"] ;
72 -> 73 ;
74 [label="X[9] <= 20.3945\nentropy = 0.134437827666\nsamples = 5", shape="box"] ;
72 -> 74 ;
75 [label="entropy = 0.0000\nsamples = 1\nvalue = [ 0.17453135  0.        ]", shape="box"] ;
74 -> 75 ;
76 [label="entropy = 0.0000\nsamples = 4\nvalue = [ 0.          9.12734324]", shape="box"] ;
74 -> 76 ;
77 [label="X[6] <= 8.5746\nentropy = 0.90669465847\nsamples = 136", shape="box"] ;
59 -> 77 ;
78 [label="X[9] <= 16.8865\nentropy = 0.825269391729\nsamples = 100", shape="box"] ;
77 -> 78 ;
79 [label="entropy = 0.0000\nsamples = 10\nvalue = [ 2.96703297  0.        ]", shape="box"] ;
78 -> 79 ;
80 [label="X[7] <= 2.1596\nentropy = 0.778090905199\nsamples = 90", shape="box"] ;
78 -> 80 ;
81 [label="entropy = 0.0000\nsamples = 15\nvalue = [ 4.01422107  0.        ]", shape="box"] ;
80 -> 81 ;
82 [label="X[8] <= 65.5311\nentropy = 0.695219213641\nsamples = 75", shape="box"] ;
80 -> 82 ;
83 [label="entropy = 0.0000\nsamples = 8\nvalue = [ 1.91984486  0.        ]", shape="box"] ;
82 -> 83 ;
84 [label="X[6] <= 1.8416\nentropy = 0.645466910946\nsamples = 67", shape="box"] ;
82 -> 84 ;
85 [label="entropy = 0.0000\nsamples = 8\nvalue = [ 1.39625081  0.        ]", shape="box"] ;
84 -> 85 ;
86 [label="X[0] <= 0.5538\nentropy = 0.604046494221\nsamples = 59", shape="box"] ;
84 -> 86 ;
87 [label="X[0] <= 0.4951\nentropy = 0.145933720443\nsamples = 7", shape="box"] ;
86 -> 87 ;
88 [label="X[1] <= 0.1075\nentropy = 0.327127690238\nsamples = 4", shape="box"] ;
87 -> 88 ;
89 [label="entropy = 0.0000\nsamples = 2\nvalue = [ 0.          5.47640595]", shape="box"] ;
88 -> 89 ;
90 [label="entropy = 0.0000\nsamples = 2\nvalue = [ 0.3490627  0.       ]", shape="box"] ;
88 -> 90 ;
91 [label="entropy = 0.0000\nsamples = 3\nvalue = [  0.          10.95281189]", shape="box"] ;
87 -> 91 ;
92 [label="X[4] <= 7.4549\nentropy = 0.699017595615\nsamples = 52", shape="box"] ;
86 -> 92 ;
93 [label="X[1] <= 0.0735\nentropy = 0.997850858278\nsamples = 27", shape="box"] ;
92 -> 93 ;
94 [label="X[9] <= 35.8083\nentropy = 0.797815686717\nsamples = 11", shape="box"] ;
93 -> 94 ;
95 [label="X[2] <= 1.3219\nentropy = 0.42727653726\nsamples = 5", shape="box"] ;
94 -> 95 ;
96 [label="X[4] <= -0.6615\nentropy = 0.198812749989\nsamples = 3", shape="box"] ;
95 -> 96 ;
97 [label="entropy = 0.0000\nsamples = 1\nvalue = [ 0.17453135  0.        ]", shape="box"] ;
96 -> 97 ;
98 [label="entropy = -0.0000\nsamples = 2\nvalue = [ 0.          5.47640595]", shape="box"] ;
96 -> 98 ;
99 [label="entropy = 0.0000\nsamples = 2\nvalue = [ 0.3490627  0.       ]", shape="box"] ;
95 -> 99 ;
100 [label="entropy = 0.0000\nsamples = 6\nvalue = [ 1.22171946  0.        ]", shape="box"] ;
94 -> 100 ;
101 [label="entropy = 0.0000\nsamples = 16\nvalue = [ 4.36328378  0.        ]", shape="box"] ;
93 -> 101 ;
102 [label="X[3] <= 3.6516\nentropy = 0.440565087416\nsamples = 25", shape="box"] ;
92 -> 102 ;
103 [label="X[0] <= 0.7571\nentropy = 0.716568730804\nsamples = 17", shape="box"] ;
102 -> 103 ;
104 [label="entropy = 0.0000\nsamples = 4\nvalue = [ 1.22171946  0.        ]", shape="box"] ;
103 -> 104 ;
105 [label="X[8] <= 122.0233\nentropy = 0.559131571776\nsamples = 13", shape="box"] ;
103 -> 105 ;
106 [label="X[4] <= 10.0263\nentropy = 0.42727653726\nsamples = 10", shape="box"] ;
105 -> 106 ;
107 [label="entropy = 0.0000\nsamples = 3\nvalue = [ 0.          9.12734324]", shape="box"] ;
106 -> 107 ;
108 [label="X[6] <= 3.6220\nentropy = 0.812432524165\nsamples = 7", shape="box"] ;
106 -> 108 ;
109 [label="X[0] <= 0.9218\nentropy = 0.267506709913\nsamples = 3", shape="box"] ;
108 -> 109 ;
110 [label="entropy = 0.0000\nsamples = 2\nvalue = [ 0.         3.6509373]", shape="box"] ;
109 -> 110 ;
111 [label="entropy = -0.0000\nsamples = 1\nvalue = [ 0.17453135  0.        ]", shape="box"] ;
109 -> 111 ;
112 [label="entropy = 0.0000\nsamples = 4\nvalue = [ 1.04718811  0.        ]", shape="box"] ;
108 -> 112 ;
113 [label="entropy = 0.0000\nsamples = 3\nvalue = [ 0.6981254  0.       ]", shape="box"] ;
105 -> 113 ;
114 [label="X[0] <= 1.5402\nentropy = 0.150262551304\nsamples = 8", shape="box"] ;
102 -> 114 ;
115 [label="entropy = 0.0000\nsamples = 6\nvalue = [  0.          23.73109244]", shape="box"] ;
114 -> 115 ;
116 [label="entropy = 0.0000\nsamples = 2\nvalue = [ 0.52359405  0.        ]", shape="box"] ;
114 -> 116 ;
117 [label="X[6] <= 36.5630\nentropy = 0.864650524867\nsamples = 36", shape="box"] ;
77 -> 117 ;
118 [label="entropy = 0.0000\nsamples = 32\nvalue = [ 8.37750485  0.        ]", shape="box"] ;
117 -> 118 ;
119 [label="X[2] <= -1.3324\nentropy = 0.635559715426\nsamples = 4", shape="box"] ;
117 -> 119 ;
120 [label="entropy = 0.0000\nsamples = 1\nvalue = [ 0.         3.6509373]", shape="box"] ;
119 -> 120 ;
121 [label="entropy = -0.0000\nsamples = 3\nvalue = [ 0.6981254  0.       ]", shape="box"] ;
119 -> 121 ;
122 [label="X[3] <= 4.5315\nentropy = 0.896148375445\nsamples = 118", shape="box"] ;
50 -> 122 ;
123 [label="entropy = 0.0000\nsamples = 78\nvalue = [ 22.51454428   0.        ]", shape="box"] ;
122 -> 123 ;
124 [label="X[4] <= 2.3202\nentropy = 0.968935073542\nsamples = 40", shape="box"] ;
122 -> 124 ;
125 [label="X[7] <= 11.5909\nentropy = 0.655094301827\nsamples = 16", shape="box"] ;
124 -> 125 ;
126 [label="X[1] <= 0.1074\nentropy = 0.86733978788\nsamples = 14", shape="box"] ;
125 -> 126 ;
127 [label="X[8] <= 124.1703\nentropy = 0.544758699998\nsamples = 8", shape="box"] ;
126 -> 127 ;
128 [label="X[1] <= 0.0383\nentropy = 0.267506709913\nsamples = 5", shape="box"] ;
127 -> 128 ;
129 [label="entropy = 0.0000\nsamples = 1\nvalue = [ 0.17453135  0.        ]", shape="box"] ;
128 -> 129 ;
130 [label="X[8] <= 55.1054\nentropy = 0.159826878252\nsamples = 4", shape="box"] ;
128 -> 130 ;
131 [label="entropy = 0.0000\nsamples = 1\nvalue = [ 0.17453135  0.        ]", shape="box"] ;
130 -> 131 ;
132 [label="entropy = -0.0000\nsamples = 3\nvalue = [ 0.         7.3018746]", shape="box"] ;
130 -> 132 ;
133 [label="entropy = 0.0000\nsamples = 3\nvalue = [ 0.6981254  0.       ]", shape="box"] ;
127 -> 133 ;
134 [label="entropy = 0.0000\nsamples = 6\nvalue = [ 1.91984486  0.        ]", shape="box"] ;
126 -> 134 ;
135 [label="entropy = 0.0000\nsamples = 2\nvalue = [ 0.         7.3018746]", shape="box"] ;
125 -> 135 ;
136 [label="entropy = -0.0000\nsamples = 24\nvalue = [ 6.63219134  0.        ]", shape="box"] ;
124 -> 136 ;
137 [label="X[1] <= -0.0772\nentropy = 0.734271531921\nsamples = 204", shape="box"] ;
49 -> 137 ;
138 [label="X[8] <= 97.9624\nentropy = 0.925291689814\nsamples = 22", shape="box"] ;
137 -> 138 ;
139 [label="X[1] <= -0.1434\nentropy = 0.523733087059\nsamples = 6", shape="box"] ;
138 -> 139 ;
140 [label="entropy = 0.0000\nsamples = 3\nvalue = [ 1.04718811  0.        ]", shape="box"] ;
139 -> 140 ;
141 [label="X[6] <= 5.3076\nentropy = 0.134437827666\nsamples = 3", shape="box"] ;
139 -> 141 ;
142 [label="entropy = 0.0000\nsamples = 2\nvalue = [ 0.          9.12734324]", shape="box"] ;
141 -> 142 ;
143 [label="entropy = -0.0000\nsamples = 1\nvalue = [ 0.17453135  0.        ]", shape="box"] ;
141 -> 143 ;
144 [label="entropy = -0.0000\nsamples = 16\nvalue = [ 3.49062702  0.        ]", shape="box"] ;
138 -> 144 ;
145 [label="X[0] <= 0.8904\nentropy = 0.456637069452\nsamples = 182", shape="box"] ;
137 -> 145 ;
146 [label="X[1] <= 0.1148\nentropy = 0.645713294083\nsamples = 100", shape="box"] ;
145 -> 146 ;
147 [label="entropy = 0.0000\nsamples = 73\nvalue = [ 21.46735617   0.        ]", shape="box"] ;
146 -> 147 ;
148 [label="X[0] <= 0.8527\nentropy = 0.99660254297\nsamples = 27", shape="box"] ;
146 -> 148 ;
149 [label="X[8] <= 58.1233\nentropy = 0.805419580529\nsamples = 23", shape="box"] ;
148 -> 149 ;
150 [label="entropy = 0.0000\nsamples = 1\nvalue = [ 0.          1.82546865]", shape="box"] ;
149 -> 150 ;
151 [label="entropy = 0.0000\nsamples = 22\nvalue = [ 5.58500323  0.        ]", shape="box"] ;
149 -> 151 ;
152 [label="X[2] <= 6.0499\nentropy = 0.635559715426\nsamples = 4", shape="box"] ;
148 -> 152 ;
153 [label="entropy = 0.0000\nsamples = 2\nvalue = [ 0.6981254  0.       ]", shape="box"] ;
152 -> 153 ;
154 [label="entropy = -0.0000\nsamples = 2\nvalue = [ 0.         3.6509373]", shape="box"] ;
152 -> 154 ;
155 [label="entropy = 0.0000\nsamples = 82\nvalue = [ 23.73626374   0.        ]", shape="box"] ;
145 -> 155 ;
156 [label="X[6] <= 2.5852\nentropy = 0.796856295325\nsamples = 273", shape="box"] ;
2 -> 156 ;
157 [label="entropy = 0.0000\nsamples = 123\nvalue = [ 34.5572075   0.       ]", shape="box"] ;
156 -> 157 ;
158 [label="X[8] <= 64.2137\nentropy = 0.951842525591\nsamples = 150", shape="box"] ;
156 -> 158 ;
159 [label="X[3] <= 4.0540\nentropy = 0.949744301858\nsamples = 41", shape="box"] ;
158 -> 159 ;
160 [label="X[8] <= 62.5470\nentropy = 0.807669606996\nsamples = 26", shape="box"] ;
159 -> 160 ;
161 [label="X[1] <= 35.2590\nentropy = 0.915586118252\nsamples = 24", shape="box"] ;
160 -> 161 ;
162 [label="X[8] <= 38.6712\nentropy = 0.844258609199\nsamples = 19", shape="box"] ;
161 -> 162 ;
163 [label="X[0] <= 0.4777\nentropy = 0.42727653726\nsamples = 2", shape="box"] ;
162 -> 163 ;
164 [label="entropy = 0.0000\nsamples = 1\nvalue = [ 0.17453135  0.        ]", shape="box"] ;
163 -> 164 ;
165 [label="entropy = 0.0000\nsamples = 1\nvalue = [ 0.          1.82546865]", shape="box"] ;
163 -> 165 ;
166 [label="entropy = 0.0000\nsamples = 17\nvalue = [ 4.71234648  0.        ]", shape="box"] ;
162 -> 166 ;
167 [label="X[3] <= 2.7836\nentropy = 0.304196530983\nsamples = 5", shape="box"] ;
161 -> 167 ;
168 [label="entropy = 0.0000\nsamples = 3\nvalue = [ 0.          9.12734324]", shape="box"] ;
167 -> 168 ;
169 [label="entropy = 0.0000\nsamples = 2\nvalue = [ 0.52359405  0.        ]", shape="box"] ;
167 -> 169 ;
170 [label="entropy = 0.0000\nsamples = 2\nvalue = [ 0.          5.47640595]", shape="box"] ;
160 -> 170 ;
171 [label="entropy = 0.0000\nsamples = 15\nvalue = [ 4.18875242  0.        ]", shape="box"] ;
159 -> 171 ;
172 [label="X[5] <= 13.1357\nentropy = 0.707586109115\nsamples = 109", shape="box"] ;
158 -> 172 ;
173 [label="X[2] <= 1.4423\nentropy = 0.347685830483\nsamples = 89", shape="box"] ;
172 -> 173 ;
174 [label="X[8] <= 101.0193\nentropy = 0.896148375445\nsamples = 13", shape="box"] ;
173 -> 174 ;
175 [label="entropy = 0.0000\nsamples = 11\nvalue = [ 3.66515837  0.        ]", shape="box"] ;
174 -> 175 ;
176 [label="X[2] <= 0.7083\nentropy = 0.635559715426\nsamples = 2", shape="box"] ;
174 -> 176 ;
177 [label="entropy = 0.0000\nsamples = 1\nvalue = [ 0.3490627  0.       ]", shape="box"] ;
176 -> 177 ;
178 [label="entropy = -0.0000\nsamples = 1\nvalue = [ 0.          1.82546865]", shape="box"] ;
176 -> 178 ;
179 [label="entropy = 0.0000\nsamples = 76\nvalue = [ 22.16548158   0.        ]", shape="box"] ;
173 -> 179 ;
180 [label="X[5] <= 15.9488\nentropy = 0.99074881237\nsamples = 20", shape="box"] ;
172 -> 180 ;
181 [label="X[3] <= 3.3430\nentropy = 0.765418353845\nsamples = 10", shape="box"] ;
180 -> 181 ;
182 [label="entropy = 0.0000\nsamples = 4\nvalue = [ 0.87265676  0.        ]", shape="box"] ;
181 -> 182 ;
183 [label="X[0] <= 0.9678\nentropy = 0.509093230846\nsamples = 6", shape="box"] ;
181 -> 183 ;
184 [label="entropy = 0.0000\nsamples = 2\nvalue = [ 0.52359405  0.        ]", shape="box"] ;
183 -> 184 ;
185 [label="X[7] <= 3.6267\nentropy = 0.198812749989\nsamples = 4", shape="box"] ;
183 -> 185 ;
186 [label="entropy = 0.0000\nsamples = 1\nvalue = [ 0.17453135  0.        ]", shape="box"] ;
185 -> 186 ;
187 [label="entropy = -0.0000\nsamples = 3\nvalue = [ 0.          5.47640595]", shape="box"] ;
185 -> 187 ;
188 [label="entropy = 0.0000\nsamples = 10\nvalue = [ 2.79250162  0.        ]", shape="box"] ;
180 -> 188 ;
}