digraph Tree {
0 [label="X[3] <= 4.0392\nentropy = 1.0\nsamples = 965", shape="box"] ;
1 [label="X[1] <= 0.3065\nentropy = 0.992014906565\nsamples = 740", shape="box"] ;
0 -> 1 ;
2 [label="X[4] <= 17.1074\nentropy = 0.969878707531\nsamples = 606", shape="box"] ;
1 -> 2 ;
3 [label="X[2] <= 4.7637\nentropy = 0.99992257863\nsamples = 492", shape="box"] ;
2 -> 3 ;
4 [label="X[7] <= 2.2659\nentropy = 0.948571541771\nsamples = 264", shape="box"] ;
3 -> 4 ;
5 [label="entropy = 0.0000\nsamples = 35\nvalue = [ 9.74789916  0.        ]", shape="box"] ;
4 -> 5 ;
6 [label="X[7] <= 58.2156\nentropy = 0.913184487304\nsamples = 229", shape="box"] ;
4 -> 6 ;
7 [label="X[3] <= 4.0088\nentropy = 0.936561614256\nsamples = 226", shape="box"] ;
6 -> 7 ;
8 [label="X[5] <= 12.1820\nentropy = 0.954781450053\nsamples = 221", shape="box"] ;
7 -> 8 ;
9 [label="X[4] <= 0.1606\nentropy = 0.999135181329\nsamples = 175", shape="box"] ;
8 -> 9 ;
10 [label="X[8] <= 93.3042\nentropy = 0.588757588925\nsamples = 18", shape="box"] ;
9 -> 10 ;
11 [label="entropy = 0.0000\nsamples = 6\nvalue = [ 1.51260504  0.        ]", shape="box"] ;
10 -> 11 ;
12 [label="X[0] <= 0.1970\nentropy = 0.388902232297\nsamples = 12", shape="box"] ;
10 -> 12 ;
13 [label="entropy = 0.0000\nsamples = 2\nvalue = [ 0.67226891  0.        ]", shape="box"] ;
12 -> 13 ;
14 [label="X[8] <= 226.1210\nentropy = 0.259716927541\nsamples = 10", shape="box"] ;
12 -> 14 ;
15 [label="X[5] <= -20.2970\nentropy = 0.130162790668\nsamples = 8", shape="box"] ;
14 -> 15 ;
16 [label="entropy = 0.0000\nsamples = 1\nvalue = [ 0.16806723  0.        ]", shape="box"] ;
15 -> 16 ;
17 [label="X[1] <= 0.0090\nentropy = 0.0747043371548\nsamples = 7", shape="box"] ;
15 -> 17 ;
18 [label="entropy = 0.0000\nsamples = 5\nvalue = [  0.          16.48739496]", shape="box"] ;
17 -> 18 ;
19 [label="X[2] <= 4.0944\nentropy = 0.416234802387\nsamples = 2", shape="box"] ;
17 -> 19 ;
20 [label="entropy = 0.0000\nsamples = 1\nvalue = [ 0.16806723  0.        ]", shape="box"] ;
19 -> 20 ;
21 [label="entropy = 0.0000\nsamples = 1\nvalue = [ 0.          1.83193277]", shape="box"] ;
19 -> 21 ;
22 [label="entropy = -0.0000\nsamples = 2\nvalue = [ 0.50420168  0.        ]", shape="box"] ;
14 -> 22 ;
23 [label="X[4] <= 3.7119\nentropy = 0.93733322341\nsamples = 157", shape="box"] ;
9 -> 23 ;
24 [label="entropy = 0.0000\nsamples = 41\nvalue = [ 10.92436975   0.        ]", shape="box"] ;
23 -> 24 ;
25 [label="X[9] <= 52.6044\nentropy = 0.985460633808\nsamples = 116", shape="box"] ;
23 -> 25 ;
26 [label="X[8] <= 104.9057\nentropy = 0.99662486068\nsamples = 101", shape="box"] ;
25 -> 26 ;
27 [label="X[1] <= 0.3006\nentropy = 0.976647015049\nsamples = 69", shape="box"] ;
26 -> 27 ;
28 [label="X[6] <= 5.7991\nentropy = 0.998982861091\nsamples = 67", shape="box"] ;
27 -> 28 ;
29 [label="X[1] <= 0.1613\nentropy = 0.96300719883\nsamples = 48", shape="box"] ;
28 -> 29 ;
30 [label="X[2] <= 3.5937\nentropy = 0.881028987439\nsamples = 36", shape="box"] ;
29 -> 30 ;
31 [label="X[7] <= 10.2832\nentropy = 0.997404397071\nsamples = 22", shape="box"] ;
30 -> 31 ;
32 [label="entropy = 0.0000\nsamples = 18\nvalue = [ 4.53781513  0.        ]", shape="box"] ;
31 -> 32 ;
33 [label="X[1] <= 0.0842\nentropy = 0.31799192798\nsamples = 4", shape="box"] ;
31 -> 33 ;
34 [label="entropy = 0.0000\nsamples = 2\nvalue = [ 0.33613445  0.        ]", shape="box"] ;
33 -> 34 ;
35 [label="entropy = -0.0000\nsamples = 2\nvalue = [ 0.          5.49579832]", shape="box"] ;
33 -> 35 ;
36 [label="X[5] <= 6.7716\nentropy = 0.648044232419\nsamples = 14", shape="box"] ;
30 -> 36 ;
37 [label="X[1] <= -0.0953\nentropy = 0.416234802387\nsamples = 9", shape="box"] ;
36 -> 37 ;
38 [label="entropy = 0.0000\nsamples = 2\nvalue = [ 0.67226891  0.        ]", shape="box"] ;
37 -> 38 ;
39 [label="X[4] <= 4.4815\nentropy = 0.192752280034\nsamples = 7", shape="box"] ;
37 -> 39 ;
40 [label="entropy = 0.0000\nsamples = 1\nvalue = [ 0.16806723  0.        ]", shape="box"] ;
39 -> 40 ;
41 [label="X[3] <= 3.6880\nentropy = 0.112724213238\nsamples = 6", shape="box"] ;
39 -> 41 ;
42 [label="entropy = 0.0000\nsamples = 4\nvalue = [ 0.          9.15966387]", shape="box"] ;
41 -> 42 ;
43 [label="X[8] <= 86.8784\nentropy = 0.416234802387\nsamples = 2", shape="box"] ;
41 -> 43 ;
44 [label="entropy = 0.0000\nsamples = 1\nvalue = [ 0.16806723  0.        ]", shape="box"] ;
43 -> 44 ;
45 [label="entropy = 0.0000\nsamples = 1\nvalue = [ 0.          1.83193277]", shape="box"] ;
43 -> 45 ;
46 [label="entropy = 0.0000\nsamples = 5\nvalue = [ 1.17647059  0.        ]", shape="box"] ;
36 -> 46 ;
47 [label="entropy = 0.0000\nsamples = 12\nvalue = [ 3.36134454  0.        ]", shape="box"] ;
29 -> 47 ;
48 [label="entropy = 0.0000\nsamples = 19\nvalue = [ 4.87394958  0.        ]", shape="box"] ;
28 -> 48 ;
49 [label="entropy = -0.0000\nsamples = 2\nvalue = [ 0.          5.49579832]", shape="box"] ;
27 -> 49 ;
50 [label="entropy = 0.0000\nsamples = 32\nvalue = [ 9.91596639  0.        ]", shape="box"] ;
26 -> 50 ;
51 [label="entropy = 0.0000\nsamples = 15\nvalue = [ 4.03361345  0.        ]", shape="box"] ;
25 -> 51 ;
52 [label="X[9] <= 52.1949\nentropy = 0.628659531671\nsamples = 46", shape="box"] ;
8 -> 52 ;
53 [label="X[7] <= 5.2101\nentropy = 0.559577560879\nsamples = 41", shape="box"] ;
52 -> 53 ;
54 [label="entropy = 0.0000\nsamples = 7\nvalue = [ 1.51260504  0.        ]", shape="box"] ;
53 -> 54 ;
55 [label="X[0] <= 1.5905\nentropy = 0.484926876499\nsamples = 34", shape="box"] ;
53 -> 55 ;
56 [label="X[1] <= 0.1320\nentropy = 0.4267225751\nsamples = 31", shape="box"] ;
55 -> 56 ;
57 [label="X[3] <= 3.8825\nentropy = 0.359834023851\nsamples = 27", shape="box"] ;
56 -> 57 ;
58 [label="X[5] <= 21.7593\nentropy = 0.335185112838\nsamples = 26", shape="box"] ;
57 -> 58 ;
59 [label="X[4] <= 9.8199\nentropy = 0.243904526192\nsamples = 20", shape="box"] ;
58 -> 59 ;
60 [label="X[4] <= 8.9412\nentropy = 0.311506827748\nsamples = 17", shape="box"] ;
59 -> 60 ;
61 [label="X[1] <= -0.0135\nentropy = 0.248613275424\nsamples = 15", shape="box"] ;
60 -> 61 ;
62 [label="X[3] <= 3.1465\nentropy = 0.0566472848238\nsamples = 8", shape="box"] ;
61 -> 62 ;
63 [label="entropy = 0.0000\nsamples = 5\nvalue = [  0.          21.98319328]", shape="box"] ;
62 -> 63 ;
64 [label="X[7] <= 16.7980\nentropy = 0.259716927541\nsamples = 3", shape="box"] ;
62 -> 64 ;
65 [label="entropy = 0.0000\nsamples = 2\nvalue = [ 0.          3.66386555]", shape="box"] ;
64 -> 65 ;
66 [label="entropy = -0.0000\nsamples = 1\nvalue = [ 0.16806723  0.        ]", shape="box"] ;
64 -> 66 ;
67 [label="X[7] <= 12.7560\nentropy = 0.671965415974\nsamples = 7", shape="box"] ;
61 -> 67 ;
68 [label="entropy = 0.0000\nsamples = 4\nvalue = [ 1.00840336  0.        ]", shape="box"] ;
67 -> 68 ;
69 [label="X[4] <= 0.4561\nentropy = 0.192752280034\nsamples = 3", shape="box"] ;
67 -> 69 ;
70 [label="entropy = 0.0000\nsamples = 1\nvalue = [ 0.16806723  0.        ]", shape="box"] ;
69 -> 70 ;
71 [label="entropy = -0.0000\nsamples = 2\nvalue = [ 0.          5.49579832]", shape="box"] ;
69 -> 71 ;
72 [label="entropy = -0.0000\nsamples = 2\nvalue = [ 0.50420168  0.        ]", shape="box"] ;
60 -> 72 ;
73 [label="entropy = 0.0000\nsamples = 3\nvalue = [  0.          12.82352941]", shape="box"] ;
59 -> 73 ;
74 [label="X[8] <= 152.2843\nentropy = 0.965481125941\nsamples = 6", shape="box"] ;
58 -> 74 ;
75 [label="entropy = 0.0000\nsamples = 4\nvalue = [ 1.00840336  0.        ]", shape="box"] ;
74 -> 75 ;
76 [label="X[0] <= 0.9459\nentropy = 0.416234802387\nsamples = 2", shape="box"] ;
74 -> 76 ;
77 [label="entropy = 0.0000\nsamples = 1\nvalue = [ 0.16806723  0.        ]", shape="box"] ;
76 -> 77 ;
78 [label="entropy = 0.0000\nsamples = 1\nvalue = [ 0.          1.83193277]", shape="box"] ;
76 -> 78 ;
79 [label="entropy = 0.0000\nsamples = 1\nvalue = [ 0.33613445  0.        ]", shape="box"] ;
57 -> 79 ;
80 [label="entropy = -0.0000\nsamples = 4\nvalue = [ 1.00840336  0.        ]", shape="box"] ;
56 -> 80 ;
81 [label="entropy = -0.0000\nsamples = 3\nvalue = [ 1.00840336  0.        ]", shape="box"] ;
55 -> 81 ;
82 [label="entropy = -0.0000\nsamples = 5\nvalue = [ 1.68067227  0.        ]", shape="box"] ;
52 -> 82 ;
83 [label="X[6] <= 3.8377\nentropy = 0.130162790668\nsamples = 5", shape="box"] ;
7 -> 83 ;
84 [label="entropy = 0.0000\nsamples = 4\nvalue = [ 0.          9.15966387]", shape="box"] ;
83 -> 84 ;
85 [label="entropy = -0.0000\nsamples = 1\nvalue = [ 0.16806723  0.        ]", shape="box"] ;
83 -> 85 ;
86 [label="entropy = -0.0000\nsamples = 3\nvalue = [  0.          10.99159664]", shape="box"] ;
6 -> 86 ;
87 [label="X[9] <= 24.0720\nentropy = 0.783042788936\nsamples = 228", shape="box"] ;
3 -> 87 ;
88 [label="X[7] <= 10.2811\nentropy = 0.958102201119\nsamples = 107", shape="box"] ;
87 -> 88 ;
89 [label="entropy = 0.0000\nsamples = 46\nvalue = [ 13.1092437   0.       ]", shape="box"] ;
88 -> 89 ;
90 [label="X[9] <= 22.1272\nentropy = 0.994227701545\nsamples = 61", shape="box"] ;
88 -> 90 ;
91 [label="X[1] <= 0.0852\nentropy = 0.975566906921\nsamples = 56", shape="box"] ;
90 -> 91 ;
92 [label="X[3] <= 2.4530\nentropy = 0.980084489449\nsamples = 31", shape="box"] ;
91 -> 92 ;
93 [label="entropy = 0.0000\nsamples = 9\nvalue = [ 2.68907563  0.        ]", shape="box"] ;
92 -> 93 ;
94 [label="X[9] <= 16.1835\nentropy = 0.877311880246\nsamples = 22", shape="box"] ;
92 -> 94 ;
95 [label="X[8] <= 40.9296\nentropy = 0.772657087146\nsamples = 16", shape="box"] ;
94 -> 95 ;
96 [label="entropy = 0.0000\nsamples = 4\nvalue = [ 1.00840336  0.        ]", shape="box"] ;
95 -> 96 ;
97 [label="X[3] <= 2.9219\nentropy = 0.622307462412\nsamples = 12", shape="box"] ;
95 -> 97 ;
98 [label="X[9] <= 12.9108\nentropy = 0.34458296124\nsamples = 6", shape="box"] ;
97 -> 98 ;
99 [label="X[4] <= 5.4296\nentropy = 0.154828943527\nsamples = 5", shape="box"] ;
98 -> 99 ;
100 [label="entropy = 0.0000\nsamples = 4\nvalue = [ 0.          7.32773109]", shape="box"] ;
99 -> 100 ;
101 [label="entropy = 0.0000\nsamples = 1\nvalue = [ 0.16806723  0.        ]", shape="box"] ;
99 -> 101 ;
102 [label="entropy = 0.0000\nsamples = 1\nvalue = [ 0.33613445  0.        ]", shape="box"] ;
98 -> 102 ;
103 [label="X[1] <= -5.4916\nentropy = 0.965481125941\nsamples = 6", shape="box"] ;
97 -> 103 ;
104 [label="entropy = 0.0000\nsamples = 1\nvalue = [ 0.          1.83193277]", shape="box"] ;
103 -> 104 ;
105 [label="entropy = 0.0000\nsamples = 5\nvalue = [ 1.17647059  0.        ]", shape="box"] ;
103 -> 105 ;
106 [label="entropy = 0.0000\nsamples = 6\nvalue = [ 1.17647059  0.        ]", shape="box"] ;
94 -> 106 ;
107 [label="entropy = 0.0000\nsamples = 25\nvalue = [ 6.72268908  0.        ]", shape="box"] ;
91 -> 107 ;
108 [label="X[5] <= 10.8910\nentropy = 0.34458296124\nsamples = 5", shape="box"] ;
90 -> 108 ;
109 [label="entropy = 0.0000\nsamples = 3\nvalue = [ 0.50420168  0.        ]", shape="box"] ;
108 -> 109 ;
110 [label="entropy = -0.0000\nsamples = 2\nvalue = [ 0.          7.32773109]", shape="box"] ;
108 -> 110 ;
111 [label="X[4] <= 3.5187\nentropy = 0.294537430278\nsamples = 121", shape="box"] ;
87 -> 111 ;
112 [label="X[9] <= 133.4575\nentropy = 0.749332126409\nsamples = 25", shape="box"] ;
111 -> 112 ;
113 [label="entropy = 0.0000\nsamples = 24\nvalue = [ 6.72268908  0.        ]", shape="box"] ;
112 -> 113 ;
114 [label="entropy = 0.0000\nsamples = 1\nvalue = [ 0.          1.83193277]", shape="box"] ;
112 -> 114 ;
115 [label="entropy = 0.0000\nsamples = 96\nvalue = [ 26.72268908   0.        ]", shape="box"] ;
111 -> 115 ;
116 [label="X[0] <= 1.4676\nentropy = 0.694234741614\nsamples = 114", shape="box"] ;
2 -> 116 ;
117 [label="X[7] <= -4.9960\nentropy = 0.64405294524\nsamples = 103", shape="box"] ;
116 -> 117 ;
118 [label="X[2] <= -0.9784\nentropy = 0.980932434738\nsamples = 40", shape="box"] ;
117 -> 118 ;
119 [label="X[7] <= -9.8565\nentropy = 0.416234802387\nsamples = 7", shape="box"] ;
118 -> 119 ;
120 [label="X[4] <= 1765.4862\nentropy = 0.220779923471\nsamples = 5", shape="box"] ;
119 -> 120 ;
121 [label="X[1] <= 0.0069\nentropy = 0.130162790668\nsamples = 4", shape="box"] ;
120 -> 121 ;
122 [label="entropy = 0.0000\nsamples = 1\nvalue = [ 0.16806723  0.        ]", shape="box"] ;
121 -> 122 ;
123 [label="entropy = 0.0000\nsamples = 3\nvalue = [ 0.          9.15966387]", shape="box"] ;
121 -> 123 ;
124 [label="entropy = 0.0000\nsamples = 1\nvalue = [ 0.16806723  0.        ]", shape="box"] ;
120 -> 124 ;
125 [label="entropy = 0.0000\nsamples = 2\nvalue = [ 0.50420168  0.        ]", shape="box"] ;
119 -> 125 ;
126 [label="X[9] <= 78.0674\nentropy = 0.885672450073\nsamples = 33", shape="box"] ;
118 -> 126 ;
127 [label="X[1] <= -0.0152\nentropy = 0.67784483214\nsamples = 32", shape="box"] ;
126 -> 127 ;
128 [label="X[1] <= -0.0372\nentropy = 0.981847303227\nsamples = 12", shape="box"] ;
127 -> 128 ;
129 [label="entropy = 0.0000\nsamples = 11\nvalue = [ 2.5210084  0.       ]", shape="box"] ;
128 -> 129 ;
130 [label="entropy = 0.0000\nsamples = 1\nvalue = [ 0.          1.83193277]", shape="box"] ;
128 -> 130 ;
131 [label="entropy = 0.0000\nsamples = 20\nvalue = [ 5.88235294  0.        ]", shape="box"] ;
127 -> 131 ;
132 [label="entropy = 0.0000\nsamples = 1\nvalue = [ 0.          1.83193277]", shape="box"] ;
126 -> 132 ;
133 [label="X[8] <= 40.0596\nentropy = 0.468569301666\nsamples = 63", shape="box"] ;
117 -> 133 ;
134 [label="entropy = 0.0000\nsamples = 9\nvalue = [ 2.01680672  0.        ]", shape="box"] ;
133 -> 134 ;
135 [label="X[3] <= 2.4902\nentropy = 0.397339832681\nsamples = 54", shape="box"] ;
133 -> 135 ;
136 [label="entropy = 0.0000\nsamples = 4\nvalue = [ 1.00840336  0.        ]", shape="box"] ;
135 -> 136 ;
137 [label="X[4] <= 22.6532\nentropy = 0.357034439618\nsamples = 50", shape="box"] ;
135 -> 137 ;
138 [label="X[0] <= 0.6540\nentropy = 0.0895373261081\nsamples = 15", shape="box"] ;
137 -> 138 ;
139 [label="X[8] <= 71.4386\nentropy = 0.416234802387\nsamples = 4", shape="box"] ;
138 -> 139 ;
140 [label="entropy = 0.0000\nsamples = 2\nvalue = [ 0.50420168  0.        ]", shape="box"] ;
139 -> 140 ;
141 [label="entropy = 0.0000\nsamples = 2\nvalue = [ 0.          5.49579832]", shape="box"] ;
139 -> 141 ;
142 [label="entropy = 0.0000\nsamples = 11\nvalue = [  0.          38.47058824]", shape="box"] ;
138 -> 142 ;
143 [label="X[3] <= 2.7519\nentropy = 0.557979296035\nsamples = 35", shape="box"] ;
137 -> 143 ;
144 [label="entropy = 0.0000\nsamples = 4\nvalue = [  0.          12.82352941]", shape="box"] ;
143 -> 144 ;
145 [label="X[0] <= 0.8783\nentropy = 0.70479526611\nsamples = 31", shape="box"] ;
143 -> 145 ;
146 [label="X[5] <= -1.7464\nentropy = 0.483272479435\nsamples = 18", shape="box"] ;
145 -> 146 ;
147 [label="entropy = 0.0000\nsamples = 3\nvalue = [ 0.84033613  0.        ]", shape="box"] ;
146 -> 147 ;
148 [label="X[7] <= 23.4167\nentropy = 0.365257421268\nsamples = 15", shape="box"] ;
146 -> 148 ;
149 [label="X[5] <= 20.4855\nentropy = 0.120760443392\nsamples = 10", shape="box"] ;
148 -> 149 ;
150 [label="entropy = 0.0000\nsamples = 8\nvalue = [  0.         20.1512605]", shape="box"] ;
149 -> 150 ;
151 [label="entropy = 0.0000\nsamples = 2\nvalue = [ 0.33613445  0.        ]", shape="box"] ;
149 -> 151 ;
152 [label="entropy = 0.0000\nsamples = 5\nvalue = [ 1.17647059  0.        ]", shape="box"] ;
148 -> 152 ;
153 [label="X[4] <= 27.8098\nentropy = 0.965237618123\nsamples = 13", shape="box"] ;
145 -> 153 ;
154 [label="X[6] <= 3.1368\nentropy = 0.839240901696\nsamples = 3", shape="box"] ;
153 -> 154 ;
155 [label="entropy = 0.0000\nsamples = 1\nvalue = [ 0.          1.83193277]", shape="box"] ;
154 -> 155 ;
156 [label="entropy = 0.0000\nsamples = 2\nvalue = [ 0.67226891  0.        ]", shape="box"] ;
154 -> 156 ;
157 [label="entropy = -0.0000\nsamples = 10\nvalue = [ 2.18487395  0.        ]", shape="box"] ;
153 -> 157 ;
158 [label="entropy = -0.0000\nsamples = 11\nvalue = [ 3.02521008  0.        ]", shape="box"] ;
116 -> 158 ;
159 [label="X[1] <= 65.5963\nentropy = 0.560057337707\nsamples = 134", shape="box"] ;
1 -> 159 ;
160 [label="entropy = 0.0000\nsamples = 125\nvalue = [ 35.12605042   0.        ]", shape="box"] ;
159 -> 160 ;
161 [label="X[8] <= 40.7254\nentropy = 0.714994911714\nsamples = 9", shape="box"] ;
159 -> 161 ;
162 [label="entropy = 0.0000\nsamples = 4\nvalue = [ 1.00840336  0.        ]", shape="box"] ;
161 -> 162 ;
163 [label="X[1] <= 708.1583\nentropy = 0.31799192798\nsamples = 5", shape="box"] ;
161 -> 163 ;
164 [label="entropy = 0.0000\nsamples = 3\nvalue = [ 0.          5.49579832]", shape="box"] ;
163 -> 164 ;
165 [label="entropy = 0.0000\nsamples = 2\nvalue = [ 0.33613445  0.        ]", shape="box"] ;
163 -> 165 ;
166 [label="X[3] <= 4.5173\nentropy = 0.759096042207\nsamples = 225", shape="box"] ;
0 -> 166 ;
167 [label="X[2] <= -5.6772\nentropy = 0.246826016971\nsamples = 165", shape="box"] ;
166 -> 167 ;
168 [label="entropy = 0.0000\nsamples = 1\nvalue = [ 0.          1.83193277]", shape="box"] ;
167 -> 168 ;
169 [label="entropy = -0.0000\nsamples = 164\nvalue = [ 42.85714286   0.        ]", shape="box"] ;
167 -> 169 ;
170 [label="X[1] <= 0.0152\nentropy = 0.998983873061\nsamples = 60", shape="box"] ;
166 -> 170 ;
171 [label="entropy = 0.0000\nsamples = 32\nvalue = [ 8.90756303  0.        ]", shape="box"] ;
170 -> 171 ;
172 [label="X[5] <= 3.1876\nentropy = 0.904177760345\nsamples = 28", shape="box"] ;
170 -> 172 ;
173 [label="X[7] <= 3.3581\nentropy = 0.333373221259\nsamples = 6", shape="box"] ;
172 -> 173 ;
174 [label="entropy = 0.0000\nsamples = 2\nvalue = [ 0.50420168  0.        ]", shape="box"] ;
173 -> 174 ;
175 [label="X[5] <= -0.1070\nentropy = 0.17152110619\nsamples = 4", shape="box"] ;
173 -> 175 ;
176 [label="entropy = 0.0000\nsamples = 1\nvalue = [ 0.16806723  0.        ]", shape="box"] ;
175 -> 176 ;
177 [label="X[2] <= 2.8950\nentropy = 0.099685889457\nsamples = 3", shape="box"] ;
175 -> 177 ;
178 [label="entropy = 0.0000\nsamples = 2\nvalue = [  0.          12.82352941]", shape="box"] ;
177 -> 178 ;
179 [label="entropy = 0.0000\nsamples = 1\nvalue = [ 0.16806723  0.        ]", shape="box"] ;
177 -> 179 ;
180 [label="X[7] <= 11.3101\nentropy = 0.782187809574\nsamples = 22", shape="box"] ;
172 -> 180 ;
181 [label="entropy = 0.0000\nsamples = 21\nvalue = [ 6.05042017  0.        ]", shape="box"] ;
180 -> 181 ;
182 [label="entropy = 0.0000\nsamples = 1\nvalue = [ 0.          1.83193277]", shape="box"] ;
180 -> 182 ;
}